{"nbr_layers": 4, "batch_size": 100, "learn_rate": 0.01, "layers": {"0": {"nodes": [0.0, 0.0, 0.0, 0.0, 0.0, 0.0, 0.0, 0.0, 0.0, 0.0, 0.0, 0.0, 0.0, 0.0, 0.0, 0.0, 0.0, 0.0, 0.0, 0.0, 0.0, 0.0, 0.0, 0.0, 0.0, 0.0, 0.0, 0.0, 0.0, 0.0, 0.0, 0.0, 0.0, 0.0, 0.0, 0.0, 0.0, 0.0, 0.0, 0.0, 0.0, 0.0, 0.0, 0.0, 0.0, 0.0, 0.0, 0.0, 0.0, 0.0, 0.0, 0.0, 0.0, 0.0, 0.0, 0.0, 0.0, 0.0, 0.0, 0.0, 0.0, 0.0, 0.0, 0.0, 0.0, 0.0, 0.0, 0.0, 0.0, 0.0, 0.0, 0.0, 0.0, 0.0, 0.0, 0.0, 0.0, 0.0, 0.0, 0.0, 0.0, 0.0, 0.0, 0.0, 0.0, 0.0, 0.0, 0.0, 0.0, 0.0, 0.0, 0.0, 0.0, 0.0, 0.0, 0.0, 0.0, 0.0, 0.0, 0.0, 0.0, 0.0, 0.0, 0.0, 0.0, 0.0, 0.0, 0.0, 0.0, 0.0, 0.0, 0.0, 0.0, 0.0, 0.0, 0.0, 0.0, 0.0, 0.0, 0.0, 0.0, 0.0, 0.0, 0.0, 0.0, 0.0, 0.0, 0.0, 0.0, 0.0, 0.0, 0.0, 0.0, 0.0, 0.0, 0.0, 0.0, 0.0, 0.0, 0.0, 0.0, 0.0, 0.0, 0.0, 0.0, 0.0, 0.0, 0.0, 0.0, 0.0, 0.0, 0.0, 0.0, 0.0, 0.0, 0.0, 0.0, 0.0, 0.0, 0.0, 0.0, 0.0, 0.0, 0.0, 0.0, 0.0, 0.0, 0.0, 0.0, 0.0, 0.0, 0.0, 0.0, 0.0, 0.0, 0.0, 0.0, 0.0, 0.0, 0.0, 0.0, 0.0, 0.0, 0.0, 0.0, 0.0, 0.0, 0.0, 0.0, 0.0, 0.0, 0.0, 0.0, 0.0, 0.0, 0.0, 0.0, 0.0, 0.0, 0.0, 0.0, 0.0, 0.0, 0.0, 0.0, 0.0, 0.0, 0.0, 0.0, 0.0, 0.0, 0.0, 0.0, 0.0, 0.0, 0.0, 0.0, 0.0, 0.0, 0.0, 0.0, 0.0, 0.0, 0.0, 0.0, 0.0, 0.0, 0.0, 0.0, 0.0, 0.0, 0.0, 0.0, 0.0, 0.0, 0.0, 0.0, 0.0, 0.0, 0.0, 0.0, 0.0, 0.0, 0.0, 0.0, 0.0, 0.0, 0.0, 0.0, 0.0, 0.0, 0.0, 0.0, 0.0, 0.0, 0.0, 0.0, 0.0, 0.0, 0.0, 0.0, 0.0, 0.0, 0.0, 0.0, 0.0, 0.0, 0.0, 0.0, 0.0, 0.0, 0.0, 0.0, 0.0, 0.0, 0.0, 0.0, 0.0, 0.0, 0.0, 0.0, 0.0, 0.0, 0.0, 0.0, 0.0, 0.0, 0.0, 0.0, 0.0, 0.0, 0.0, 0.0, 0.0, 0.0, 0.0, 0.0, 0.0, 0.0, 0.0, 0.0, 0.0, 0.0, 0.0, 0.0, 0.0, 0.0, 0.0, 0.0, 0.0, 0.0, 0.0, 0.0, 0.0, 0.0, 0.0, 0.0, 0.0, 0.0, 0.0, 0.0, 0.0, 0.0, 0.0, 0.0, 0.0, 0.0, 0.0, 0.0, 0.0, 0.0, 0.0, 0.0, 0.0, 0.0, 0.0, 0.0, 0.0, 0.0, 0.0, 0.0, 0.0, 0.0, 0.0, 0.0, 0.0, 0.0, 0.0, 0.0, 0.0, 0.0, 0.0, 0.0, 0.0, 0.0, 0.0, 0.0, 0.0, 0.0, 0.0, 0.0, 0.0, 0.0, 0.0, 0.0, 0.0, 0.0, 0.0, 0.0, 0.0, 0.0, 0.0, 0.0, 0.0, 0.0, 0.0, 0.0, 0.0, 0.0, 0.0, 0.0, 0.0, 0.0, 0.0, 0.0, 0.0, 0.0, 0.0, 0.0, 0.0, 0.0, 0.0, 0.0, 0.0, 0.0, 0.0, 0.0, 0.0, 0.0, 0.0, 0.0, 0.0, 0.0, 0.0, 0.0, 0.0, 0.0, 0.0, 0.0, 0.0, 0.0, 0.0, 0.0, 0.0, 0.0, 0.0, 0.0, 0.0, 0.0, 0.0, 0.0, 0.0, 0.0, 0.0, 0.0, 0.0, 0.0, 0.0, 0.0, 0.0, 0.0, 0.0, 0.0, 0.0, 0.0, 0.0, 0.0, 0.0, 0.0, 0.0, 0.0, 0.0, 0.0, 0.0, 0.0, 0.0, 0.0, 0.0, 0.0, 0.0, 0.0, 0.0, 0.0, 0.0, 0.0, 0.0, 0.0, 0.0, 0.0, 0.0, 0.0, 0.0, 0.0, 0.0, 0.0, 0.0, 0.0, 0.0, 0.0, 0.0, 0.0, 0.0, 0.0, 0.0, 0.0, 0.0, 0.0, 0.0, 0.0, 0.0, 0.0, 0.0, 0.0, 0.0, 0.0, 0.0, 0.0, 0.0, 0.0, 0.0, 0.0, 0.0, 0.0, 0.0, 0.0, 0.0, 0.0, 0.0, 0.0, 0.0, 0.0, 0.0, 0.0, 0.0, 0.0, 0.0, 0.0, 0.0, 0.0, 0.0, 0.0, 0.0, 0.0, 0.0, 0.0, 0.0, 0.0, 0.0, 0.0, 0.0, 0.0, 0.0, 0.0, 0.0, 0.0, 0.0, 0.0, 0.0, 0.0, 0.0, 0.0, 0.0, 0.0, 0.0, 0.0, 0.0, 0.0, 0.0, 0.0, 0.0, 0.0, 0.0, 0.0, 0.0, 0.0, 0.0, 0.0, 0.0, 0.0, 0.0, 0.0, 0.0, 0.0, 0.0, 0.0, 0.0, 0.0, 0.0, 0.0, 0.0, 0.0, 0.0, 0.0, 0.0, 0.0, 0.0, 0.0, 0.0, 0.0, 0.0, 0.0, 0.0, 0.0, 0.0, 0.0, 0.0, 0.0, 0.0, 0.0, 0.0, 0.0, 0.0, 0.0, 0.0, 0.0, 0.0, 0.0, 0.0, 0.0, 0.0, 0.0, 0.0, 0.0, 0.0, 0.0, 0.0, 0.0, 0.0, 0.0, 0.0, 0.0, 0.0, 0.0, 0.0, 0.0, 0.0, 0.0, 0.0, 0.0, 0.0, 0.0, 0.0, 0.0, 0.0, 0.0, 0.0, 0.0, 0.0, 0.0, 0.0, 0.0, 0.0, 0.0, 0.0, 0.0, 0.0, 0.0, 0.0, 0.0, 0.0, 0.0, 0.0, 0.0, 0.0, 0.0, 0.0, 0.0, 0.0, 0.0, 0.0, 0.0, 0.0, 0.0, 0.0, 0.0, 0.0, 0.0, 0.0, 0.0, 0.0, 0.0, 0.0, 0.0, 0.0, 0.0, 0.0, 0.0, 0.0, 0.0, 0.0, 0.0, 0.0, 0.0, 0.0, 0.0, 0.0, 0.0, 0.0, 0.0, 0.0, 0.0, 0.0, 0.0, 0.0, 0.0, 0.0, 0.0, 0.0, 0.0, 0.0, 0.0, 0.0, 0.0, 0.0, 0.0, 0.0, 0.0, 0.0, 0.0, 0.0, 0.0, 0.0, 0.0, 0.0, 0.0, 0.0, 0.0, 0.0, 0.0, 0.0, 0.0, 0.0, 0.0, 0.0, 0.0, 0.0, 0.0, 0.0, 0.0, 0.0, 0.0, 0.0, 0.0, 0.0, 0.0, 0.0, 0.0, 0.0, 0.0, 0.0, 0.0, 0.0, 0.0, 0.0, 0.0, 0.0, 0.0, 0.0, 0.0, 0.0, 0.0, 0.0, 0.0, 0.0, 0.0, 0.0, 0.0, 0.0, 0.0, 0.0, 0.0, 0.0, 0.0, 0.0, 0.0, 0.0, 0.0, 0.0, 0.0, 0.0, 0.0, 0.0, 0.0, 0.0, 0.0, 0.0, 0.0, 0.0, 0.0, 0.0, 0.0, 0.0, 0.0, 0.0, 0.0, 0.0, 0.0, 0.0, 0.0, 0.0, 0.0, 0.0, 0.0, 0.0, 0.0, 0.0, 0.0, 0.0, 0.0, 0.0, 0.0, 0.0, 0.0, 0.0]}}, "1": {"nbr_nodes": 50, "weights": [[1.4071303610765908, 0.08850988829588188, -0.4987835164600782, 0.6438845725816816, -1.0049948982416972, -1.4270553583990992, 0.36888225493332505, 0.6875000397962748, 0.5315479913016845, 1.4855624287606037, 0.8941962995210458, 0.8455981713344383, 0.4392602269936575, -0.535349321895534, 0.22176623264977674, 0.25052799198032266, -0.00960575186855841, 0.989001532787311, -1.0998904703081949, -0.11316757678421081, 0.24203056391004732, 0.5043191394557969, 0.025261528398648522, 0.3079063589199849, 0.2579595049334554, 0.16657387271983987, -0.3731548824891741, -0.4260796742374348, 0.6354973972013137, -0.1973329138863705, 0.18044568059153376, 1.5703827051946229, -0.5797059210718616, 0.5418093698575854, -0.11424845351404699, -0.7421758834505328, 0.684049805177679, 1.6666107880661554, 0.5264504664592126, 0.9847007670159049, -0.920509472529333, -0.18992912918764435, -0.03201950753724613, -0.6362073339390749, 1.2242961040215896, 1.1166455325647273, 0.4189311239496363, -1.2289526200975611, 0.5521343633363714, -0.10800716549054407, -1.2898522011984461, -0.13575424546418569, -1.231837108831329, -1.6491613936738978, 0.9641887055190637, 1.8335545273176412, 0.12523920841103145, -1.1554119285197129, 1.1919151131618495, 0.7878184180643208, -0.3497590918465728, -0.41234403253965585, -0.396932620726541, 0.621573956042645, -0.3669734430231469, -0.8188933727619243, 1.1865123878834287, -0.5480590591739088, -1.1780189492587296, 0.6859781418488171, -0.8321372016532254, 0.442960182048821, 0.03022155530057267, 0.008103632687071703, -1.5367319808882152, 0.7194714156145942, -1.7044419722849924, 0.7729781752703067, -0.4061976888286394, -0.4569611476891715, 1.8371149569781562, -1.9226633271000302, -0.42454507467741803, 0.2799685824165442, -0.5663881004411466, 1.2487407174011413, 0.5135343645184522, 2.4701839978353166, 1.6971343709014521, -1.3827617147591347, -1.2555979873746017, 0.37587109937689156, -1.9189330712698667, -1.444985521236121, 0.4855655511714208, 0.4575160272631336, 2.261813670112541, -0.0322738468960544, -0.023772719045443123, 0.716251773915649, -0.5898883789418239, -0.6858850486785677, -0.4911035018384678, -0.4103261074121625, 1.9109254506329152, -1.1550599884477344, -0.38008461578928615, 0.5775041592966026, -0.286663365959664, -0.5392996659545938, -0.08692135532019299, 0.9496115995600952, -1.7869262338692917, -0.5074019951351317, 0.08660183330585902, 1.3176559495896607, 0.8055647183803125, -0.3356016728111027, -0.43095547609607016, 0.3144649903027247, 1.3880508692637237, -1.0493645908216809, -0.1955915828211627, -1.8054200174165962, -0.07653407651797106, 1.186523340314832, 1.1118006517213517, 1.0765445956821882, 0.08647753242576524, 0.6197335756562682, 1.4758250861880726, -1.5970123553874769, -0.4879670926678062, 1.4782368692575014, -0.35372682364793384, -0.45204565835826604, 0.39498733151868326, 2.2013866100386763, -0.5264386783431669, -0.6607080706589684, -0.635196964278269, 0.31293938912985525, 1.8414806197978761, -0.08107555977980753, 0.7708455694896044, -1.4292061855837157, 0.4487531546257219, -1.0278242656465673, -0.2694193112208205, -0.7163644506164778, -0.8610286547717565, 0.07252534349601042, -0.4075423405907395, 0.22621815736365924, -0.9670372074811598, -0.4763325883346599, 1.6134274154868464, -1.7636511940741124, -0.03254286774264972, 0.2042155421685741, 0.4061910014459045, 1.5525814018018638, 0.26604486763361185, -0.548721068415906, 0.2089108238516072, 0.04081190419774255, 0.8102807932156738, -0.41701952405969195, -0.25477684294197717, -0.7128169747922133, -0.8806397901331116, 1.8007603279354196, 0.07511142063706938, 2.0492535110011803, 1.1073797258602975, -1.457247398658273, -1.5025364002267807, 1.2713865181234862, -0.6407079054567489, -0.18707003853018922, 1.413901661057766, -0.46666348123740636, -0.75889487318387, 0.7857397010332271, 0.3340159562394953, 2.115459625901755, 1.2564610614491698, 1.7391820524798316, 1.4659786186561858, 0.9669654676967561, 0.6763615122043187, 0.17111862907976286, 0.18711765765356683, 2.0506584296766843, -1.8164080091798531, -0.5706977535300216, -1.0818212108799101, 0.5179251311710109, 2.061729612687774, 0.9433412790655606, -1.260398513153914, 0.26671595003143894, -0.30466211195496384, -0.8757090103620485, 0.23061192424164897, -0.36437338691813703, 0.7499932554737591, 0.051693239789291724, 1.7720924594653562, -0.1696678002582091, -0.7640305837629581, -0.03727061040303171, -0.5138681858772184, -0.728820544226148, -1.6859504622240344, 0.3285119429607443, 0.5294371826233779, 0.9802389026435906, -0.7522285520032516, -0.757712224883339, -1.0236436069217063, 1.1616525000876363, 0.7887863694018655, 0.7247414171802468, -0.8850191930066625, -1.0295471352397247, 0.3578946942589674, -0.658565448641655, 0.8219185013876709, 1.3010317040384927, 1.4589201051827034, -0.28200851227786544, -0.2662948296142035, 0.20931072105853143, -0.7164266534836866, 1.3040880602512837, -1.5025998417090698, 0.4100035934633685, -1.2911024449610677, -1.0455565069997208, -0.18248122683265408, -0.128690310414421, -1.687286519035486, 0.5503753390472778, 0.9073391154841011, 0.8296700742950188, -2.0499656042283343, -1.457856517250861, 0.9939820958564489, 2.377494203963693, -1.1616464649310512, 0.3433256664027349, -1.923014127055395, 0.26433074590249295, -0.0159834453104373, 1.7993150682657135, 0.2503649321701917, 0.1580997545895171, 0.6038810151923426, -0.42881902941403044, -0.7536642479509505, 0.41062410695313467, -0.6463234243519824, -1.1179477724143219, -0.4623126171706977, -0.7325425617809538, 0.353348527427909, -0.49919283092606853, 0.402459697996563, 1.3345994308170677, -1.4688089518813818, 0.46180625303591977, -1.620854955735123, 1.4530310638889132, -1.559923181985422, 1.0540979054445205, 0.0750031708063592, 1.3636487961191366, -0.49800821233927245, -0.40759054482719725, 0.08662218490339126, -0.8519342379866971, -1.2333573398207536, -0.19769083891131556, -0.2214701610317548, -1.352159985266556, 0.1531544265810958, 0.7209559076286477, -1.3825233110845954, -1.2161506761680492, 0.05991406197131523, -1.0254077787565141, 0.8595668795446717, 0.6331758477586931, 0.3583977334851642, -0.36403371805429335, -0.7028737947895105, -0.9022633838634216, 0.453296645856158, -0.04739470645960652, -0.637661784653952, -0.0021048150906142894, -1.2474108018809746, 2.6919110525922405, 0.09142158169598039, -0.23661005867802426, -0.43582694850116965, 1.4231612394488002, 1.0060390576715013, -0.39589519930186196, 1.6499561841522583, -2.647156772794481, 1.3917994571668504, -0.4274348139439961, 0.18701093798060806, 1.464097256153505, 1.9690038876485767, -0.898453695083974, -0.3779526315619131, -0.8739102374552493, 0.6362109482457973, 1.0865474815728275, 0.49964714087840234, 0.1099367344893486, 0.9648810456652295, 1.4398520145629468, 1.5561124467301957, -0.9349275024940433, 1.4313492856867414, 1.029473255688945, 0.637350497525134, 0.9149737290630519, 0.5295936428913031, 0.1778055276314607, -0.43571161028111727, -1.6299742984114547, -0.2562281840562062, 0.9757058292624428, 0.6115243186684399, 1.0578196218164497, 0.6374450857620261, 0.9342745650993861, 0.6807856634483068, 0.24828198188965422, -0.5010069681164983, 0.9403116512725369, -0.2526161085573143, -1.4110934427200772, -0.03944304890825783, -0.1762830598693796, 0.5747130416791025, 0.38241029003705385, -0.4613199382005281, 0.7650089263652742, 0.44969371109124456, 2.310410444664752, 0.4453562336373863, 0.2208466487331733, -1.0325129523500471, 0.07515415334254168, -0.5966474726197447, 0.205803327645813, -0.022449979709930047, 0.565992540685735, 1.3058219937402091, -0.8120603035002688, 1.124625636538645, 0.3090714361775167, -0.7040281031852756, 0.8683422343241348, 1.6103093575073706, -0.9382787314768963, 0.18697825998386414, -0.954494208777026, 0.22350350570857913, 0.20664327542985533, 0.29398739310084243, 0.6645863708869549, 0.535794594660285, -0.5810482487549129, -0.25188069818406095, 2.0320271845728355, 0.6825223669712648, -1.536943436508485, 0.6596400978166912, 0.3249071865378302, 0.7958330247558593, -0.6746327757191314, -0.28014117170003944, -0.6507636100451094, 0.32001713907255336, 0.5542525419214844, -0.6017326584290432, 0.7388612667302198, 0.1823668772187667, -0.9121060888442836, 2.320937325395135, 1.5849315703740197, 1.478108580135874, 0.6402754943595723, -0.004194615195126467, -0.3986355154274631, 0.612758956702475, -1.6275361961257613, 0.3126804208784266, -1.1466854512408338, 1.7560268443753395, -0.9868136004864144, -0.5237487591144907, -1.0356456465218442, 0.5304941316865373, -1.1269665027441396, -0.006682408154154838, -1.0028497643220138, -2.6395550965509242, 0.36555999279054924, 0.8214573610730801, -0.5662949842567989, -1.5158702395343335, -0.3656248545535194, -1.124015710725179, 0.47997164117859514, -1.04092352631872, 1.0002163520237755, 0.2729716136215188, -1.1176219874243458, 0.16169001256303278, -0.2730103794559938, 0.666523460109331, 0.5785100531134024, 0.17466457597544724, 0.33233316006725033, 2.344020705147198, -0.707732283603326, 0.8571840728426849, -1.3210359050175338, 0.23209015897920762, 0.08761648701756654, -0.967661831636665, 0.466655188942849, -0.7141424020448242, 0.33784984638649157, -0.08195171578769402, 0.1627541961031933, 0.63363259049109, -0.5645390163736133, 0.7094497132503754, 0.005674451281647765, 0.16982477630264065, -0.7189959664418347, -1.6244183751870833, 0.17741221007106203, 1.2554200174904802, 2.315553902114817, 1.0390536560855572, 2.1418298245412855, 0.6400750306496262, 0.048849443550964315, 0.4405544039635541, 0.584015360070759, 1.250302525766395, 0.5531251430466616, 0.551519110524709, -0.4517050789082622, -0.9708320416982168, -0.7912417221605387, -0.6653746079820266, -0.3341007442656173, 0.5654996721937932, -0.9047115393169939, -0.8675985204440204, -0.6102864630105584, 0.5626881964389597, 0.1443711039296928, 0.17359037473898706, 0.6923212287963442, 2.4257393794842024, -0.5685396824094214, -0.9301401961893204, 1.6198163037429005, -0.4703928926234563, -0.6092651949948383, 1.4979979724118129, -0.9003124503713167, -1.3769233177555242, -1.1384152029717693, 1.2471836498408666, 0.024484286516047258, -0.789449329513064, 0.9466420622682838, -0.7699617682947678, -0.5733675958689823, 0.15359053467213427, 3.1119214520676297, 0.9162493899054892, -1.5946729612504933, -0.6112258756102027, 0.32021923622440096, 0.008193677664745871, 0.5171229694973654, -0.7504420916890203, 0.4396633520199071, -0.6435015960012209, 0.9743129691908581, -0.6853987027596343, -0.3497430835915379, -1.7329702187402323, -1.5363195777286276, -0.7006738465917515, -0.6290470988112762, -1.373432448474641, -1.1811523104748767, -0.4502011094406438, 0.40844125702231027, -0.2726015451410874, -0.642314954029064, 1.4913181754174538, 1.2868097669858716, -1.157757791461955, -1.1556448771361845, -0.324936386987919, -0.2002219336631843, -1.6908907253800216, 1.1874123617729004, 1.1732201250993202, -0.40118617410501894, -2.0266115324256413, 1.2673456699831, -2.382500320013553, -0.43148259786908777, 0.9145095240609861, 1.1419263302511726, -0.9389437806920901, 0.4886025108248116, 0.9773278731423651, -1.234274529311901, 0.4354965047761844, 2.115509248953199, -1.525369704807599, -2.666131317503451, -1.2556207118416902, -0.6567685792696458, 0.47837838707010116, 1.2856407956185132, 0.25587182459693286, -1.3244335936779787, -0.6936398769960964, -0.2305145963649261, 0.4261649064850734, -0.0798706719429145, -1.4007980854610729, 0.6817968301375099, 0.12328110319413565, -0.6059245094245734, 1.359115322883172, -1.430560133156886, 1.503243808766448, -1.1497850561827443, 1.3764942923085999, -0.8961475464001986, -0.2962642365507428, 0.44440715476129666, 0.11155262965970728, -0.6939715402911221, -1.199341323727013, -0.8036892917070612, 0.2566308055685493, -0.558390146971181, 0.6188304860111982, 0.8376010853035694, -1.4190792572738002, 0.38229286892731423, 0.02752292884949478, 0.9150239263354892, -0.016034137519110023, 0.8733584450047309, 2.100059409076556, -1.187534742871772, -0.6891349989120121, -0.471185019127857, -0.8798430881574318, 0.873473660572705, 0.3499910993009492, 0.17064658610907513, 0.008210175464454171, -1.08623005026257, 1.5235965957564261, 0.23591586787364086, -0.9959407255167998, 0.12959573520854437, 0.6424115884839419, 0.7835922127909853, 0.5447613281663259, -1.7925329732377175, -0.6156140899206001, -0.618255438015915, -0.05609646789725504, -0.2049301116590774, 0.251324683531823, 0.1598493471059517, 0.42100967932817474, -0.009091420515668606, -0.319117858464008, -0.5699579223227929, 0.3246422587705393, 1.824881165444013, 2.3990890764836137, 1.243599605950375, -2.0964675600684837, -1.7164867209609196, 0.809033599149151, 1.2537703348347555, 0.7262026118509594, 0.6059427058028622, 1.925265963239553, -0.4263489160191884, -0.7956195179831352, -0.39209780402552796, -0.1684087832858803, 1.756481563254356, -1.1240146543458387, -0.03393747299188357, -0.4014162172835892, 0.10059439878418698, 0.08451176004926655, 0.16883648057455272, -1.2559089582014435, -0.9967734626577462, -0.047999296430294915, -1.250106689589514, -0.9213280341347546, -0.716715521745812, 0.006931450018190876, 0.31236505065224807, 0.44275404690154807, 1.2601384981324355, -0.18016950688265035, -0.25976133535137713, -0.8709928937304873, 0.05505184161537755, -0.16038416295460917, 0.17710060587442397, -0.65391099035011, 0.9035589238249051, 0.14415227512620968, 0.9953744216000286, -0.39397738233463864, -0.3241483756215956, -0.8425480723357766, -0.3436213913161656, -2.094678151642976, 0.16947574820135436, -0.06219023141367671, 0.7290388805807421, -0.6169132613481043, -1.524435419622004, 0.5086541691384922, -1.4161877504814693, -0.12027530284142036, 1.3656603427697602, -0.21061973627158623, 1.4272873465940779, 0.7732172276806484, -0.18393144427184466, -1.4349093922146468, 0.2592774247074494, 1.9354714480615625, -2.3022837560449267, 1.4100516567585473, -0.6088621242189024, -0.6271670891869879, -0.5162412009823708, -0.28789180355885713, -0.2882909657285057, -1.4274305870196704, 0.30394362560254595, -0.8571421990040778, 0.2347612443205245, -1.2938909115831703, 0.3010508677157729, 0.9821754072822863, 0.7180409847905177, -0.7500046462990092, 1.4918355933793115, -0.15606636086261724, 1.179242116207046, 1.9441986738418557, 0.7631787347519892, 0.8624347412794924, -0.9970581528943988, -0.3049743609265138, 0.14231975257871152, -0.027563697165456532, -1.0274606471673908, -0.2460541208478257, -0.06999463657033864, -0.6872292153967572, -0.6623895069930281, -0.36585875473994406, -0.9205940748208671, 0.42134791204113536, -0.16761417700652148, 0.40318868760050885, 0.7565262424072521, 0.42862432276619283, -0.1795042003308072, -0.2847553484892501, -1.056702925594476, -0.13935377183180228, 0.2596270663691774, 0.7768012696862541, -1.6575646533867836, -1.2285511675460612, -0.5378314988329266, 0.7640827758128559, -1.1358343415856504, 1.1142084900428233, -1.112328505826646, -0.7036590934602722, -0.16580094862780148, 0.7047500245771746, -0.7853785908103856, -0.44384400214554603, -0.6494608764616987, 0.6177502897308798, -0.6586993824048951, -0.07231238165353941, 2.3282474663070465, -1.9781095842346823, 0.030643343133653644, 0.7836486083738328, -0.9796778549095372, 1.1164053562466134, 0.48899381230438665, -0.5092059006192176, -1.7480619808760123, -1.8458838385313299, -0.15945774721553263, -1.2415018792841168, 0.00514247973765302, 1.2205033932946643, 1.0689153284697765, 2.768399781355855, 1.5726332145496855, 0.8537231963541835, 0.7248943148996385, -0.47995248030438237, -1.4564117373766514, 1.7548699360290876, 0.6762264408699282, 1.4631391541998846, 1.0942282556870386, 0.2947895034312408, -0.0920764313299212, 1.3817569571705262, -0.9961703722953391, -0.010858630204135725, 0.857564533574053, -0.7518117072986593, -0.3446269297290149, -0.06693113419624226, 0.7514643923016346, -1.4654301481999135, 0.8976539150437578, -0.32403852021054735, 0.6130079586186419, 1.1829930718574269, 2.6991893438043304, 0.10713720482338712, -1.2536376537456457, 0.40064282981091076, 0.19202501211433368, 2.0740473114855624, 1.594156471287939, 0.011764821185587018, -0.5485558485664003, 0.3824899032609983, 0.2718902516148641, 1.2142508991797105, 0.4160520033504919, -0.711205519797293, -0.4313234152220064, -0.2910334618416836, -2.164459709335976], [0.9439943474261006, -2.552392329793042, -2.2432682374691337, 1.3515337077558034, 0.2751390270256215, -1.2590962833368133, 1.706202724185313, -0.8602588675928186, 0.08065261060601553, 0.10619358327113237, -1.471925121733656, 1.223081312670038, -0.4509739345352866, 0.18973988844495931, 0.09422190821212179, 0.13222433528134417, -0.468030800951645, 1.0204841836299596, 2.7200285349544324, 0.5583882727595044, 0.8869089482266654, 1.3553073895507235, 0.37204872882744106, 0.8405285935947474, 1.8060652815068952, -1.273771756294036, -0.3249057418065151, 0.3938693078062129, 0.7158884283831073, 2.359778362538103, -0.671770667470293, -0.11830968596209532, -0.8368487987606074, -0.08766032766543208, -1.086841737846071, 1.4341095240645996, -0.3474895060684189, 0.33189583095482494, 0.11468782520015382, 0.3120695166749354, 1.0094236056798365, 0.05308997566877316, -1.0676075093227255, 1.271521524789467, 1.0605962037757117, 1.1072359823160476, -1.1899487792019652, -1.0565610920830466, -0.043072829694655576, 0.6471118283325459, 0.19789632545286284, -0.6189656001006425, -0.20775789214583473, -0.05669960345409336, 1.487681117817413, 0.3518762608880464, -0.9573566277112973, 0.7157703611255184, 0.7620570570758828, 0.9002942559122802, 0.5075476067191436, -0.002993717697722184, -0.5119761356574718, -0.09842610365654454, 0.6738798595511679, -0.4029381427172925, 2.1167585114669527, 0.8413813482784028, 0.1921779110628904, -0.3452089732236661, 1.4628453766148046, -0.6352120704108757, -1.0869380668335507, 0.9969620635815778, -0.9148463030598857, 1.0191727232669072, -1.1586153839652866, -0.5301045281175184, 1.5918563860146269, -2.077583069137239, -0.6996697268931419, 1.1758878196513847, -0.3181228658179915, 0.09171255877194864, -0.293331163324041, -0.668294506963937, 2.5444826471221784, 1.102013717212444, -0.5527029243283874, 0.280813013393414, -2.1265308116683697, 0.507794868155901, -0.9972192001847723, -1.3549320459304777, 1.442869393783627, 0.37331809064896, 0.7070478973573873, 0.07542432659842972, 0.9802519920836726, -1.1102049797562568, -1.0145745766761807, 0.42503339800450296, 1.7332525421642178, -0.8610582045897394, -0.7499317770719615, 1.7309277104343481, -0.5972153058972353, 1.6176789337439224, 0.46262023400862035, -0.7011778457261292, -1.0833426498840666, 1.447114069028532, 1.4711937092322505, -0.44931338651388675, 0.5943940806953634, -0.5109176566364211, 0.5002395005230889, -0.6301370598115519, 1.755190905726434, 1.1039231789194524, 0.4868753476306234, -0.33410661345744336, -0.6330787214785624, 0.26950069925772824, 2.227508583783376, -1.9026055981690657, 1.7315003234694126, -0.4219645995697472, 0.26239404943864986, 1.3143811920557924, 1.3119053932020968, 0.2744332701544861, -1.974433859096149, 1.118704733590288, -0.0806855214261566, -0.26829392739225777, -0.6479480630750306, -0.772032705318961, -2.535823333424436, -0.6994880682246063, -0.38065942973859085, -1.8349443410437096, -0.3676619498815275, 1.5433717631461374, -0.16722170995473457, -0.2941937603188731, 0.5113188993599748, -0.2362420588734332, -0.17830397502404283, 0.8664454211312932, 0.7410729339663302, -0.12499409924707777, -0.6271880603104935, -0.27057047131537704, 0.15382983864561092, 1.5673685582869787, -0.9179504512531874, 1.6373707632054115, -1.5390425078659218, 0.7915064881828761, 0.17295698721356687, -0.5163702483981712, 1.2891349176169122, 1.9841063446818217, 0.005219082781163872, 0.8042303402060362, 0.6663986424616577, 0.9677593438301678, 0.9995317271900678, -1.0056690512290243, 1.173439911697005, 0.8003141463768992, -1.866837214555107, 0.8078421935405234, 1.3276971351251696, -3.312686742249856, 1.7898902211770935, -0.10590841443246474, 0.2688130745864145, 0.0870347630258602, 0.49602853804091707, 2.4485481263686077, -0.7184794844550627, 0.8698248995537566, 0.6228867856536622, 0.8463228438988055, -0.7248929565894859, -0.28089520457425954, -1.4110061827819589, 0.17917392565285478, 0.8587101349154085, -0.6972287229792058, -0.16210393557153568, -1.5162817157096007, 1.953031443044545, -0.19765537268851138, -0.30510833878926125, -1.2733466082723501, 0.7143277279662847, -0.2725185400849732, -0.1783119779540158, -0.4728065850002886, -0.7828512635167074, -1.6382312671291617, -1.0102470793557263, 1.2661002891022817, 1.0880136427177185, 0.35030875231450376, -0.7513998828231321, 0.1234710790821574, 1.0298346074968854, 0.7667468087684791, -0.25654503860071864, -2.9399544617753883, -1.08258533886493, 0.8050551717909873, 0.793288287566878, -0.26500982692439656, 0.07204143657892335, 0.20057708312691594, 0.2909334894299373, 0.3102094819214018, -0.4958733270960717, 2.1230782210670927, -0.15226106935329192, -1.4707859344448175, -1.1871204812470022, -2.3793728992804124, -1.0904766385826108, -0.0008018144891075924, -0.7045235886025699, 1.2711166090045825, 0.013706178761859025, -1.1007903273319615, 0.47879638537059527, 2.088831383526083, -0.8332171572437722, 2.5597803749615737, 0.9898824184079422, 0.38926647054052355, -0.2728187282947336, -0.22704169117079573, 1.3602619053742275, 0.3641642363546823, -0.10831124808722611, 1.009955714054853, -1.379754119945574, 0.8983693338344791, -0.9122712993714788, -0.11756731843498676, -1.5268946722986498, 1.3125008996461294, 0.7605663312372163, -1.5208093059832464, -0.06575131241906189, -0.010902876908282197, 0.5285227409612818, 1.5575554111070682, 0.9518562151311277, -0.14629831600452914, -0.24725109232655215, 1.5744737341041195, 1.4242336549446535, -1.1791738008747314, 0.633209249055374, 0.047126961117053015, 1.1892893596952285, 0.7167639233587317, 0.3659927502781447, -0.8115744727233251, -0.721696206414609, -1.7579475927029196, -0.23379938104137235, 0.9761864847840523, 0.1157631033941044, -0.1045869859983167, -0.27159691964324423, 0.994293614854468, 0.6287757134701588, -0.23080836003450136, -0.5678235932316844, 1.7731475338253218, -0.5579599445957997, -0.20958875625415554, 0.3533009504530212, -1.5037029722770257, -0.6220044819137491, 0.9025073371693428, 0.18536744783476417, -1.4520013979671442, -0.6050662145296567, 0.5767899458020284, -0.6225720212435144, -0.18661564079839366, -1.2618754842422728, -0.45993383176669955, -0.007192698859408497, -1.8772962587136706, 1.1763321914407594, 0.5172893401608997, 1.8238728258629218, -0.2669485297154379, -0.7297698380858221, 1.3317229795929635, 0.9415190643854141, -0.06675158654139955, 2.058585899107562, -0.33366308386357574, -0.7984643891344794, 0.05866198201175709, 1.6989326342263706, 0.31063166102933565, -0.6553416145999226, 1.7429915212189786, -0.5711165767064494, -1.035825991723354, -0.3292324615146402, -0.8880127601453719, 0.8248795857679879, 0.83801802083445, 1.812527778703479, -0.24591834356872394, -0.9119250260591216, -0.8344000457635199, 1.5471894355745983, -0.9732759229679542, -0.6441509425897197, -1.545973744847303, -0.2146694592022204, 0.4803079447719122, 0.837169847947697, 1.1352697020447424, -0.8503206724792333, -0.38841007007603084, 0.509365474399468, 0.2858590480744667, 1.0226044329597057, 2.580051741565716, -1.590704929968409, 0.3607149209742098, -0.7907707850857754, -0.678678227626355, -0.6347989206135504, 0.09308593677444514, 0.4477114059695227, 0.5080181729146761, -0.35226167056282615, -0.1340872144316063, -0.6584478540619119, -1.0408757516888805, -0.09609918350649173, -1.7587317106030234, -0.3368958429887136, 0.0189403659659122, -0.25154067129694396, 0.2700151317035667, -0.008521047575407954, 0.42832934618258545, -1.3815036669474776, -0.0717545775172683, 0.9066616734514759, -0.28990742706344036, -0.1727674406150573, -0.10911166827998962, -2.287976669961164, -0.054442956393474726, 1.9079887513369835, -1.9168103191497918, -0.733148281244782, -0.6695301081213728, -0.019541327964799637, 0.4011924370324019, 0.6166105041919654, -0.1380406785947603, -2.9837089178754757, 0.09264459071646876, -0.04935373968058958, 0.5526444409443156, -0.5448625278709367, 0.36386115716026274, -1.6855679605470748, 0.24683511799809385, 0.7820364376120231, 0.28197950891664253, 0.5601925059143283, 1.3463794189450087, -0.460382113018698, -2.2025133781472515, -0.5288438176800381, 0.07950307784548805, -0.2005958217447768, 1.8580896388370967, -1.7436208143480443, 0.7104284995769172, 1.3781085223543645, 0.8558715466054376, 1.437836017558952, 1.141559473810424, -0.14619939016312544, -0.3932661030839959, -0.7362141877128334, -2.2595739045996597, -0.9121959296522077, 0.15073109883112493, -0.509011317648126, 0.13159468747702702, 0.9247472591434311, -0.15788240985426527, 0.18000738755333323, -1.1098130341828383, -1.5344609470570676, 1.1435942167247888, 0.24234244924720486, 1.2609845155828836, 1.4054047534738705, 1.175834788266472, -0.9218703183152682, 0.06816576791718934, -0.6635893752851029, -1.9254970834227878, -0.40012169177018225, -1.2881951594499266, 0.049285575480329726, -0.28683390785572765, -0.7993676952501146, 0.7606911261308991, 0.17659269577815415, -0.32950426259815185, 2.784758041963646, -0.29401125871634926, -0.03378890216219265, -0.7602719115376687, 1.982363949229551, -0.09354659268710319, 0.04217471574074542, 0.9391484144135932, -1.2768127304155588, -0.4760676680539525, -0.5305825697839504, 0.38044854316974486, 0.3428206875246009, -0.7100676426730448, -0.21629150826112908, 0.9745578330783058, 0.22183385362032265, 0.22521395916695755, 0.9510241852586118, -1.0402209641353233, 0.2246968956744625, -0.07177147747912155, 0.64672832355257, 1.1915332612141383, 0.29021603296423587, -1.5172330810793786, 2.3791621146135484, 1.1942215125375908, -1.1493354943603828, 1.7929486333587408, 1.9517596411705893, -0.32217304901934385, 0.4420477983033137, -2.6934983898465097, -1.5559333683393426, 0.005355521637838393, 1.417603469002078, -0.5192307781649729, 0.8019084863040036, -0.2764931756558493, -0.04629892324752035, -0.34339948893372124, -0.1977354063370544, 0.09711636550248175, -1.6447462427108506, 1.9815163289825637, -2.7040530339398288, 0.0997800467617348, 0.5065366632090913, 0.02851509493923075, 0.16749381169826522, 0.5433060891916279, 0.4142627789110429, -1.9058565272638446, -0.4630852680480042, 0.48403649708114105, 0.002427828069575599, -0.5168136393691597, 0.7329349203876842, 1.0767698514023414, -0.07378133337844689, 1.5192344651739502, 1.8239745661353644, -1.09985117816366, 1.1337094327652646, 1.0074575369685717, 0.425891276971948, 1.53643548430118, -0.5090714707487141, -0.4351307075223851, -0.10094482682345157, 0.19499696639098923, 1.8161756856262545, -0.3373354007289191, -0.2546518177953631, -0.7247064127723677, 0.4266876395146239, -0.19992551910284956, 0.3865500232294444, 0.9667176268718038, -0.17161864297840698, 0.12366324315800396, 0.8405473935986546, 0.3563426364165091, 1.2494827598948146, 1.4105346797676022, 0.7190686809465812, -0.052493250114601014, 1.663152408694327, -0.29950961432929274, -0.5894501085254058, -0.5730712910685952, 1.4099097643004492, -0.9224351688975498, -0.39405695394575413, -0.3230718222403946, 0.7502015447767866, 1.339052396305031, 0.0743920191715846, 0.8295487178053792, -0.4290953439475327, 0.46238060739198206, 1.9998050227545494, -1.3235484798942803, -0.5678024866968844, 0.19680762802745283, 0.11065221180727462, -0.20803685469248942, 0.314211813485312, -1.2968392859942814, 0.44784941187736305, 0.2572900404625429, 1.5445640952361357, 0.8594227518139503, 0.8877137818297106, -1.5028735124836772, -0.7410114141209743, 1.6963410047290741, -0.52556239112595, 0.4054812632337602, -0.7870878127822373, -0.9128218585819635, 0.7756412366835582, -1.795852759328206, -1.3301882225250872, -0.357015263210447, 0.7936269214329268, 1.4658639392592299, 0.376629799614542, -1.244956347011857, 1.048625637849282, 0.4513826456883579, -1.5238571754733639, 0.2903972577242323, 0.4353945207002443, -1.3971553719824787, 1.4654021661978198, -1.1918540944540505, -1.4332537770387466, 0.3354356377228414, 1.5588285940646267, -1.1722030889846202, 0.4189510094522523, -0.10721236439053734, 0.22697190272552412, -0.5495834148092541, 0.09367479135952372, 0.9168074700104152, 0.47240373691091864, -1.4191753217284622, -0.11555856863599827, 0.7607181057243638, 0.07931868100010997, 0.9353994766933922, -0.2763351199838083, -1.7350460346957914, 1.5671894202825238, -0.12549043682949348, -0.08396019786789224, -2.0907123991355325, -0.4276383210434458, 0.9600992551506407, 1.2435465057268147, 0.3073637898660499, -0.7719320325938661, -1.5054232377721481, 0.47727164143381456, 0.39324776266193406, 1.1216730808810396, -0.2610679916574347, -0.8990691888592254, -0.7538450159054979, 1.0884623432832223, 1.3835879802575037, 0.9028091768969403, 0.5501156280272502, 0.7298825500528463, -0.9995157846674216, 0.6173138079595867, 0.8429288164198077, -0.7922008622430021, -0.4076643102177518, 0.5052615215473675, 0.24456325758860745, -0.5983350912878659, -0.6743691393702016, -0.5998965876603758, 0.6049370430570834, 0.5268347662613021, -1.2080323268727489, -0.5055758619289036, 0.731655946552032, -2.131259457518702, -0.5143255473587341, 1.1456298189007887, -0.5342482713253791, 0.7136694947448073, -0.7558117896052211, 0.09973880640214798, 0.6107153146482286, 1.1473555189467535, -1.4244019120832978, 1.7848417023552803, 0.1424777319073321, -0.5862780320339732, 0.6386517083290603, -1.2094233896230986, -1.118508961673084, 0.8845628615480714, 0.08662120065304663, 0.3756336023692419, -0.22377691433599287, 0.22560905545728524, -0.012707627706646067, -0.12700231847979646, -0.7777476080694634, -2.1863631545087148, 0.5442147796911256, -0.11079001718397331, 0.6311995430475627, 0.6540562384949739, -0.8089016230029228, -0.7022903569005785, 0.6633240347536625, -0.10555714793537807, 0.9959914318044935, -0.038536429312101626, -0.7004176433733219, -1.0664639318434124, -0.8627606347421877, 1.0844986998479484, -1.002085418663766, -0.4460335634351066, 0.8387469762758464, -0.9824082872885104, -0.5319118289751256, 0.03197071410710103, 0.7774823893362635, -0.36747447832345626, -0.10885740231340861, 0.30879527087065745, 1.0078294096531506, 0.153216621185635, 0.41503107861912464, -0.670693809763701, 0.6692856724338648, 0.7089094940126998, -0.00512553467417642, 0.2762756332898644, -1.2570951706667088, 0.2868922133725724, -0.26095126506684646, 0.631515389135269, -1.131587549306889, 2.7254438759412354, -0.620326077334575, 0.01601935231344025, -0.4818486629175343, 3.6451086251101668, 0.39482968604788715, -1.322102446598315, 0.25279674833876886, 2.30701410595293, -1.3593104813475572, 0.15796711454948292, 0.7654631007472794, -0.9346607396169783, 0.18446268231710156, -1.639500035394912, 0.11930665867631707, 1.2277509488479497, 1.2346078564044163, 0.09601155639874767, 1.6802785697068434, -0.9534543820583814, 0.2526799877743026, -0.3318218721321254, 0.28587809242038875, -0.7838071835721213, -0.6276530115112963, -0.2874331046691704, -1.8644614515386622, -1.6775130469333899, 0.24065682437977076, 1.270977662172064, 1.0987043225573585, -0.38021793347479044, -1.6244065867299098, 1.032784447919721, 0.90824031639554, 1.9710333802974114, -1.4942742068514998, -0.9856960424130643, -0.5182759594405496, -0.26779135741130006, -0.04648586238676042, -1.5804334457907385, 1.010715429182299, -1.411107224483235, -0.4893444272704279, 0.03299847497928556, -0.6970568697594167, 0.8177902051517238, 0.23102636576855898, 0.1619955977188043, -0.38175599669560817, -0.45238414528339776, 1.7207178545714572, -0.10124305198445681, -0.05602998044917699, 0.8874802277405222, -0.4100887902908775, 0.9417070252323055, -1.2709594400135622, 2.274399596513473, 1.4510466920237948, -0.903259827876221, -0.07385491997898694, -0.16675826548516504, 1.0639524122407833, 0.10482543568804395, -0.8271255074544077, 0.04528032520815362, 0.9165318894262292, -0.1424264014315875, -0.7253624320515821, -0.5207028466777951, -0.5203245700252536, 0.4035601008867089, 1.009503986869639, 1.7464985380962605, 1.4949586366986922, 0.5640111533959526, 0.177155865838262, -1.0647263559439202, -0.6509409289628894, -1.2091721342754858, -0.2826192085452134, 1.358912478212447, 0.9996343701549465, -2.413316292798858, -0.026174134466551383, 0.11871487659130417, 0.4923978371000852, 0.13517442963029952, 1.886530434290411, -0.654929897046643, -0.3023232497728685, 0.47050616515581833, 1.770351091062901, -1.1564191404977513, -1.0221537653785104, -0.0690666816539428, -0.6470164826393985, -0.8845474827465839, 0.31337518363961964], [-0.6274254508168122, 0.8942761070496983, 2.6015197550414935, 1.5888564950932125, -0.10681816341381511, -0.07509772471637084, -1.050166112483865, 0.8488625360336014, -1.0421475977438437, -0.3455166252951271, -0.74488241803163, -0.04246211320587172, 1.0130731798525006, 0.7772078893052901, -0.036012709325176945, 0.10703500518107027, 0.28551698024573696, 0.16384952870484623, 1.2578090073441788, -0.03758208790853254, -0.1074952544885278, 0.5682367833625346, 0.39507350853894246, -1.112789590978288, 2.274066151530136, -0.2473929222819692, 0.6508203687571876, 0.5514659290422969, -0.45614002265747144, 1.1580649960917329, 0.19582042313330772, 1.079406170995072, 1.1790840809741452, -0.31457594200832917, 0.5752966084571317, 0.1969341734760404, -0.21391531800352712, 0.23662087290954084, -0.7741606756720768, -0.2403499349531766, 0.017171468269442942, 0.08929641452509618, 1.1037263967091655, -0.09293445718294362, 0.31063597010017574, -1.4873660342035666, 0.26287842956212715, -0.3673715235914548, -0.004614807782156339, 2.3120874221509564, 0.7135395834442376, -0.42112041085939894, 2.1374711016598784, -0.10658212627840317, 1.10066577441195, 1.054114001628411, -1.015783691622828, 0.030375484525186253, -1.2913589004729966, -0.3242057501017828, 0.13025179351732402, 0.5911698208581956, 0.528098924911044, -1.8748295539327555, -0.04017853525685941, 0.47595654615757005, -0.6527079867740178, -0.8869137373881412, -1.2938032353932558, -1.2143958283157248, 0.3544437538519824, -0.4525479960781024, 1.0974618212123868, 0.06453444104674928, 0.3990671973119347, 1.0441798057442708, 1.4596977584997994, 0.7480138550627509, -1.8281018752170393, 0.2302345616491107, 0.4066157931410864, 1.341590782696217, -0.5841582357123749, 1.419155344733079, 0.09897069753235464, -0.9853447552975879, 0.7813597824625891, 0.29044096936306407, 1.4084483476758378, -0.037051083893240834, 1.7257423628179025, 1.165712536491321, 0.11331580407865643, -0.3318033864620099, 2.9278595578054927, -1.1893796807196977, 0.5431769437707037, -2.736423104088546, -0.36772836523433394, -0.2807457241943235, -0.9360557615265336, 1.847646316332094, 0.17457570246194615, 0.7802069059538497, -0.07410496909732231, 2.0698732653469953, -1.8211071801172611, 1.2892104997375888, 1.5609532672018096, 0.6810169996759292, -0.044266939299982995, -0.16565006606854252, 1.2255979962754966, 0.44574301025261864, 1.0499799712159332, -2.2723449278632804, -1.3124239023011928, -1.7015631552711505, 0.7409225851639384, 0.6628237570949153, 0.6290190693042782, -0.5671794541680811, 0.8548985253704171, 1.4435111398993614, -0.5469733701866604, -0.5747782675347716, -0.8010048603097618, 0.6474142774227626, -0.7608186527536916, 2.331147831213273, 0.8441631450969327, 0.03221121972322464, -0.09131607997155622, 1.2067280962217215, 0.812052889362149, 1.8260371667861715, 1.5032712294276052, 1.051072822409651, -0.01828153465806601, -1.9673666156231093, 0.10122212446197854, 0.16456654033475554, 0.9376442667307358, 2.4390388763435396, 1.134009242071883, 0.5396818196441341, 0.8477229684585361, -0.141878225586817, -1.5202345822503862, -0.6205485877124189, -1.1213165341151503, 0.1510285086111124, 1.6282869554383501, -0.0719668731827315, 0.8477666152639608, -1.666206908128308, -0.6251266411083679, 0.4932484956869894, -1.311835090077433, -0.5681989673004167, -1.2840544006427612, 0.6420530536717427, -0.04697557280268825, -0.4422936158181753, 1.6689340887843542, -1.1136813166935846, -0.1695709577889169, -1.6891251271895236, -0.4062297662936875, 0.8925983157743869, -0.8056438841117001, 1.4823150292619138, -0.2631354274422135, 0.599133877662113, 0.9767635831423728, -0.4585733598724452, 2.308971339635667, 0.1211859172423599, -0.246789812563673, -0.4346821726578422, -0.24792721257820033, 1.607548668122035, 0.7253186585137891, 2.329902537746918, -0.21596743317753572, -1.032006059440636, -0.5963015250987943, -1.28249112743504, -2.007251286085811, -2.075252846969087, -0.4992703884313183, -1.0655746505880284, -1.3414041447378864, 0.38013217504395963, 0.7214327451222144, 0.07567065327231118, -2.7792207356751617, -1.1004869455136375, -0.07094825184313285, 1.1150966512496008, -0.4832908284130229, -1.0812420907068978, -0.6894643268183323, 1.319429879929734, -1.781651404803267, 0.5494614528432764, -1.0800541236669738, 2.3636773114454988, 0.6562837929433872, 0.8052039866709039, 1.15870128944563, -0.18760878946764215, -0.7007334449069713, -1.7397809003614004, -0.1798299460890676, -0.05931249386634053, -0.008474252310190021, -0.706381755413679, 0.2505123061918698, -1.2173877335542374, -0.6862942503195055, -1.946235451401065, 0.15593051425578544, 1.9770932909358174, 0.8557182819642933, 0.784862160665905, -0.360643642944756, -0.5896945983069516, -2.309766394250814, 0.24242057074009904, 1.0775162884940799, -1.3009295710271689, -1.274833247547635, -1.2227411959406442, 0.5332297435864752, -0.5672982689556657, -1.121937208270546, -0.7567483248798763, 0.832102060277025, 1.5030022210202314, 1.5134016659336018, -0.07770638236136915, 1.4102423292168258, -0.5533645129760582, -1.0304995763528275, 0.32406882446126367, -0.8953708501188818, -1.21815479279472, 0.9322646734325191, 1.7142034333629528, 0.4085450295045219, -0.04903467057051572, -0.13346895723715899, 0.9586518665956698, 0.4804286630840395, 1.3995321547602602, -1.8965048752069855, -0.6797488427773862, -1.0265613366982171, -2.442452003596526, -0.5949923035723239, -0.10919549792040117, -1.053618026971703, 0.47718169307557134, -0.6978359433278952, 0.7205653935513563, -1.0872024907340354, -0.08370096965173415, 0.35431979244282374, -1.6091742080596223, 1.3689036024854078, 0.7602662945866174, 1.9642317547407406, -0.2930796104918868, 0.4739504407530544, -0.26515157608624396, 1.3486370502191856, 1.398812857261461, 1.6483354401755597, 1.1489217530836375, 1.7786797312896785, -0.2916729637000926, -0.06820172618712819, 1.6347765234700162, 0.36866837170065847, -1.2672052685291006, -3.527453171383633, -0.3155949616299104, -0.27953290016396953, -0.7156308995933294, -2.302743814038432, -1.5150203542021967, -0.5048119844277897, 2.5995205184708947, -0.25180294237868306, -0.3858821377797142, -0.5650483097896165, 2.563181783376424, -1.6513730227961128, 2.5669063934826415, -0.5586972401591754, -1.4636484128781437, -0.8242271734493598, 0.857640194769863, 1.5694946965159644, 1.2815512831257565, -0.6111022515287334, 0.5510329100028952, -0.021965555842587654, 0.028039840423341157, 0.3214108838214756, 2.245205270812545, -0.2453335233728709, -1.4309182376305292, -1.1785485090249617, 0.9967284139672298, -0.24295309602931026, -0.5178790854085409, 0.03686147680957217, -2.0188529083398126, -1.0144456668763242, 1.89612530427365, -0.46437963206853705, -0.9979624160332472, 0.4858223660163799, -0.8178214989449847, -0.8550631075626187, -0.35859480133266747, 1.8134169617780493, 0.27279520208513186, -1.2281976199847493, -0.17309518901597212, -0.1697879092823956, -0.36405016186260486, -0.13354265142259425, -0.9903620706328123, 0.4465683808827774, 1.020455881659247, -1.3590115094300401, -0.7971297827858257, 0.8387796190143879, -0.638251268524146, 3.8555904032967323, -1.2633809058970573, 0.9398586347668826, 0.4164194617365536, 0.46607283238433644, 2.900826714819415, -0.20720411708213549, -1.1113026165033912, 0.09929096417916422, 0.14567982640374982, -1.0220675562918866, 0.4032723813648589, 0.04828149047002738, 1.162225792367966, 1.318786711895108, 1.9327723114738167, 0.3941050515156735, -0.37658796586057985, -0.9671968014705677, 0.7125535756073551, -0.02192527690729415, 0.9626758131875929, 0.5378117243301531, -0.09177925474576903, -0.5355181648273348, -0.45955685270483554, 0.49357245907321085, 0.7038849354774396, -0.16648640287079666, -1.0651476004759446, -0.5145492133013866, 0.4552813390398674, -0.3096279741287939, -0.02137687719927318, 0.7684158833090434, 0.41759431175009365, -0.5003867395397064, 1.0973302537347136, -0.30206128900127194, 0.5428638340037859, 0.5519822546288147, 0.1428699875497353, 0.8348294190558577, -0.4277681204665795, -0.5298964343689428, -0.6470762972065998, 0.02676687500618862, -0.6784064442698339, 0.6032798156956602, 0.3084778847470073, -0.8426874260941407, -0.3975093317876708, 0.34250975490061514, -0.9946004775604287, 2.1509585229958454, 0.38485266642417765, -1.5742773728593122, 1.9602179341436365, 1.1916408321522216, 0.7995905325137412, 0.27157375074284834, -2.110171896293501, 0.3679009213366228, -0.7894023082786257, -0.6283965291440714, -0.09953756622103901, -0.4859453395638474, -0.7990546578104161, 0.3958506541592414, -0.4532426085898504, 0.4133526996452879, 0.9168711580312048, 0.9911583661865955, -2.3985383864576564, -0.3657207040687002, -1.0514546958783961, 0.7525523628263956, -0.17649262711741207, 0.33437286297206525, 0.4548382725540407, 0.9734891791257972, -1.1734905873295072, -1.4846421782597279, -0.3480090757992317, -0.06914008937146136, 0.43889699740870936, 0.026231047225060686, -0.5294481756235948, 0.6399983782544729, 1.3554787686064287, 0.26128780419175346, 0.050846200768140816, -0.40077595770460567, 0.4211895568980881, 1.4110627610665842, 0.1180439544224495, 1.1445179204112466, -1.8088819244592265, 1.5421498615502238, 0.4836674250899269, -0.5444357775249559, 1.0353157137479727, 0.3044584054812461, -0.5155071051089857, 0.39884103750837646, 1.3566256219635744, 0.7773091502511906, -0.21015881612545817, 0.4929654842250005, -1.1127821552304642, -2.5372687475287816, -0.4390023043057555, -1.8368215066135272, 1.2015537370169567, 0.1692881679841378, -0.13914881359848366, -0.015281409335582452, -2.325152976212384, 0.6231678880657502, -1.6766332099169687, -1.0172419060361608, -0.699309111951826, 0.7588514019134467, 0.6124720059475677, 0.1815402498831356, 2.045138046507523, -0.0693712208131554, -0.21140978709628647, -1.357798607946701, 0.1290610478485685, -0.6948875362713866, 1.4331630181782482, -0.21424533100209533, 1.1680450236680495, 0.978179473257428, 0.4404691567105391, 0.9774181398210108, -0.0777030123263781, -0.9204868557853367, 1.00490826989894, -0.2750734150278151, 0.6628092848395841, 0.07680576773604862, -0.9054076129894312, -0.8550744287101565, -0.11537061675106755, 1.4325315828882703, 0.8572638063507415, 0.004013290870101836, -0.5483667016550829, 1.071541927523434, -0.633400268922215, -0.6695437103317805, -0.8771970865402174, 0.18019247863352214, -0.29208316945308094, -1.3325187228480446, 0.49156934622729553, -1.7094096940798384, 0.747706313112518, -0.6569763621625171, 0.23633112211760937, -0.6558194616246217, 0.2948622025541336, 1.0173525779077233, 1.8785115512047308, -0.3444819732445136, 0.40867889198246626, -0.8672184970386034, -0.8293319972620382, -2.37177458836176, 0.5184979297832576, -0.8844707790919477, -0.9355743062370648, -1.4376478703961033, 0.7037153588167177, 0.4857365739769043, 0.12788750654450068, 1.7704163502377923, 0.4289909438483953, 0.6076528491963618, 1.677415808983959, 0.526932402331107, 0.8976942385963376, 0.35259174357436984, -0.21019465485897385, -1.1185712461860169, 0.5201503654344662, 0.434355828173135, -0.8955045661898444, -2.05376021496992, 1.6109683732057833, 1.1412758527887157, 1.164435604273749, -0.6473681489123833, 0.2611928114485955, -0.962800116929441, 0.8028457574135065, -0.9149629222859804, 2.0461113156277824, -0.34390430792513565, 1.321112367835477, -1.0997803278497824, 0.1501461104705576, -0.6007322984906299, -0.8626725055889618, 1.2196885016038208, -0.9903482018233178, 0.6841027800803413, -1.408985243076659, 0.08043043545133724, -0.5023650706679292, 0.7734599306631772, -1.841078186557448, -0.8662663624768748, 1.1229972201232576, 0.3477292044011952, -0.6042778775703452, 0.012425387487822976, -1.0576789443697137, 0.010318079957186851, 0.7406591784106509, 0.12988509931627182, 0.8788334508595836, -0.23401924750177275, -1.1655460402403395, -0.818078269270679, -0.8799088584207087, 0.43354108766814725, -1.1397810726209516, -1.1322175760121136, 0.507956750035442, 0.5083351562939219, 0.9542084631979811, -1.8636626907469243, 0.728108870642481, 0.053078625218295074, -0.3812348806541691, -0.16752663175309673, 0.07465571493521768, -1.1418246971167378, 1.6139465739443326, 0.22892701671237825, 0.6345773511846879, 0.46408983685321065, 2.019037698591173, -0.3183020416882707, 1.072987178859425, 0.07027506540089036, -1.0295979065665888, 0.40354971297032305, 0.15976571189428712, -0.3977382340217931, 0.6753596964616406, -0.40787906070385027, -0.44648230882254164, 0.1836092143071308, 0.2110844170193825, 1.6256801551972444, 1.5841587334128746, -1.3294669115253348, 0.24857435232281513, 0.8558649821947002, -0.22965177685504232, 0.3716412326267606, 1.317948428309168, -0.9158839175688508, 0.13841845712913176, -0.6168993502581965, 0.19770987986933466, 0.04247583447097627, 0.9521471746250362, 0.10971579223613888, -0.023798743043111664, 0.8032115615714153, 0.5423321635082885, 1.9169641262500265, 0.09757342249866885, 0.8917124112970704, -0.8520954831869316, 0.8852000796643812, -0.37602543239954506, -1.8552108678998043, 0.631822112582942, -3.0409411021816637, 0.21249890968679183, 0.3975519414930362, 0.19461148599255032, 0.31489845986878284, -1.2990754772433095, 1.0121268302588358, -0.5760808359635521, -2.187382522051465, 1.1579079593460417, 0.1988066799997727, 1.928649287009649, 0.41709064796737744, 2.82989409022424, 0.631906553921919, -0.6052051526523549, 0.7868016998242243, -1.5303800123504303, -0.033851092659629094, 0.04370146001779666, -1.177016128035385, -0.9715862407772422, 0.04039490316389113, 0.376376406874921, -0.3767526846577381, 0.7474849889905575, -0.3024860758036836, 1.007421293563695, 1.180166731274281, 0.08852039203853808, 0.9203435330969408, -0.8097307537510142, -0.41744466649897827, -0.7628733791515154, -0.05726745597980078, -0.1595288195049039, -0.9459507425563439, -0.7353936634724729, -1.5578749243340975, -0.24943606636089544, -0.07701457799317907, -0.18823158559880765, -0.06692437210709672, 0.8022920651993253, 1.908035527690858, -0.686720337629161, -0.8290132282820449, 0.8330238608625828, 0.9701453382786568, -1.6305003315520685, 0.6759241555466303, -0.570650700243566, -0.5753585254915576, -0.8459832601312516, -0.6308085737218925, 0.6596408945217902, 0.22408004360164233, -0.630887192546493, -1.0469388601648775, 2.171527684015193, 1.0765990753176182, -0.8752128266415329, -1.359729778434567, 0.18401771163604042, 0.547590617279722, -0.3392304935182662, 1.0869861371888647, 0.3790086031239606, -0.53185865367408, 2.176210395318545, -1.0040092675912446, 0.22231605056051293, 0.1641359116527071, 0.9141874313918996, -0.059349578485080615, -0.009274215382752849, 1.0780205255762234, -0.44184508380129583, 2.1682513492684263, 0.7468786534115222, -1.189334281847394, 0.9437869404204342, 1.6644253398484745, -0.2843544602661527, -0.1503036824296925, 1.4566344168884688, -1.8068452875893495, -1.3879495774212454, -1.142379771350902, -0.4984593208691588, 0.6619468170330951, 0.5022121829201606, -0.8624293814464001, -0.23377353735026532, -1.3367324638243734, 0.026627552968527396, -0.2797257722157757, -1.7342058058213599, -0.29337183016947777, -1.0918071371415405, 0.6230182467871072, -0.3344212738550879, -1.2181123700089127, -1.1949759071140473, 0.47388936216705263, -0.6026182580149543, -0.26666964767612694, -0.3705619122425391, 0.46149985932547016, -0.2982181213935699, 1.700754638064372, -0.26899666776236186, -2.2936855637343294, 1.7703780165064247, 1.0567550780410224, -0.8243175785365728, -0.9073818438730523, 1.6996978166919765, -0.12167270479993264, -0.5263450572233886, 1.637437445019238, -1.2519354619902787, -1.1009999268942117, 0.5743075787982481, 1.8427188396716736, 1.5571513495024163, 1.3636819685023351, -0.024510804747174698, 0.6624441291928114, -0.7206846532599973, 1.7018646869929193, -1.4553063679892453, -0.16002899572472243, -2.031870041096757, -0.5213634367984934, -1.1494058048071019, 0.11904790778954716, -0.0669604997864571, -0.1859836367556186, -0.28129791777875146, -0.1850828180194229, -0.18720079810218804, -0.05101246976719662, -0.6187731444904271, 1.0525838259068092, 0.9967775758934065, 0.03000899750998716, 0.14912084919245785, 1.5947696090494516, 3.507019365385416, 0.42814175902757606, 1.2467560545737464, 0.4941215525599976, -0.33809818683772713, -0.5288046111775531, 1.7555279284109073, -2.461941602213903, -0.4459983220084925], [1.6045867063927024, 0.6465057635265056, -0.46830402746938116, 0.7293223830187116, 0.18295591174394552, -1.0652428593315815, -0.4657681669078106, 0.6254095750863602, 2.0879045112280448, -0.9001724310556212, 1.0771652144321036, -0.5710603200759538, -0.0542078566554063, 1.5111024723051458, -0.003969795008970193, 0.4768089458231892, -1.4243816192639207, -0.851016731802044, 0.30358629731254233, -0.9572505897203974, 1.1750148229197377, 0.8321420180423391, 1.7051842367693377, -0.5737310408448607, -0.8744795830388444, -0.22385106490394666, 0.8590317112753127, -0.5874634613337263, -1.0952588159569445, -0.6631786962252681, -1.2272534900442325, 1.0608042650433496, -0.49968205447161534, -0.25701781542942864, 1.7774036724510416, -0.6209006096366938, -0.9679476313174682, 0.5144290817676579, 0.39087647618825877, 0.8886629815128256, -1.2164350558220032, 0.8628649743348598, 0.39143348205410755, 1.2899923190552989, -0.3412644356060979, -1.6377632310119594, -1.1848618184413209, -0.5514450293292984, 0.22642714332089753, 1.1293752458841266, -0.20940610571946078, -0.8500800836612001, -2.288640678872362, -0.43483479929125973, -1.6203410704701848, 1.0174872046685586, -0.4218531100489068, -0.28496267782411333, 1.1416128114432924, 1.4675993464822623, 0.8074628351776967, 1.4260937354640462, -0.21662639090252933, 1.64221069055447, 0.5513233787450413, -0.44098108707971917, 0.364364364343015, 1.5299933924587115, 0.4725420291415774, -2.6432657981359946, 1.245749963930317, -0.4664851357748976, 0.6389145474752337, -1.3698779472808789, 0.0675946707867236, -0.20077719232758592, 0.3823987244268214, 0.18604095925611297, -1.790479397434159, -0.9538424690266802, 0.3609932209507097, 2.3416967956536103, 0.2284519255436096, 1.0921895427704036, 1.6457254720327568, 0.03512530946296416, -0.14340338694712093, 1.1515077569173302, -0.3593342657734383, 1.1939641751803765, -0.7997297193360206, 0.21866319527979297, -1.0148560702188911, -0.3676246903625208, -1.9559958557728772, -2.0382623973065934, -0.9025835492183912, -0.945386151437383, 0.003975681986945649, -0.42576155165094404, 1.3152145194207965, -0.0071284670006085795, -1.5695554136670382, 0.9130476737508469, 0.8479106160322255, 0.21367264702293137, -0.8908376328963085, 0.2491147141755173, -2.150611708944507, 1.130869993627698, 0.9518471453118572, -1.0768441851077064, -0.5365929278267401, 1.4145313879483454, 1.5216483533203693, -1.322553013048002, 0.485395214479172, 0.9400285727443756, 0.7259612661968642, 1.0591757878804855, 0.35092601933340467, -0.7993365669901675, 0.02216126530940151, 0.2703357987167211, -0.9329393779389757, 1.1589788214408403, 1.5362487656547914, 1.1992846026825168, -0.7817764552308807, -0.06673893789030295, 0.2868256583910279, -1.353572902732598, 0.6082484753043281, 0.5899493369235826, 1.3507311476468247, 0.45657263435746953, 1.7753773575079619, 0.9380508496790456, -1.4636081708663349, -0.5582949326801094, -1.1033754503559048, -0.6877414256079868, -1.1027852972653867, 0.9185419056176178, -2.642952591585775, 0.050237192101531124, -1.886006055567731, 0.5246949083462541, 0.43183971701472545, -1.0342975759090078, 0.014619910039140649, 1.057161631098458, -1.217113884503695, -0.11448437394139495, -1.3653093641511784, -0.3877380317890954, 1.1038237591338877, 1.7697162825100867, -1.3175168074015735, -1.5114812221972322, 0.12064087562037427, -1.6337911543753092, -0.46858600900868197, 0.0051202738883312235, 1.07016299229897, -0.8393043962267299, 0.9038619952666305, 1.0119936574086512, 0.5209389857043867, -0.7212236675077696, 0.2984686696001287, -2.8220918135654176, 1.6731059553095227, -0.09617525022229755, 0.6996043798233419, 0.4015044625785306, 1.0936755558718387, -0.5419165708841567, 0.7518278052846356, 1.1388547122800856, -0.06449898054771105, -0.3624337258714587, 0.597137485344624, -0.08532432231164486, 0.25044412015872924, -0.4786671673910403, 0.1904168272394491, -0.15622238043372388, 0.7565016963198122, 0.7221208334444141, 1.535253722235255, 0.05565423268518346, -0.06842356070984992, 1.505947406287686, 1.4361735777699356, -0.7395784935663875, 0.5273137952793906, -1.9198925441476182, 0.5875652656396502, 0.5632291293915048, 0.6154012224467884, 0.055296711661733444, 0.2639895853034462, -0.4212081656214123, -1.099217596847692, 1.1692810786041836, 0.3407425042993743, 0.236318907498652, 0.11733057796592797, 0.089416091779568, -2.204916270967907, -0.721668819444098, 0.33162935104481606, -1.3837480700869325, -1.5247731677299334, 2.5188759762074926, 0.6651912574643964, -0.7261715982823187, 0.09280873672309957, 0.7037623342323701, 0.9545202662946918, 1.4215282149970239, -1.3552707724634716, -0.5654944073341992, -1.841432805861155, -0.7884021621144192, 1.0380075434047438, -0.010284820025509631, -1.8222138699017185, 1.1210448718244073, 0.7261129715905369, 0.17245015135592592, 1.3997105197962576, -0.029744687683752952, 0.8986692586733457, 0.7525622137260041, -2.555791238145285, 0.8276829553385695, 0.6847509869320237, -0.3306238100852479, -1.3203315549457482, -0.362424605881023, 0.7100338543175466, 0.009346038793030635, 2.6688086395350847, 0.8917501407632487, -1.8381154813962064, 1.0782851250443086, -0.6233866135246063, 1.1818037949755449, -0.5729177900670694, 1.1996513061838023, -1.5257479266931282, 0.14158054723529664, -0.24533038314556688, -1.1353661156316583, -0.019710824984735375, -1.2992325754231904, 0.3899262123798425, -0.7454476737282064, 0.37315420644374114, 0.4445805999284917, -0.5112008809815789, -0.03597998992645415, -0.9198052555452816, -0.7680163778762932, 0.1910719704314956, -2.0285446886513188, -0.6784650394838168, 0.644615099521939, -0.43064708360526194, 1.2814202374983241, 0.3003814929466242, 0.6980052171581445, 0.4139776844719322, -0.3093008550976945, -0.7621119173207301, -1.8773261638885785, -0.45199737968640896, -0.4852094300199426, -3.1165895789103284, 1.8975712592585763, 1.400811563261792, -0.6434906791108569, 0.5806872871927458, -0.5460308303735767, -0.4508490113062392, -0.7875083601812075, -0.4818210222223698, -0.6685450405177804, 0.2052312837312938, 1.3822388989961214, 0.7317122693434341, -1.0291702496031228, 0.8384022322144132, 0.5036864516638898, -0.034488885243037684, 1.373972445687822, 0.2632905894726623, 0.572728952447331, 0.3182268291041639, -0.6076174612389301, -0.8076601793260517, -0.7994662631958623, 0.570969200923222, 0.2951012621142036, 0.34772102312955194, 0.9970410351241796, -0.6878872334339201, -0.786576136323822, -0.9575379063157368, 0.180506647804129, 0.59871845857212, -0.37586929704832417, -1.027043177199725, -1.7331177640397537, -2.010833064730229, -1.7703293936772702, -0.6840153313374758, 0.7418087387517112, -0.9032078817817847, -0.25421461589052363, -1.5769047702190688, 1.8435195779871578, 0.9048201156529829, 0.37762645968067715, 1.10838371653298, 2.1521529299629845, 1.118426933527189, 1.2904601345932538, -1.0534542971998513, -0.7336377953516339, 0.4160290837908326, -0.44677799906590165, -0.09618235263492093, 1.4428815447966425, 1.5326192536713366, 1.6180583138636098, -2.1402736540146767, 0.7096480804660426, 0.8555294302854977, 1.2189437548115125, 0.5936322813013493, 0.4052494913746665, -0.5001170614609743, 0.43102354396087117, -0.1629180095235116, -1.9415572709418356, 0.3229764975512551, 0.8405088938209625, -0.6016136739887, -0.5061973052381386, -0.6218013305521222, 1.314884908318393, -0.12020766820956129, 0.8854590518677632, 0.16679150827365086, -0.8595364642952413, 1.5811491735131755, 1.7268845664788057, -1.9910577351760996, -2.044184184000453, -0.6981104772752466, 0.4260954646887051, -0.2771010414280918, 0.2438683293653024, 0.3333536584799088, 0.08276827959716491, -1.07112334739613, 0.6102298425273487, 0.5619997257051319, -0.0414121062798305, 0.054127197483010266, 0.3882908639727993, -0.3836340816330909, -0.9100710238301735, -0.7982051275071879, 0.5790289618557413, -1.259780295580769, 0.7361786002374182, -0.267809736227498, -1.4283266851103371, -1.3076414790478663, 0.29252048129706826, -0.4566069918897035, -0.1168689326725996, -0.018956118164919603, 1.057523142398798, 0.9127808640379038, 0.024512056710156584, 0.5823776300552903, -0.2677310680791041, 0.6486608984901833, 0.352763475645899, -0.9258149887150063, -1.151548709676584, 0.25427237195679997, -2.1672889771951804, -0.1288187843526624, 1.177189952427869, 0.5528200912127342, -1.1567790750076723, 1.968945316920205, -0.41897897789666194, -0.8144674455348151, -0.3860495277150012, -0.12746233008089602, 0.21770383826414721, 1.06621344257717, 0.475757069950701, 1.5637697846922114, 2.243324379915308, 0.03178166790274029, -0.5633402358759764, -0.7326122160508635, 0.04548895958915504, -0.4306514456204115, -1.0112289733539361, 0.11273845392112043, -0.1830649799336421, 0.8109373282702019, 0.5183847839451111, -0.22456040142641184, 1.0914961816423352, -0.29137864270009933, -1.0322360624505935, -0.3442088028168304, 0.2543839118252462, -0.6113383494734697, -0.455102400690353, 1.1411837327623278, -0.9962208108010452, 0.3279605631453237, -1.2345567359122958, 0.7354787168215442, 0.03312614324961813, 0.3604393954787897, -0.7173372522643586, 1.0258870530010775, -0.2616869817615319, 1.693683815573487, 0.4300127190305221, -0.3992975744126039, 0.562575711576335, 0.29498670858394627, 0.851867329825517, 0.28407191572988316, 0.09650517106352509, 1.4441244361750158, -0.6243785563043954, -1.313097641708016, 0.3735830770911056, 0.6972776626835661, 0.8955969059413148, -1.0944542358779663, -1.5074613224756808, 1.8208316381907406, 1.0373066310666847, -0.389357792461274, 0.09033211157902693, 0.16367119763541305, 0.031111258319022467, -0.09634612021972036, 1.3827778333079828, -1.5845801948073832, 1.0451903932553706, -0.753823621489349, 0.38314231929994336, -0.3239162335821184, -0.20156673695865027, -0.14816185333040088, -1.0933035713687684, 2.3723519212234003, 1.118251514185443, -0.4745008536175984, 0.4657388899180165, 1.2452159292051315, -0.41564746234129857, -0.6257082971042262, 0.5521193223094506, -0.031675356163167495, 0.7046411080550752, -0.4801430011491357, -0.43670106588859203, 0.6952500463553772, -0.22135592416599123, 2.288061093167774, -0.21721969264150962, 1.790381332042811, -0.3087453073511919, -2.8156784340956715, 0.6538275230351497, -0.4561027887921706, -0.4693178856377621, -0.16618246113358334, 0.7398912971671787, -0.82402510135116, 0.3372311006277542, 1.5133610692068238, -0.46313357487835605, 0.4197496216351437, -1.036614275557068, -0.5557287539990258, -0.6132060318299724, 0.4491423738750601, 1.2457926636714358, -1.1422545468557426, 0.9069902066146822, -0.7205404644777665, 0.5088451689841105, -0.3817953147028684, 0.37553151949836305, 0.29139586182700294, -0.687696585577614, 0.9485059017765044, 0.5996998551588958, 0.3673229588101879, 1.2168464953333187, -0.40304761577193, 1.0570120559577114, 0.6649113511179379, -0.8582835001879202, 0.14360294693419678, 0.43865748035158, 0.13838417631947578, 1.4790240385670477, 0.7891959810054773, -0.4318914908174329, 0.07837233640770089, -0.9782073110456265, 1.49589233036109, 0.17284713282902323, -0.5367354631922087, 0.8702352987258224, 0.8086733093339489, -0.013041690022570385, -2.9958434172137034, 1.6322943308538187, -0.5769095576667724, 2.4738885443375307, 2.1522146188174234, 0.49515718511085965, 0.6043972326640029, 1.5895471022373044, -0.448305303576775, 0.740958580036761, 2.505981107826331, 0.8330250679171987, -0.7249174055603388, 0.7279560528588453, -0.28791338994934057, 1.1923647924469265, -0.46259020162042924, -1.7119514186762335, -1.4336270562227085, -0.4157753798043441, 0.4054802008539121, -1.0937293803004793, -0.003036097440444144, 0.0015606684208692126, 0.6204610475535242, 0.3385547281131085, -0.3390952616110567, -0.1331610695762979, 0.8653104578770325, 1.362350477698606, 1.3648380963253706, 0.24915747480994446, 1.0406560566991014, -0.6328617612781955, -1.7409755045594892, -1.5972794021211179, -1.4677841303393677, -0.47170876751422924, -1.1894266814086922, 1.5546655727629892, -0.7293590095312733, 0.030576624783134727, -0.0598952874219445, 1.131174319092584, 0.9407066107693262, 0.9519333836526297, 0.7905697429797547, 0.2147999339495782, -0.336571682188846, 0.9308495828377842, -0.7228154735720521, 0.5970946259721857, -0.06976898470360537, -0.25309495261838233, 1.7068598482184316, -0.0728607750176545, 0.14535253101106194, 0.18333193783785612, 0.3353514694271603, 0.9566758250140468, -0.590954812080331, 0.4522306391869904, 0.8724974643261297, 0.859481562751833, 0.35153169244299826, 0.18475996931269215, -1.1697649249805921, 0.6879731466374602, 2.0704761829654004, -0.1572554957622284, -0.09377743067007804, 0.5312360793678887, 0.026341908692874276, -1.3507860641850267, 0.6583097364394809, -0.7024827069387328, 1.2878754738535168, 2.2162787369972534, -0.20996383636121096, 0.8780382188676049, 0.29851895035716014, 0.12295363393178259, 1.1123677955450637, -0.10960917783511182, -1.1906610984340207, -0.4036976427600489, -2.8464819217722144, -0.8378461557246363, 0.7609767404092737, 0.43304747011037337, -0.07878383658344783, -0.007242117822889915, 0.42562708402069666, 0.40895786024727404, 0.3893439245233884, 0.3078841910752282, 0.6665416846589837, -0.0011641682450162618, -1.2973462693892863, -1.1350431635547609, -0.5216721390894437, -0.9006561143084336, 0.6701891162235151, -0.7340615088103535, -0.16785548282516918, -0.9778731663533493, 0.5959795042085975, -0.45749394759507617, 0.2205586043064226, 0.8678745363790172, 0.10748130329034208, 0.465244574671586, -0.3187604714514019, 1.1395206312039627, -1.020228325930898, 0.9312443548754283, -1.6331855358053877, 0.8990951970687356, -1.880905019688608, -1.326849563551558, -1.7474364687791144, 0.8789127063014202, 0.911692566250957, 1.0941334144000585, 0.19898444719683944, -0.3455481000180391, -0.24843974518957584, 1.5158161874079346, 0.006746325885057228, 0.9197654657425642, -1.1864593973748043, -0.30213222101133197, 1.3108920382019487, -1.4162614919657535, 0.9554240768535696, -0.8481745270476836, 0.7456575668983875, 0.7564019843811943, -0.37559106938088643, 0.6255789754524604, -1.4093258541499802, 1.3375116106585703, -0.37068131143439625, -2.041367060958869, -1.7116943013725783, 4.449419115396744, -0.4415511346216958, 0.7908886390818619, 0.04258576496811177, -1.2258318294082025, 0.6982687959970046, 1.0664261807878452, 0.25828263058782447, 0.18579638014473232, 0.28385833368682484, 0.019453167294932277, 1.126142112221814, -1.8382054411345663, 0.5743088027422905, 0.5786358714934374, 0.4433760271491331, -0.16331437752126682, 0.2245449725631326, -1.6928808660469097, -0.2445382807109168, -0.32533068509736085, 0.256524751412595, 0.1852104405843631, 0.1658557337030061, -1.0046635596941298, -0.5289063540480358, -0.3495033244877922, -2.339709093651417, -3.0094476171902236, -0.3530745850633229, -1.3165672807556774, -0.8899145493112779, -1.5347526301722805, -0.22550072697346035, -1.4864314462512636, -0.8207054900583514, 1.3302844296678356, 1.6863494476883543, -0.253561797220567, 0.7780092694215197, 0.5195490912422828, -1.3246292075410642, 1.3913186509014268, -1.331892548251015, 0.47667536977208314, -2.184873258590351, 0.08419547324018478, -0.016784104031461872, -0.607556419702687, -0.8838289882136569, -0.3945556113355651, -1.1654621670331515, -0.24700004198329562, 0.22021649499162396, -0.5682232325229818, -2.0393275835051616, 0.4286340772015199, -1.9589139002460225, -0.07075484628558494, -0.8364696745998285, 0.8877745203959072, 0.305226470852462, 0.2319514807304454, 1.0742273280683157, 0.8109371661007146, 0.6739063174527391, -0.8453338885196396, -0.37453079983980087, 0.2594745090195478, -1.692756729539922, 1.385565121289302, -0.355101455708085, -0.9076203567618055, 0.25414488915618116, -0.42141376857452917, -0.6623247761916774, -0.23374728832996483, 0.5410672250961216, 0.6106996244643684, 1.5273123210436181, 2.096819328700984, 0.7853678888548999, -1.406848556485404, -0.3591367707108685, -0.8061391853980153, -1.082402565226747, 0.16590513082787284, 0.3342012295852367, -0.8294988687848123, 0.5077345824086512, 0.8168199880646035, 0.07889386884498219, 1.5946357747448732, -1.538452307540951, 0.10710968617805422, -0.5944538481121296, 1.0562064433586855, -0.7294977655605681, 2.2196216615906272, 0.14472386734047474, 0.453203308914056, -1.8219032183093131, -0.9130216545433472], [-0.310629046320632, -0.005684028004153778, 1.203685949072955, -0.9220443702271248, 0.6831376483222877, -0.5854981277165953, 2.170320527933645, -0.09261464633162078, 0.5355373949851526, 1.5433128014061872, 2.8287932680490595, 0.7494675644980922, 1.6046338373101445, -0.2819624397298849, -0.06651781002104185, -1.3608178198742915, -0.931810164531446, -0.7661163066222547, 0.14767607121203305, 1.8507060105137072, 0.017587514483873683, -0.09541596940445186, -1.7608385811833025, -0.4607346455156912, 1.804651829209573, 1.824823909400715, -0.430768500452389, -0.6196684598049396, -1.4765538883737366, 0.9164147656196313, -0.924030846082112, 1.3733041608765473, 1.3067542263247756, 1.1091723656507866, -0.8841371724601998, -2.14753447518396, -0.3447290575397884, 0.3390551013295272, -1.2969863164916913, 0.417734021298536, 0.06820189869537692, 0.9390080839112351, -0.2880332121935055, 0.30109704134972504, 1.1552210632972404, 0.36594440210768825, -0.10369751430678896, -0.7856492270370885, -0.35356464815182376, -0.08408169999135263, -0.6030647603681666, 0.4993102579841023, -0.10383280411804977, -0.8481385604704527, -1.342124759400247, 1.7804557953025497, -1.5390121585966001, -1.25588181779776, -1.1844988663540126, 0.5386293694647664, -0.27260981155506553, -0.07507587447085662, -1.101681926348137, -1.1734343708533925, 0.47404262554437837, -0.24002663864447754, 0.35706617916314337, 0.16304143721076209, 0.5015703011808589, -0.01838105716010107, 0.47564271609731096, 0.2953853925996491, -0.6120152803376768, -0.4285546064698847, 1.1712960480366181, -0.16619950983142184, -0.07346605848078376, 1.3172523888308771, 0.6377187551242344, -0.8806804280147456, -0.34994094418006827, -1.3581793078206055, -0.7722973083638686, -0.844104237218738, 0.10084492810536033, -0.9425727220280488, -1.13833809840923, 0.03686894790442838, 1.859356740354439, -0.28587719226724095, -1.5249877901125883, -2.1888553186659694, 1.279075211054864, -0.5554086973817798, 0.42379013207976163, 1.080349570282483, -0.2580551433862148, 0.47311709684475767, -0.2947392032179075, 1.92473087463674, -1.1766327367970095, -0.800379617724076, -0.8072286293830977, 0.30057904901337734, 0.6367669793372562, 0.003227453571891183, -1.3021106377766756, 1.1351126768585467, -0.8354893876780654, 0.3883479555163179, -2.095936283879555, -0.766223326518919, -1.3081019412155492, -0.02661924219675937, -1.0323076254230148, 2.9912078389113295, 1.010962478853313, -0.5557512529809798, -0.5792106141854438, 1.5987898766279076, -0.009483867427175477, -0.05083127791428699, -0.2807539419443398, 0.8995845759448933, -0.13200818084746535, 0.3464604228295538, 0.9075874171069019, 0.8327027220408394, 0.09437635444687696, 0.7576528203040498, -0.49958406312130305, -0.6389401563221646, 0.33271031948977065, 0.3539178692846336, -1.2991893337917853, -0.4286520280504332, -0.7523565344229759, -2.176521571941347, 0.36639640051310823, 0.8832861836540684, -0.10422892935629342, -0.09719658263984342, 1.0151165356673508, 1.438093042991302, -0.8682611130661654, -1.1433705705038202, -2.072019096305693, 2.409839351300326, 1.0617713523027033, -1.2007845938909796, 0.20621226844286766, -0.5503208721750298, 1.1996090251616505, -0.07235975140591162, 0.13439813318928126, -2.3539670965157877, -0.8335644320040718, -0.9896853793945728, -0.5348255636882768, -1.013450716367238, 0.12111739803294433, 0.28261959055507807, -0.9655021706824909, -0.3016821205848505, -1.4718301719726687, -0.29486449658696434, 0.6495052609350491, 0.3317137388262764, 0.0004154754729535782, 0.4863829803782339, -1.8144427122418278, 0.13239241672961508, 0.21484496958284294, 0.7652249617646655, 0.5312898216894195, 0.16621873960418243, 0.3176232835722154, 0.819785443624283, -1.6871865478550772, -1.2743819658120354, -0.23717495612908207, 0.4468884638862512, -0.46996777262246797, 1.859523440488413, -1.0543654310435, -0.539126735168235, 0.5559008772380701, -1.0267059308086912, -0.4590929859243516, -1.0532432468969386, 1.1897390991492915, 0.8354963690787597, -0.41475040867493146, 0.4766468002870664, -1.8314837239307613, 0.3731417701119006, 0.49683137003091093, -1.1758242522020903, -0.45995827231338193, -1.3867650445048427, -0.7922218709914098, 0.3721952207270481, 1.4573916282925963, 0.31368860951589683, 1.3506260919249733, -1.8297512207297684, 0.2696560270900261, 1.977220670991001, 0.27628638530688027, -0.4400868019044567, -0.6086465473296448, 1.6929085778649082, 0.05973032063308979, 0.5474523493632618, 0.05566521614109316, -1.2649938319510314, -0.563472772328237, -1.547258988455531, 0.7532800871311024, 2.2463884445662874, -0.19914964975403102, 2.5818299370896303, 0.7258737677182688, -0.5535251685356322, -0.23690300270953304, -2.144846825156645, -1.7341441038021748, 0.9457610605273219, 0.007119180433018429, 0.2887857708449742, -0.29056618075967694, -0.11973148494506634, -1.1280314111509777, 0.3138265268986397, -0.6036507332536508, -1.0038602999374886, 0.5292073796518392, -0.44944242410680624, 1.2284560592825386, 0.4891506078941651, 0.177733261995817, 1.0731800936118299, -1.8581136863973624, 1.0648776097599169, -1.5966468936342932, -0.9622126658568252, 0.5638081014386301, 1.1925487606788343, -1.7759330900148078, 1.2571476132955564, -0.2143946425712781, -0.4069551403680637, 1.6550651898533077, -0.14503920090734101, 0.4063428368034762, -0.6587689793993795, -0.7571392882545597, -0.04168473130603956, 0.14615029420993983, -0.9711247370884246, -0.16701594319335267, -1.361781227292653, 1.526385966461142, 0.9873843767049933, -2.0633579675896896, 1.056838419983308, 0.2961975538803957, -0.008982933282430633, 0.8843202481994198, -2.3429933855774903, -0.8085692804000613, 0.9192176683428623, -1.2706616384495981, 1.7553294034396347, 0.6734986334402472, 0.4275336410082892, -0.03566287899755822, -0.05872559776648418, -0.35872869644646416, -1.5075642190505554, 2.301122533127681, 0.07563364258033743, 0.7283380007968733, -0.38403743307647376, -1.2712186765060334, -0.2138491354522096, 0.1418288995180859, 1.158904520848908, -1.332937160210076, -0.5404593381782217, 0.009593911268950272, 2.8195172013117147, 0.0004080789818509421, 0.23702715119632806, -0.8818368027374867, -1.1822236549891243, 1.0745115847102655, 1.3250538802759035, 0.6609710517528719, 0.21533471408746543, -1.4075414930517993, 0.171298164689848, -0.1339555898086471, 1.335867558679295, -0.5073132090229514, 0.4131492154716357, -1.3824906721803376, -0.23888582231382338, 0.03832415226974064, -0.4178502857797178, 1.258465840029474, 1.4750967615645751, -0.05202905193123936, 1.8183090672714826, -0.3610246002036801, 0.07622444725676657, 1.9153672382730897, 0.7512068765863944, -0.0005700296876114398, 1.2873948325129423, -0.13136489299945872, -0.15405308914295512, -0.16568491023903464, -0.15476692225899025, -0.4685754368326566, 0.37332363123310147, -0.4575494906211891, -0.22109756448528523, -0.15905525297375786, 0.06535507013443624, -1.0462048560413983, -0.9331825507911425, 1.2983133736751504, -0.658061154665359, 0.7584387839009954, -1.7366528881635181, 1.0811998185969267, 0.8263974333552837, 0.46735784469203645, 0.7994836699793256, 1.443822253579613, -0.4636339601359832, -0.792152334723463, 0.9953323797717911, 0.5363271586141334, -0.04432430721567606, 0.8017342367564843, -1.3711037208132038, 1.2242815927516582, -0.49078728358441215, 0.8590999533899861, -0.5529541474444626, 1.0658405008574805, -1.285394023306564, 0.7299440502943705, -0.06722851475918129, -0.43617802302752784, -0.9535277033921103, 0.2141045164730863, 1.2120495389848889, -0.3376845679780698, 0.08108028806066715, -0.6024758387956309, -0.01099896577946532, -3.08734698939174, 0.07117176352690154, 0.2919981515127541, -1.0092569419223396, 2.317326785614029, 0.22691100579472462, 1.087841572093073, 1.5600794608326538, -1.3984995935369262, 0.06832234257500745, -0.4817452014563925, -1.2222071193020563, -2.3692176346446927, 1.3961248326078866, -1.700999074046394, 0.05178856828575772, 0.0752900736914783, 0.00899809197031562, 1.6875002403271466, 0.35734429305500115, 1.4016331228630474, 0.5782954586692033, 0.09876642361156297, 0.8864226147257359, 1.8845460986885385, 0.355272489495675, 0.6267252170449658, -0.3154959541835006, -0.03937750747385081, -1.0557413900189696, 0.7282362789210681, -0.7598788794296896, -0.21244920552850974, 1.4017470537784236, 1.815770244982968, -1.6729056727903449, -0.5304898565566775, -0.9381938339252136, -0.9025349885045584, -0.8845350558976748, -0.6015098681838619, -0.6152357802411572, 0.7035175148222048, -1.3555867037229905, -0.48513445049648524, -1.334273571460072, -1.3373668622461898, -0.7469830450354557, 0.008997439391586492, 0.6132458421120742, 0.5951026627330303, 0.7127240267316876, 0.6378220173112299, -0.25908035347452274, -0.6099612076235387, 2.0917513944479302, -0.16518675567915278, 0.0033479560351571355, 2.317304888097037, 0.07308117695613026, 1.500279135733151, -1.4614091275165486, 1.2695840581808553, -1.12093360829004, 1.8537139441481039, 1.0866584501355305, -0.02121511759596637, 0.7732574068873064, -0.5264002891476957, -0.16339081979956213, -1.8827860137541428, -0.9730786629368686, -1.1615954584012786, 0.19659633933702475, 0.22871575770145863, 0.6012272700138503, 0.08376634609398907, -0.8365004957499669, 0.11083320750402287, 0.4754506181175236, 0.2525851048881213, 1.6285873726103806, 0.8017390149234095, -1.4211044640879147, 0.2846556851277792, 0.4712614872870183, -0.24386383517310067, 0.7143709650721772, -1.5838214503884114, -0.13491844642793469, 1.599867972705414, 1.5809344792773865, -0.7427173141580038, 1.4664160914155142, 0.03650510168482391, -0.5235254343280081, -0.7264755977365875, -1.0505240246369796, -2.872231513219981, -1.0138599550533705, 0.29836630992958263, 0.16587226468330712, 0.4274003120961696, -0.22135870512213177, 0.5026172920773956, 0.7385323074970125, -0.5244621439230714, -0.8793081476982695, 0.8614848472945601, -1.3505873188319977, -1.116406548279149, 0.14300560013888025, -0.5457774633904648, -0.6358634010644765, -0.8834922784007778, -0.14278461698583453, -1.0115390992937128, 0.25840321472672884, -0.05375870030421821, 0.656940965125918, -0.32767776792742515, -1.5077080284045126, 0.30047350151159924, -0.8060731347255182, 0.9868531103285937, 1.2178148065794627, 0.12715389830849888, -0.883465973921612, -1.221655292961592, -1.0986013987068517, 0.3583600746591937, -0.24875654332160546, 0.2573875383336187, -1.1449716192667099, -0.2276415680774029, -0.7786507308007864, 1.0771203236167592, 0.31579216681465194, 0.03484896528212691, -0.03299137604300426, -1.3220009459006266, 0.25212746800628577, 0.372458657793515, -0.6564739894743972, 2.4024997051196557, 0.14460386328429004, -1.174742089818834, 1.4875720587257393, 0.26258332472342066, -0.841444018316977, 0.2705644180073367, -1.1861379263718645, 1.3934951685064993, -1.2453834323205435, 1.0103788516065721, -0.8901707480895299, 1.0191224698238095, 0.6611722636145526, 0.6194424544430588, 1.70730491594914, -0.6365010278618956, -1.4647574915594723, -0.6073515298408729, 0.2775766805619217, -1.5147048092831683, 1.3514175323298614, -0.2287811951091769, 1.0169802576690736, -0.3342218157880383, 0.30910412847747104, -0.954387706500886, -1.156682282920406, 0.8025687968519745, 1.181758517824167, 0.15671002983401477, 1.4612046971924983, 0.7590600982140626, -0.7153572622739142, 0.10947682831322764, 0.9933997623391277, -1.3531273489144013, -0.41428169289168654, -0.5817654217507935, 0.6711358799849159, -0.9318696662228904, 0.3100888080469078, -1.0179544087096, -0.9411887225017151, -0.6138568499245092, 1.0829884925113946, 0.2753846945500096, 1.1216949831762646, -0.34254042625036724, -0.39926206287555666, -0.8000643348159575, -0.31082232045276587, 0.484344159497802, -0.5107293897028022, 0.4017364548158877, -0.603651437968732, 0.10111119357451684, -2.5719535440366585, 1.6237569065424338, -0.46845935130341665, 0.6507406140347043, -0.09310623629803647, 0.09717292121392841, 1.1446966117552455, -2.0408228093656007, -0.9629114830718049, 0.5947792420096812, 0.9211661027449914, -0.1391899944114394, -1.0943838348246238, -1.196828859556528, -0.8457411418714906, -0.24196911856338207, -0.09861438223472106, -0.5713993928858471, 1.7780177558764128, -0.6932831936579619, 0.15148616926530897, -1.9956973285148871, 0.22299134761888864, -1.689164680388748, -0.31103070752584866, 0.1340699812490101, 0.5920392364869621, 1.743163637738857, -0.38363107139173724, 2.5459202152760048, 0.6409583138478949, -0.618851243682241, -0.6434664965228556, 1.3904817474540188, 2.899604211307581, 0.810859500114119, -0.5694965808316025, 0.6338223975119393, -0.3103304222497696, -1.4122056111366241, -0.08253711341572913, 1.5346983013109503, 0.9757905330649873, 1.564069557887159, 0.9198893203431231, 0.1559593947966369, 1.8074826774130504, -0.20703043649735478, 1.2315096847169351, 0.23494984924059745, 0.6319157507887755, 0.6061720163110457, 0.2729867801069952, -0.7919301727014104, 0.46226910807980465, 0.7984194508115626, -0.1450119955477787, -1.4856024571776523, -1.0533902516220337, -1.232884879361882, -1.4712145358289137, -0.5828521933176048, 0.33063070181899007, 0.9743235641288303, 1.043520432388569, -1.1623680727394885, 0.3177570209108688, -0.894652368404096, -1.5526576047577543, -1.5026690107100336, 0.5957142187800641, 1.757904772818548, -0.29279340193182063, 1.1472602287607774, 2.494354183156934, -1.100746370331965, 1.1059077836534077, 1.0933829391127121, -0.2614273111922936, 1.6401023035185314, 0.41857032691581747, 1.229341082692681, -0.6595704690776811, 1.7152736421426362, 0.49028787085241027, -0.4941778393035137, 2.054656845188671, 0.4079465999123945, 0.07593413342338029, 0.3562040236569573, 0.2034636319795109, -0.28288024837714276, 1.0978898841484415, -0.4066998455726414, 0.19042896800145226, 0.49314061241169815, -0.09351114337140005, 0.6244125655693467, 2.9589468725943346, -0.1773631360498711, -0.8211269131787471, -1.4645755858018623, -0.8221438390628758, 1.206633263775925, -0.30408944761474505, 0.06044241517972799, -0.277709887722037, -0.42602763610839844, -1.253595319439518, -0.2863143814544815, -0.5736871767570842, 0.5303350781975595, -0.310370641739571, -1.127157586605669, -0.12497641852893161, 0.3366819814970198, -1.0377632190404975, 0.9618423391864062, -1.440834733786257, -0.22189545843131114, 1.2003047860321305, -0.5244254355882026, -0.7784692167701948, 0.5846385833047717, 0.32436430659686105, -0.30675945530528526, 0.6945431269387007, -1.2284006997036296, 0.30697887641491206, -0.42820067026950276, -0.46948145241299927, 1.6696638234155343, -0.40072435079268315, 0.748488888662136, 0.8128613172151697, -0.22117865784757143, -0.4644525630197915, -0.04481761945611674, -1.3455534039116936, 0.8699487413869027, 1.2494890684017421, 1.402633548941359, 0.8861552812251826, -0.6536664004746383, 0.8147626091453253, 0.41038187743502774, -1.0465760582951453, 0.7549458312686864, -0.4401562674995727, -0.2037461794643346, 0.9057325108157956, 0.30556501466491354, -1.1405897417340791, -1.972408263407584, 1.1002103313936427, 1.9698926809805712, 1.0557583805259403, 0.7492948316469457, 0.1444664828680285, 0.5185454978778773, -1.3653044759287716, 0.3930045342159251, 0.33036279918162964, -0.04781748471169143, 0.8493191631113315, -0.15100942921952398, 1.0691802521669656, 1.255166172802572, -0.3389536834330814, -1.1153881749277115, 0.5733759469087579, 1.1434722971224014, 1.029666006991687, 1.0686182660433377, 0.09305839304013594, 0.63640233740512, 0.8700622211431208, 0.4370850282598899, -1.4101528267694603, 0.7607701664920269, 1.0937072337963707, 1.3187589367601351, -0.1324071359455204, 0.9764727682348938, -0.6965142516704632, -1.1673250878462065, 0.48744024282573095, -0.39110918847141357, -0.21275202176458238, 2.3353535115451867, -1.447434855546736, -0.6791378218897751, 0.026156793608081125, 0.7805575355531521, 0.4714290058499127, -0.5264167548120722, 0.6415191401916749, -1.1536110592855033, 0.8748132500838945, -1.4711329291131527, 2.0799058923769733, 2.462733518703216, -2.065796600147357, 0.6670660287972786, -0.015026368219220074, 0.6263869187247213, 0.5759982837195698, -0.9192395476780472, -0.4737202031600233, 0.0180022196590061, -0.852787140644674, -1.757586301858603, -1.5408465137042262, -1.1509666438298243, 0.5938052648949965, -0.5847587871255325, 0.013606322693777798, -0.06900971242188117, -0.7857695423039733], [0.354450161724644, -2.606465809567644, -0.3043793702890605, -1.6202619877252162, 0.1913344102610632, -0.8857441902474896, -0.8322766356804269, -1.024038445812474, 0.1832786397816129, -1.4149655145877156, 0.47925035904912167, -0.4806308763639363, 1.1122526153111418, -2.459750528117201, -0.19648432992290457, 0.9890961217324287, 2.2440122559667866, -1.0548048707062085, 0.45040767576113594, 1.6073511396799656, -1.2356426476376143, -0.6437357007613315, -0.34790354215437014, 2.177627130633385, -0.04566400997233322, -1.1241182793482218, 0.17656872975722354, -0.07889200065916249, -0.008688376037416429, -0.3022813989034725, -0.3245755093367146, -0.397792909705423, 0.7527128887962662, 0.027100347038777835, -0.0810367789994692, 0.6086873188881028, -0.4973796395854185, -0.5225375592595012, -0.2942204799297606, 1.0874405141120245, 0.0712274642349616, 0.476733062257156, -1.8854426926417946, -1.3771489822601408, -0.7739044229821991, 0.2869956205749619, -0.26862277143465507, -1.5166954482541664, -0.7315698303529544, -0.8916941787142696, 0.7295264164595482, -0.3809396300829816, -0.29586259838608836, 2.00704995215178, 1.0629566028275925, 1.5000793415659819, -0.6067650430143896, 0.7968107403724073, 0.1161147013032405, 0.26611462019702997, 0.45156847360180224, -1.197868627475621, 2.2270200127064808, -1.148782312380712, 1.3772503155893765, 0.894986319372788, 0.4686036545208891, -0.1909158880409763, 0.8162308678704695, 0.1375259297632667, 1.2526769579414017, 0.08008246815618486, 0.2949784428223306, 0.6332499845243229, 1.0418934368247323, 0.979428415249359, 0.15945652099954413, 0.1406020647914154, -0.1342717536083226, -1.2822556036428943, 0.3033282480544447, 0.9678139881864327, -0.5214566632089576, -0.8639114756077052, -0.36707848453254954, 0.05265515775053126, 1.5452884505606979, 0.1260505227534792, -0.6892137217673582, -0.8875324150420808, 0.9095304878285072, 1.5091534149405814, 1.5261629062492312, 0.027524173797243843, -0.44682977204004304, 1.819927039403312, -2.284263538441283, 1.596963449092686, -0.22991509470644872, 0.7928891286666059, -1.034791439946753, 0.4842030093917053, 0.42533686916274355, 1.2442267217031076, -0.13567050562153882, 0.2691397762868205, -1.1828463584977225, -0.21175311735112926, -0.9777651620574214, 0.43981670719664845, -0.3967460652304188, 1.9596542136418469, 0.05874836225761384, -2.5574557342229896, 1.162231706728792, 0.30473349219811824, 0.9690310127530298, 1.2017116226277003, -1.577474342823447, -0.7265441888809393, -2.2994333963373017, 0.2046066996841922, 0.2419391430168963, -1.2319527438959084, -0.061958840371695904, -1.1664347233703818, 0.5760067796380509, -1.2323623950178424, 0.7804322010002238, -1.351915504038723, 2.0312041191523247, 0.5932821539447835, 1.0108411526304741, -1.2640032188481793, 2.0882681368748037, 0.8529467366315742, -0.11267883956880968, -0.146692052943951, 0.4870668548397962, -1.7077578433121081, -0.9435278056772535, 1.0392782458811247, 0.6715711791096716, -1.411912571751242, -0.44598704304280135, 0.549011136737658, -0.8314914399958073, 1.072350854813263, -0.4654752458229333, 0.8715410943468997, 1.9751218707447162, -0.16279938367659666, -1.0179076755893746, -0.9729881123290616, -0.22130459913510686, -0.342197363317107, -1.8781488225041914, -0.9208156992471026, 0.541418781639196, 0.0443209502060736, -1.4104064741026656, 1.0922126593436599, -0.330477986506136, 0.5054085282617561, 0.25077927193536875, -1.3723631237701222, -0.5951885258476034, 0.44908766862965266, -0.3257339785241649, 0.4999294573206075, -0.7339870052494328, -1.1355581788687905, -0.525708341371675, 0.008690857458318097, -0.4283931662289975, -0.8379092395674946, 1.3712510864310044, 1.434792744243241, -0.5249589418600898, -0.725176354637974, 0.10502707292992144, -0.31458741134503787, 1.6323508133954452, 0.4908748000917364, -1.5442201946094045, 0.4319404616438598, -0.9132005898976657, -0.482226138837103, 1.7962053937423066, -1.0114097301730072, 0.8809833465053156, 0.6678279139800725, -0.5613157126993357, 0.6166972310356803, -1.0344799651638636, -0.4254032837734513, 0.42736373454896814, -0.19381231860922601, 0.5384985071068424, -0.32461048034680423, 0.06529398583267676, 0.17731033816493286, -1.1320832055102135, 0.5425205435870134, -0.45086425332886043, 0.42715105877367665, 0.006643146108640304, 2.1359933315099773, 0.28404708586581806, 0.4706440580851912, -0.4144210056297995, -0.3948508954783276, 1.2279943432866505, -0.004344878800954997, -0.37177918409885646, 1.4260913686851895, 2.103153049962534, -1.3394452846816816, -0.09005655893635324, 0.31607207656147884, -1.1484318428780755, 0.3063179115914498, 0.21643572767853514, 1.4898242930883914, 0.7791783569700216, -1.7803627945730929, -1.195067865090824, -0.9309573912390358, 0.2253752363456662, -0.6631993341447373, 0.20793989788098463, -0.4777155394663216, 2.4594289324301752, 0.8700335693133603, 1.1452023014467096, 0.9105444393483619, 0.39260241344394436, 0.4584318998161063, 0.03268624559483022, 0.8929344082993829, 0.16447311061859515, 0.19790502243960337, 0.8338426601367365, 1.7815622032704364, 0.15003919139814162, -1.3715025105272705, 1.0831186686593506, 1.2698665097622448, 1.946815892925361, 0.1765306481327657, -1.8665001124534593, 0.597766862221929, -1.55635076999104, -0.8478409970452275, 1.103784591430343, 0.20285196074659434, -0.4520396481657904, 0.8276812379402545, 0.9250416393634245, 1.3587228348461247, 0.535875025126974, -1.1397113712263265, -0.736503672036155, 0.3684741231088217, 0.2960764737226406, -0.6997478574735237, -0.3838491748605186, -1.726185069451836, 0.7398904526543909, 0.43441225988919263, 0.7174696473818396, -1.4526958350176185, 0.7524880439012026, 0.4889505812803294, -0.13058033165184899, 0.5522902987548062, 0.34155363464510036, -0.39313277623136694, -0.3918130656814346, 0.03396413124944257, -0.6642400429180867, -0.1238324746785725, 0.989559738225912, 0.9069196073845618, -0.7363389899220724, -2.1611663693249263, 0.5235518244950981, 0.9843167961182308, -0.6774391755172539, 1.1303971762891707, -0.9040339559704883, 0.3948069080674905, -1.2492644598839977, 0.9963752383939461, -0.0017827022109859038, 2.5706393422034353, -1.2568843910241532, -1.6113304656527565, -0.7592230068756413, 0.12775100417037955, 1.1377674953835202, -1.5239719343308686, 1.0132272764271355, -1.0175236450021248, -0.3430078483624969, 0.12937519811824605, 0.5709561243206173, 0.6093435636199392, -1.0077500883801633, 1.4866436746128817, 1.020345385623254, -1.0842436870793841, -0.1960551829584156, 0.11277306812677924, 0.308847020963724, -0.25978035725989185, -0.41614065878907885, 0.3165508250268314, 1.2993991329784678, -1.770494607025119, -0.2170680960429643, 0.8457271077754533, -0.8043899033737111, -0.8219166571642602, -0.974449274731182, 1.63259548981897, -0.618661036638983, -0.12668153615491434, -0.8277087683358526, -0.7463520361547027, 0.4653818060518197, 0.23020198543752302, -0.5190944674032142, 0.4124206351983143, 0.8624416886882378, -1.7246199697022706, 0.9579321144170747, -0.02535809171484523, 0.4926342424663583, 0.1619706635858233, -0.30620654773701633, 0.14329354094010677, 0.31821921750207477, 0.28519621714435145, -1.9599690328992512, -0.07994145607886362, 0.9987434135521011, -1.0243692972105136, 0.39474916420892475, 0.4823548524535087, 0.16559047282108247, 1.6730477198899973, -0.05518749758070684, 0.25202718646868455, 0.6111200789059579, 2.0651991341528717, -1.3776444838120805, -0.42349983605905067, -0.4769188287671547, -0.9824858596603437, 0.31042081224637286, -0.7422478628802872, 0.7068185746446908, -0.30431952227821574, -0.5254686802856141, 1.2059013147049487, 0.20008399249110861, -1.193625787681737, 0.429558891692509, 0.2278941536871007, 0.9535204874875034, 0.49407020909656263, -0.6204025190390353, 0.6065219983743515, -1.2865184213458554, -0.9359202123483591, 0.07559529518727459, 0.2799818033992572, -0.41780552447931407, 0.3083193878214708, 0.5610210974930274, -0.699751689971369, -0.9720568964934546, 0.158288224455005, -0.30269462811256276, 1.5954630906237546, -0.39449959169346244, 0.21372220643892448, 0.08570065534366528, -1.2224065213902502, -0.2442443686274467, -1.643660112041476, 2.059952651287448, -1.1444286312200764, -1.6057973074206202, 2.5581192842013625, 0.552990613100013, -0.19043932813173073, -0.7399318405070923, 0.38552606946641177, 1.1193407823219572, -0.4716277664654696, -1.2049892429670914, 0.06668151392361073, -0.799951907254738, -0.9892854335262142, -0.5210543968370026, 0.1600140966396589, -1.46796877796285, 1.0242961241479422, -0.4801353022139725, -0.4674897782500289, -1.4419520454042067, 1.6352567895558838, 0.6447457700602665, -0.14148391178671446, -0.16537686638601315, 1.5413781895191057, -0.7586304481327384, -1.51869539222712, 1.3931461741806357, -0.6254600565829906, 1.0645381672462844, 0.3149131114135757, -0.08671535661491458, 0.5787735994405994, -1.4965337297436847, -0.1402011828640079, -0.6947795950651998, -0.12691466842504806, 0.025675302952162377, 1.1375373752533673, 0.8881612603296518, 0.4710075460117974, 0.27940922983954347, -0.6505666392447745, 0.5886939656515022, -1.9463187475650907, -0.037181630171806895, -0.1187009831883568, 0.4946545097692635, -0.051886693876027526, 1.7266662292169386, -1.3464044508364603, -0.30615183407102187, 0.4235191691129116, -0.28178940497931093, 0.06910601824550199, -0.3253643837217449, 0.1412385959148274, 0.3705453104231595, -1.1485973236778577, -1.125023828987032, 0.6297699151851703, -2.3074256696285933, 0.3611161575919028, 0.6489853014452579, -0.44953931157509625, 0.8004310292643679, -1.4521215951667146, -0.039849785091768015, -0.5773282856536598, 1.803652436263566, 0.22037747129017626, -0.5613302426999492, 0.790205987295909, -1.9396078762476867, -1.4333132326569986, -0.4313093545128502, 0.2444814388645603, 1.0864794617588123, -0.5637498734383096, 0.12471934974396572, 0.9194158622294066, -1.2473175080411252, 0.7084956509809196, -0.6243085510608679, 0.0026215723151763472, 0.0344406434478987, 0.6579967033209757, -0.8442689250343169, 0.5824354652641033, 1.2225760243674375, -0.8647914753818018, 0.7172364845751261, 2.377777450821175, 0.5150989898131407, -0.6498583011430575, -0.3735845992899903, -0.6874740808726538, -0.4067739803668399, -0.18616206195982868, 1.5625577877184247, 0.21686850477797895, -1.9253922875103489, -0.8861751385347514, -0.5203392811297373, 1.489480615623085, -1.3735022493671474, -0.07387971613327173, -0.3877202108785006, 2.462148896141865, 1.1147722902028387, -2.1030170727034543, 1.2675312264880076, 2.7227152515708943, -1.0999453088021935, 0.4080714350325288, -1.2577074153132972, 1.1632231575267367, 1.0314486682591015, -0.11279485166650507, -2.065230682656882, -0.08137289659105036, 0.005491760629350367, 0.6994586098047888, 0.02007624790943992, -0.8153677998718493, -0.3473354591701114, 0.09863398851460144, 1.7569322710261541, 0.5632690009374077, -1.9476296349508404, -0.22571121013621498, -0.37638659234704325, 1.5258682247434172, 0.23197299585315873, -0.4021709238944888, 0.16522902887809435, 0.7248509959270766, 1.0700414009617378, 1.7850986849874706, -1.2502564473803897, 1.0024333881966994, -2.6921070803842024, 1.0149103481626276, -0.5697836836863924, 2.37338443918352, -0.4399888067368343, 1.8682942365546849, -0.1901107567858753, -1.2146785564443194, -0.9928952853688365, -1.728653249565465, -1.1667889227656605, -0.9965186382062166, 0.5497921107458764, -1.5331542890553302, 1.4952144251191168, -0.38445314825321303, -0.7444178820527622, 2.2018457227518793, -0.0022855148694064117, 0.5468026304043146, 0.6725684757273339, -0.1739892953815281, 0.34397633729413274, -0.17196595142209262, 1.1885297697224122, 0.8808713275033753, 1.3401785697200466, -1.4615520739171837, 1.2186968279851094, -0.43620268581099736, -0.38726803968891244, 1.2350185178203843, 0.20190958164607165, 0.7235663176592295, -0.8212046246364884, 0.013566114300784471, 0.17739012136462964, 0.8708366308770588, 1.1567471149378785, 1.5855932377432729, -0.31474441664089675, 0.27186721041432105, -0.7172685124788002, 0.1662289156115241, -0.9355954726774754, 2.2576051159311143, -0.2574077943806104, -2.24722982721458, -0.18857978945244072, 0.6937005081923464, -0.7108774855300586, -1.0698690893025238, -0.4412961934547144, -1.3087483556078767, 0.7492873740914207, 1.5117953750093809, -1.8494995594257069, -0.541291490931998, -0.6852261591738835, -0.5520721962513119, 1.7940289060475214, -0.5285885411962008, -0.5439536679402251, 0.35356887244071616, 1.7245906411379233, -0.01173029309603796, -0.5027399359858942, -0.5136796710059216, -0.6920386879747273, 1.8225140785854197, 1.0110073238149735, 0.3807163217510497, -0.4692712746877175, -0.8120920960691723, 0.09962704695407391, 0.02008212319564883, -0.7722185052863455, -1.4522264215747507, 0.6844400365799211, 1.4436200940847999, 0.16482436394842878, -0.08334982478349429, 0.3984359513831004, -2.0711677627008656, -1.744697604999908, 0.5310518134436437, 1.4665807930828156, -1.4533007224199241, 0.9005020477056133, 0.9708898292947957, -0.30984293803651247, -0.4707630562085855, -1.5837868212673947, 0.7574813193418318, -0.29913067014190886, -0.07958724197098291, 0.24702237323239434, -1.9312158265207162, 0.8422283713870246, 0.1604102811207154, -0.7291488454970075, 0.46142662043429616, -1.6847166196009113, 0.03565806888598822, 0.883951560518211, -0.6828031093533488, -2.3012036983881115, 1.0757849528494292, 0.9273766217326412, 0.8508317555617172, -0.09361066534587116, -0.24514706667197492, -0.5049969443714316, 0.4126606345175702, -2.417524639478386, 1.679970760511724, -1.3960839806695957, 0.08891021864518237, -1.000935160896486, -0.8824260530024928, 0.3176865142042301, 1.0477452526987794, 0.45547980274815897, 0.011070611591375526, 0.34132145207941594, 1.7390491027035127, 0.3911851359020774, 0.20835803825572957, 0.1292193995887595, 0.6029254875839295, 0.37135481310669477, -0.7209393631560136, 1.7212684626596173, -0.4487324518236772, -0.12732918728024012, 1.080342214562039, -1.2855330699236531, -0.8452901840836292, -1.7307848220470854, 0.5986548779736556, 0.10945318518593383, 1.4840339144007002, 1.3125196357805216, 0.9226034472926732, -1.542733764180194, -0.4705667741639178, 1.199039272853613, 2.405651242996669, 1.6778206552633605, 2.1756945081542782, -0.6083925971700149, -1.4760964315746032, 0.6603257929798637, 1.0651558542586388, -0.5484019327386637, -1.4118264113602579, 1.1595109543252533, 0.8452395834905809, 0.15104013033318012, -0.7346489719364713, -0.07686688825594297, 0.8480573920193084, -0.1131671527482072, 1.2844227617445199, 0.18369096162554316, -0.6077519921756632, -1.8555556975033585, -1.2050348440518421, 0.3358080975302341, 0.7285464430301415, 2.4184067474299726, 2.1863562930025537, 0.0792502908721175, 0.5733787154291107, 1.0614572598438217, 0.2604236532209905, 1.0175649202700514, -0.9844418591371512, -0.4750437860146664, -0.14765863148254701, -0.6582229942067135, -0.4691258908665451, -1.0147086396287455, -1.0506145066005537, 0.6353189142686101, -1.141208625891931, -0.9036901888994456, -0.3115842471831949, 1.2164932808517204, 0.32136348105939117, 0.17483147237512087, 0.48201006264688795, -0.48910613604598635, 0.5370296303890766, 0.7638388483928509, -1.1454487405537297, -1.2270304100237206, -1.5500564634689564, -0.48029665347042577, -0.033911559270848414, -0.1393739901297378, -0.03865346966579531, 