{"nbr_layers": 4, "batch_size": 100, "learn_rate": 0.01, "layers": {"0": {"nodes": [0.0, 0.0, 0.0, 0.0, 0.0, 0.0, 0.0, 0.0, 0.0, 0.0, 0.0, 0.0, 0.0, 0.0, 0.0, 0.0, 0.0, 0.0, 0.0, 0.0, 0.0, 0.0, 0.0, 0.0, 0.0, 0.0, 0.0, 0.0, 0.0, 0.0, 0.0, 0.0, 0.0, 0.0, 0.0, 0.0, 0.0, 0.0, 0.0, 0.0, 0.0, 0.0, 0.0, 0.0, 0.0, 0.0, 0.0, 0.0, 0.0, 0.0, 0.0, 0.0, 0.0, 0.0, 0.0, 0.0, 0.0, 0.0, 0.0, 0.0, 0.0, 0.0, 0.0, 0.0, 0.0, 0.0, 0.0, 0.0, 0.0, 0.0, 0.0, 0.0, 0.0, 0.0, 0.0, 0.0, 0.0, 0.0, 0.0, 0.0, 0.0, 0.0, 0.0, 0.0, 0.0, 0.0, 0.0, 0.0, 0.0, 0.0, 0.0, 0.0, 0.0, 0.0, 0.0, 0.0, 0.0, 0.0, 0.0, 0.0, 0.0, 0.0, 0.0, 0.0, 0.0, 0.0, 0.0, 0.0, 0.0, 0.0, 0.0, 0.0, 0.0, 0.0, 0.0, 0.0, 0.0, 0.0, 0.0, 0.0, 0.0, 0.0, 0.0, 0.0, 0.0, 0.0, 0.0, 0.0, 0.0, 0.0, 0.0, 0.0, 0.0, 0.0, 0.0, 0.0, 0.0, 0.0, 0.0, 0.0, 0.0, 0.0, 0.0, 0.0, 0.0, 0.0, 0.0, 0.0, 0.0, 0.0, 0.0, 0.0, 0.0, 0.0, 0.0, 0.0, 0.0, 0.0, 0.0, 0.0, 0.0, 0.0, 0.0, 0.0, 0.0, 0.0, 0.0, 0.0, 0.0, 0.0, 0.0, 0.0, 0.0, 0.0, 0.0, 0.0, 0.0, 0.0, 0.0, 0.0, 0.0, 0.0, 0.0, 0.0, 0.0, 0.0, 0.0, 0.0, 0.0, 0.0, 0.0, 0.0, 0.0, 0.0, 0.0, 0.0, 0.0, 0.0, 0.0, 0.0, 0.0, 0.0, 0.0, 0.0, 0.0, 0.0, 0.0, 0.0, 0.0, 0.0, 0.0, 0.0, 0.0, 0.0, 0.0, 0.0, 0.0, 0.0, 0.0, 0.0, 0.0, 0.0, 0.0, 0.0, 0.0, 0.0, 0.0, 0.0, 0.0, 0.0, 0.0, 0.0, 0.0, 0.0, 0.0, 0.0, 0.0, 0.0, 0.0, 0.0, 0.0, 0.0, 0.0, 0.0, 0.0, 0.0, 0.0, 0.0, 0.0, 0.0, 0.0, 0.0, 0.0, 0.0, 0.0, 0.0, 0.0, 0.0, 0.0, 0.0, 0.0, 0.0, 0.0, 0.0, 0.0, 0.0, 0.0, 0.0, 0.0, 0.0, 0.0, 0.0, 0.0, 0.0, 0.0, 0.0, 0.0, 0.0, 0.0, 0.0, 0.0, 0.0, 0.0, 0.0, 0.0, 0.0, 0.0, 0.0, 0.0, 0.0, 0.0, 0.0, 0.0, 0.0, 0.0, 0.0, 0.0, 0.0, 0.0, 0.0, 0.0, 0.0, 0.0, 0.0, 0.0, 0.0, 0.0, 0.0, 0.0, 0.0, 0.0, 0.0, 0.0, 0.0, 0.0, 0.0, 0.0, 0.0, 0.0, 0.0, 0.0, 0.0, 0.0, 0.0, 0.0, 0.0, 0.0, 0.0, 0.0, 0.0, 0.0, 0.0, 0.0, 0.0, 0.0, 0.0, 0.0, 0.0, 0.0, 0.0, 0.0, 0.0, 0.0, 0.0, 0.0, 0.0, 0.0, 0.0, 0.0, 0.0, 0.0, 0.0, 0.0, 0.0, 0.0, 0.0, 0.0, 0.0, 0.0, 0.0, 0.0, 0.0, 0.0, 0.0, 0.0, 0.0, 0.0, 0.0, 0.0, 0.0, 0.0, 0.0, 0.0, 0.0, 0.0, 0.0, 0.0, 0.0, 0.0, 0.0, 0.0, 0.0, 0.0, 0.0, 0.0, 0.0, 0.0, 0.0, 0.0, 0.0, 0.0, 0.0, 0.0, 0.0, 0.0, 0.0, 0.0, 0.0, 0.0, 0.0, 0.0, 0.0, 0.0, 0.0, 0.0, 0.0, 0.0, 0.0, 0.0, 0.0, 0.0, 0.0, 0.0, 0.0, 0.0, 0.0, 0.0, 0.0, 0.0, 0.0, 0.0, 0.0, 0.0, 0.0, 0.0, 0.0, 0.0, 0.0, 0.0, 0.0, 0.0, 0.0, 0.0, 0.0, 0.0, 0.0, 0.0, 0.0, 0.0, 0.0, 0.0, 0.0, 0.0, 0.0, 0.0, 0.0, 0.0, 0.0, 0.0, 0.0, 0.0, 0.0, 0.0, 0.0, 0.0, 0.0, 0.0, 0.0, 0.0, 0.0, 0.0, 0.0, 0.0, 0.0, 0.0, 0.0, 0.0, 0.0, 0.0, 0.0, 0.0, 0.0, 0.0, 0.0, 0.0, 0.0, 0.0, 0.0, 0.0, 0.0, 0.0, 0.0, 0.0, 0.0, 0.0, 0.0, 0.0, 0.0, 0.0, 0.0, 0.0, 0.0, 0.0, 0.0, 0.0, 0.0, 0.0, 0.0, 0.0, 0.0, 0.0, 0.0, 0.0, 0.0, 0.0, 0.0, 0.0, 0.0, 0.0, 0.0, 0.0, 0.0, 0.0, 0.0, 0.0, 0.0, 0.0, 0.0, 0.0, 0.0, 0.0, 0.0, 0.0, 0.0, 0.0, 0.0, 0.0, 0.0, 0.0, 0.0, 0.0, 0.0, 0.0, 0.0, 0.0, 0.0, 0.0, 0.0, 0.0, 0.0, 0.0, 0.0, 0.0, 0.0, 0.0, 0.0, 0.0, 0.0, 0.0, 0.0, 0.0, 0.0, 0.0, 0.0, 0.0, 0.0, 0.0, 0.0, 0.0, 0.0, 0.0, 0.0, 0.0, 0.0, 0.0, 0.0, 0.0, 0.0, 0.0, 0.0, 0.0, 0.0, 0.0, 0.0, 0.0, 0.0, 0.0, 0.0, 0.0, 0.0, 0.0, 0.0, 0.0, 0.0, 0.0, 0.0, 0.0, 0.0, 0.0, 0.0, 0.0, 0.0, 0.0, 0.0, 0.0, 0.0, 0.0, 0.0, 0.0, 0.0, 0.0, 0.0, 0.0, 0.0, 0.0, 0.0, 0.0, 0.0, 0.0, 0.0, 0.0, 0.0, 0.0, 0.0, 0.0, 0.0, 0.0, 0.0, 0.0, 0.0, 0.0, 0.0, 0.0, 0.0, 0.0, 0.0, 0.0, 0.0, 0.0, 0.0, 0.0, 0.0, 0.0, 0.0, 0.0, 0.0, 0.0, 0.0, 0.0, 0.0, 0.0, 0.0, 0.0, 0.0, 0.0, 0.0, 0.0, 0.0, 0.0, 0.0, 0.0, 0.0, 0.0, 0.0, 0.0, 0.0, 0.0, 0.0, 0.0, 0.0, 0.0, 0.0, 0.0, 0.0, 0.0, 0.0, 0.0, 0.0, 0.0, 0.0, 0.0, 0.0, 0.0, 0.0, 0.0, 0.0, 0.0, 0.0, 0.0, 0.0, 0.0, 0.0, 0.0, 0.0, 0.0, 0.0, 0.0, 0.0, 0.0, 0.0, 0.0, 0.0, 0.0, 0.0, 0.0, 0.0, 0.0, 0.0, 0.0, 0.0, 0.0, 0.0, 0.0, 0.0, 0.0, 0.0, 0.0, 0.0, 0.0, 0.0, 0.0, 0.0, 0.0, 0.0, 0.0, 0.0, 0.0, 0.0, 0.0, 0.0, 0.0, 0.0, 0.0, 0.0, 0.0, 0.0, 0.0, 0.0, 0.0, 0.0, 0.0, 0.0, 0.0, 0.0, 0.0, 0.0, 0.0, 0.0, 0.0, 0.0, 0.0, 0.0, 0.0, 0.0, 0.0, 0.0, 0.0, 0.0, 0.0, 0.0, 0.0, 0.0, 0.0, 0.0, 0.0, 0.0, 0.0, 0.0, 0.0, 0.0, 0.0, 0.0, 0.0, 0.0, 0.0, 0.0, 0.0, 0.0, 0.0, 0.0, 0.0, 0.0, 0.0, 0.0, 0.0, 0.0, 0.0, 0.0, 0.0, 0.0, 0.0, 0.0, 0.0, 0.0]}}, "1": {"nbr_nodes": 50, "weights": [[-1.6389358273080292, 1.3001050166788446, 1.06686061411186, 0.9860275132947119, 1.021405521030273, 0.13098330486350673, 0.7281356383478238, -0.10400346658165106, 1.16614591075193, -1.2200107053642009, 0.46185581584332336, -1.2252927683092085, 0.3029312152632929, -2.1901007223060387, 1.0999592932668418, -0.7553956194169422, -2.304378253233237, 0.8022071601750488, 0.8440566501822832, -2.0523322643891033, 0.8122312191098979, 0.8031207024915158, -0.3741644344866462, -0.5705189685730148, 1.4774294177525535, 1.6282944260615932, -0.3697609009953384, -0.7901686287801154, -1.042584902606304, 0.646505451465637, -0.5478760241275558, -1.3481208387879058, 1.203982646330748, -1.960996540243976, -0.04835319001214394, 0.2555894659003092, -1.2232542622566152, 0.7308140244326953, 0.6327175451177216, -0.7948321761928142, -0.6178160778909454, -0.3999017095888167, -0.714967685469369, -0.006796163310689596, -0.6093018618634272, 0.4630628452465049, -0.5371042774797067, 0.6986253839876269, 0.3042331927310452, -0.6678897439779814, 0.0022006304837823465, -1.3549180713383613, -0.6321623834723356, 0.06217327732014812, 1.14645795002355, 0.48159500654904186, 0.04834643787077806, 0.4566979350028526, -0.10043798788924709, -0.6537629986812615, 0.8165207192836664, -2.14452600224536, -1.1713435728427053, 0.728757369165419, -0.931777630390472, -0.26399492815392955, -1.8981759765684487, 0.038400147875879795, -0.9917462678679068, -0.2982105085579798, -0.08162024982687495, -0.34436473053398636, -0.27920537608945345, -0.5450877794125851, 0.8941462434886449, -0.054320926466977885, -1.7721502637254372, 0.7114948430087285, -0.813626144997174, 1.7475487436435768, 0.9231148592978464, -1.247455845535373, 0.30210065491831606, 0.5952037552445244, -1.7104411121377945, -0.476413046840686, -1.3179049277956663, 1.5504211634610636, -2.7373472456627264, 0.9245528621584074, -0.2902936520465325, 1.4577479034554188, 1.307746735920806, -2.080321305079991, -0.265277396603874, -1.1596867839386282, -1.2350956517858918, -1.9753194218622245, -0.6290632257733453, 0.49930749139665037, -0.7418719552452624, 0.9584432331246325, 0.266717770088184, -0.7873606956631886, -0.5872644512047035, -0.42545342941738923, -1.991814241965903, -0.305334304153329, 0.7338293455697558, -0.7375299622365533, 0.37428175083729653, 0.5254784068662355, -0.46000240004275117, 0.3997970085794829, 0.41798069955151196, 1.2869551730721973, -1.3963188802956283, -0.5178912874805862, 1.0009912832999257, 2.224755778920972, -1.424442483960718, 1.5053418676440171, 1.4652401234054464, 2.429759062724553, 0.10151351073390119, 0.27760476006619994, -0.2484042456904747, -1.0449099724785451, 1.191056742698698, 1.764291599270988, 0.2170403212190987, -0.802334141129373, 0.9113006724523365, -0.2149802079868757, -0.1786109937469495, -0.3367222620959253, 0.3901758135224744, -0.7701687480541601, -1.4336981024827236, 0.27748161529107657, 0.8923862726939868, 0.10853331115419936, -0.7163067837303786, -0.8683508915266623, 1.0909394380277047, 0.1379360870877844, -0.18874275881964833, 0.5876880928515024, 1.7523248111619796, 0.33335396361193514, 1.8037310414770464, 0.009696215758746645, 0.10733041409259425, 0.22181444158043262, 0.3193089588050886, 0.2459749661879734, -0.45500301668753435, 0.6830908064149316, -0.8123898171282071, 0.6330330576643054, -0.616796778144849, 0.1337904259458904, -0.7944616264917777, 0.7662738738628301, -1.5707433999731557, 0.33002286749602333, 1.2175660379213828, -1.3704825498221267, -0.09130733431659004, -0.7332670465277499, -1.0377273362572326, -0.6179593441592358, 0.8699991760318113, -0.12567875428807446, -2.014301447761775, 1.5162640497389792, 2.224990141481604, 2.11663501493428, -1.5939196791932222, 0.4307363234080327, -2.59948382516237, 1.552216558497906, -0.9555077546526375, -1.1840095788043319, -0.3628662156480203, 2.2539352226459215, 0.509762189487043, 1.7843309690117501, -0.5646489127490433, -0.5869497115342391, -0.3189536610088773, -0.7177410241075245, -1.810144350086725, 0.6402865621390287, 0.6167974052627878, -0.9808755937013715, 0.23235797758720833, 0.19692816673200278, -1.5438295999897564, 0.9707579608607207, 0.7804112173532387, -0.10815375274744997, -0.8163302483125517, 0.6324523428234325, -1.3550658248278513, -0.718484161666533, -0.2518721254509274, 1.0452218323877636, 2.091377172967613, 0.4346371331748727, 0.37659863764101487, -0.5495159093807066, -1.5739782481789943, 0.1090092278878478, 0.5400686987207625, 0.3023021560586856, 0.9909408439878366, 1.2432606232219428, 1.2839714453531528, 1.3133333917216734, -0.7134236801285391, 0.43899022380729463, -1.4917276554143861, -0.017969498335170045, 0.7555804007082938, 1.5326168061510022, -1.856710651699296, 0.564300857056891, 2.898511613073192, 1.6995172807950911, 0.6987568492664789, 0.8298764202723297, 0.5412929868539607, 1.5553035037341014, -0.8838517240148823, -0.7223921118111689, 1.5223063856994739, -0.13241528480553075, 0.1568807309194193, 0.21918628990149924, -1.8004926726332446, -0.6654922898248948, 0.4149847741914042, 1.4968185551415332, -0.6026198482250426, 0.03878075135533624, 1.866144857835332, -0.5534779537098897, 2.591182114818472, 1.3234239434322332, -0.7340230423675034, -0.7894507110274307, -0.4287676689944861, -0.3717202237605412, 0.5575241694730645, 0.8309839198102994, -0.6714894250329368, 0.8271231071728795, -0.021690970818091987, -1.0899756635763198, -0.11869988778676303, 0.009109211106690808, 3.170169947155871, -0.5591611344054568, 0.6986238484038734, 1.9043439171023957, -0.22383171347478437, -0.6645549259801181, 1.6198272401952019, 0.26305253253868177, 1.060041994341524, -1.7435324066378384, -0.6916536815269851, -0.31685901178127035, 1.6406525176599867, -1.862513016913499, -0.11172722817281998, 0.33272644321719436, -0.3485357681703729, 0.1040201294805347, 1.5509499179836261, -0.025414715876156513, -1.2837863452265117, -0.09150038562883296, 1.9448161288592476, -0.4364935900116733, 0.43070938738366615, -1.1580643335418275, 0.6283044756057197, -0.10145421206983217, -0.09915773676499051, -0.6808769135967604, -0.6612656687723534, -0.04128682521805975, -0.9104471807426415, -0.014071154957976919, 0.42606960041602876, -0.8908056369292846, 1.0749348406363857, -1.716897834436825, -0.47465432384730477, 0.79836848728003, 0.12963932416794458, 0.2352266694278127, -0.08834924098849571, -0.6316904134573832, 0.313066815112617, -1.8849889467422405, 0.8070618087907087, 0.9601082508806115, -0.3349049406749156, -0.46666827225992275, 1.7288801911620901, 0.9748008178952998, 0.25284453345641483, -0.9419769222716938, -0.2679360052189565, 0.7137063429964823, -0.924663704155491, -0.18003901190402807, 0.3277006496113178, 0.4573431150632779, -0.34720965812390564, -1.3281042846663458, 0.43736574510753107, 1.2275239379038967, 0.13339044921282445, 2.151245146517719, -0.5958235915961662, 0.27951791014668426, 0.8666394193126332, -1.181563528561726, 1.109846580620934, 0.32727130139311744, -2.368103101726322, 1.5169038590924366, 0.8525903991750909, 0.5798034899558406, 1.1073926985758678, -1.842663227240681, -0.4533525391993721, 0.3832134655327402, 1.951064426859227, -0.2889187479855156, 1.150445326801836, 2.1162078987338817, -0.16657629851256997, 0.32985437650168803, -0.33839745135819477, -0.3210515843057909, -1.3391134721201492, 0.7271095957963417, 1.4791578911999155, 0.4570960008297921, -1.0465651471491286, -0.07228842485160641, 0.49021741819527015, 0.398991935826189, 0.31267197576702727, -0.23532859484144233, -0.3368010302361221, -0.2851072084683651, -2.03154608251016, -1.7757719741564841, 0.40050597447597225, 0.022683764323786743, -0.9415438879847214, -0.5488793804671602, 0.9049022094907911, -0.7123360408710558, -0.17619507878829924, -0.14099685359349265, 1.221261531232271, -0.12143881654013106, -0.09947028813876622, 1.1743066875635977, 1.582551550198198, -0.035230011248040455, -1.2286462674322993, 0.3961419091011705, 2.3534958384434597, -0.26338081750922204, 0.17471171671653668, 0.8386603647247358, 1.268039059147225, -1.3631073661683077, 1.214876411194442, -0.24053141337004857, 0.27207050546781847, 0.464489116645419, -0.6489302991633726, -0.7498824437283781, 1.3668611606774637, -0.33798396584586404, 0.4390376616891748, 0.7637084513767987, -0.12362246725036366, -1.4512404242118835, -0.06775202976124864, -1.3915597060329015, 0.4656619589715217, 0.5384893742782978, -1.5678196663275177, 0.65747722961722, 0.5906149558973605, 1.9067600431480183, -0.09357384990746694, -0.45958065863684755, 1.1608136515452172, -0.47515667043067744, 0.38758714966539426, -1.5397548535984014, -0.381829474777083, 1.3873741271114928, -1.2519736759303637, -0.43854265963003136, 0.2723983897418142, -0.8123278255719901, 1.2109687603769397, 0.1891632314630488, 0.09970494870354564, -2.008274049174266, 1.3862929720632884, 0.31771723173039895, 0.05592152363776817, 1.1089567239627083, 0.9800406479110908, 1.687199723449112, 0.2863524896442074, -0.22774143229034932, -0.9090729517742723, 0.43349802620125616, -2.0274967640381365, 0.4857458999088603, 0.5654079966515287, 0.973545245395315, -0.5626334041971576, 1.0679588286411756, 1.4604948469284178, -1.1750025972574303, -0.5306192293117158, 1.2699820500539982, 1.0863664648003128, -0.5374640699224162, 0.6058837893667459, 1.621113537600691, 0.8675483025554572, -0.8367468720584831, -0.8953697321928931, 0.6785336565994583, 0.30743695760285195, -0.21679017904747433, -1.974353287357979, -1.7158870784702516, -2.069468400965904, -0.5004592779305489, 0.18520464579311555, -2.1744341139971035, -0.4973421774888867, -1.1177461549403447, -1.2728722113651638, -0.9388197284787521, -1.3318990704524765, 1.0432513468807976, -2.1363373457658708, 2.7277649197527536, 0.10152156468093931, -0.9452322089748778, 0.3363120556167264, 1.0238588885155924, 1.304614315454976, 0.17027242371368317, -1.2830946906679965, 0.7624239545651127, -0.35473122252698414, 0.6498991816522774, 1.5547859871076601, 0.3018231039536527, 0.2709029931568971, 0.5062210155803786, -0.8023914724022106, 1.1592108896746038, 0.9699052236271114, 0.183011461196252, -0.639868680468626, -2.8249706250254074, 0.6795623458218675, -0.013992675628267693, 0.1586734858490301, -1.3483423311362257, -0.707899215404303, -0.5297677060168289, -0.2380056972685591, 0.5425922846881165, -0.43346529711046966, -1.487043643005033, -0.6431977643577573, 2.3095729446485627, -0.18794740683056244, 0.29912843473718354, -0.8900317514933641, 0.13025933654085406, -0.13262315147956388, -1.1098817238709902, -0.03719365710827308, 0.3929041178885041, 0.3020069894932853, -0.5748424763293064, 0.3401877429334051, -0.013672060908416822, 0.7853515861771535, 0.388536078229816, -1.9558889301053155, 0.28998675332414625, -0.1052623426596247, -0.6234867477453384, -1.2302286868483259, -1.3782638400535427, 1.2456761493448185, 1.3922790619021221, 0.12342905194441604, 0.774555290323634, 0.1550795953313217, 0.6501852038318651, 0.8235175856220357, -0.9502098640082887, 1.7730287393269915, -3.7033110799557525, 0.996189102261648, -0.6718139379347327, -0.2943165589994487, 0.6476491973045176, 1.4962286964709441, 1.4641987094334437, 0.39471823469358475, 1.238606542630902, 0.7050747775567285, -0.3024085696264286, 1.717249337614205, 0.10288685861223508, 0.14230940886045862, 1.8290552433180605, -0.41189447403362983, -2.3483616544972747, 0.47987471464090786, 0.4528142958979888, -0.9798504748910445, -0.7489480234296497, -1.0812992007592015, -0.1299260915340884, -2.2930405498151494, -0.9472493263323979, -0.498410240654246, 0.1843667734974794, -1.2459426542326542, -0.4763825340376448, -0.9662853041515277, 0.8450544662470434, 0.28520926008922404, 0.5546014304783604, 0.45123777278378624, -0.050361986064156684, 0.5390342857456687, -0.7350127422009816, -1.5908902271914829, 1.4411085368093872, 0.6883952335532546, -0.07248578655543858, -0.251477033737249, -1.4202869585454654, 0.5770910178660892, -0.09969384388531756, -0.3931116160189119, -0.29597357539162933, 0.661788317573341, 0.7423142629783059, 1.1555729870856075, 0.20114553272495142, -0.9511680780044878, -0.9428524997958162, 1.7815193527152509, -0.015915231242075195, -0.10621047921002905, 0.7185501218883628, -0.5644140978043297, -0.1565188705896482, -0.11139221132345976, 0.08190139785720615, 1.0997827754825271, -1.5629950825941445, 2.0378444808113687, 0.2969904918514682, -0.21087218125453047, 0.4427642953812359, -0.9512972486510018, -1.4022315453909011, 0.33947079872510416, -1.1443402670303182, -0.9711939240474242, 0.3892485658516308, 0.5239159826659512, 1.5745907108340231, 0.7645503467631143, 2.7089353602702153, -0.01301841408844474, 0.06794350894749314, -0.0016644968592695872, -0.7039009931173342, 2.4774905943306957, 1.0826656866965008, 0.19767172444029169, 0.793376394406578, 1.7856502646914272, 0.30088942802652274, 0.22573096355357053, -0.1727752818721599, -2.820352721688024, -0.4806177406898619, 0.6395084118624141, 0.3737806679226871, 2.4758030162117652, -0.4827731257171933, 0.5022590340285086, -0.2958719122316106, 1.39545831580457, 0.703032596427232, 0.6167843391223979, -0.055212243833572774, -0.45544420410804887, 1.1211468153269994, -0.5213439389499018, 1.2182089136031742, -0.6651092702238788, -1.1971436236827888, 1.4861947477524984, 2.0181793301302955, 0.9688759290962891, 1.577914764077014, 0.2973972738379841, 0.5225769121884465, 0.5146432415836417, -0.7301152057465755, 0.17766793415341164, 1.551125340400505, -0.008136340190899729, 0.5462931726756386, -0.6761102734375799, 1.6738096799764905, 0.2611370164270421, -0.49807670415766697, -1.0486261966065373, 0.3891060707212104, -0.612727446152179, 0.0016369381645717379, 0.33973944513945137, 0.9579731094203116, -0.33727340994647437, -0.9536327046427772, -0.37189455805544225, -0.7514516854482346, 0.014193946439427283, 0.9618555362317823, 0.99602293588686, -1.6076084921528562, 0.4394016471993443, -0.7823853574009472, -0.22789125487313633, 0.5148714344557188, -0.8469627941570094, 1.1245840075923987, -0.8411306349668329, -0.047088562061393585, 0.4726288863963571, 1.381014967195555, -1.8000644976552964, 0.155281844089632, 1.211539351485469, 0.2241641068939213, 1.4015429224625908, -0.7255453342163519, -0.8373913186388452, 2.0767992431135305, 0.5896724908214298, 0.7123378594289933, -1.3053563408539859, 0.8863404466720204, -0.9309369787521731, -1.5021488732347383, 0.6544077741252485, -0.5485450103982059, 1.2659859749043993, -0.45777982343934165, -0.5282709879238933, 0.0880592383414986, 0.6499948891259631, -0.22490624057916064, -0.588431676555497, -0.5654197743370061, 0.3066659525742016, 1.081926429381941, 0.44113798067348403, 2.8701242192786247, 0.9531660978802085, -0.1695711309496572, 1.4312798861481857, 0.7402354807915948, -0.30901815442437774, 0.5248401034546151, 1.001377757527791, -0.4158356617052294, 1.2583539897374145, 0.7821536263999619, -1.2874531864908771, 0.7511782987340172, 0.7538231040239978, -0.46998136008658886, -1.245804295619735, -0.15589163665579858, -0.11337806988878457, -1.2401151895854572, 1.2292841564607055, -0.6382016362363454, 1.061799146468342, -0.6563162400497569, 0.6028286432636785, -0.5967777794424446, 0.8082420734418989, 1.1831877966798743, -0.5767712618262567, -1.2223073658635146, -0.06855864531347138, -1.590561479655892, -0.13830234331635557, 1.5049241929226653, -0.08556756519490553, 0.7554015483792934, 0.9404205438900418, 0.16467339895310273, 0.5566135556276243, -0.22651359850498212, 1.0756626399645823, -0.18333833818582557, 0.10985184943716007, 0.9980013258872061, 0.3610345628496452, -0.9523047615054068, -0.25045552247527586, -2.1084535052880966, -0.14633929900252254, 0.49261396161654564, -1.3929816599215386, -0.3457035215010357, -0.3123289496441862, 0.10723590049760964, 0.5099986850784236, 1.2351718919656856, -1.1857948658326882, 0.6945876180577667, -0.6209247192433395, 1.0221785920043596, -0.8265959387289133, 1.3576858072117488, -2.0389197372739045, 0.09363428672314716, 1.9934755775184698, -0.6055361522213477, -1.0000134243695178, -0.668706565434182, 0.019593738177002645, 0.7010647360770649, -0.8891703299598742, 0.4403405038823867, -0.21216170049535352, -0.633360936376852, -0.1423067874742572, -1.7058664490221467, 0.15075580365542982, -0.48903543011168105, 0.4129630708245821, -0.689562050667199, 1.750527288736379, -0.2353315231678269, -1.3323298209318117, 2.468034979997784], [0.3051583325967964, -0.5611124324229259, 1.2548964982852955, 0.7611796438412504, 2.6412072888736877, 0.33181837357379607, -0.2572439202174177, -0.8624987833471741, -1.9025942544290808, 1.0424543373688082, -0.8568546348927242, 0.22544233148455434, 0.10635928475409619, 0.5113464895313871, -0.3406615499086976, 0.45344651865383717, 0.39496100785865235, 0.037146206492199824, -0.4893397611878639, 0.9794694400002842, -0.27148445929021076, 0.10760249665809517, -2.1607613239780683, -0.2999221100563477, -1.4770863359512338, 1.6573260910224294, 1.1903748031916555, -0.3067033906654771, 0.2968241586650743, 0.3894088360603607, -0.25172412248197845, -0.7025726029718556, -1.051318937117792, -1.572206961605994, 0.3271374758288122, -2.232246640223043, 1.7582135590845895, 0.3929463690200724, 0.9619892445508182, -0.5517683539940939, -0.8073943768581006, 0.6822053894066511, 0.04179106339352304, 0.9636066831501638, 0.6259914319052604, -0.9382224106823678, 1.4177597321940374, -0.5328450336189284, 0.6053491691867114, 0.36098973401670037, 1.4386808750142344, -0.6902751025168181, -1.120410543210857, 0.6753812362569478, -0.8359544868431014, -1.2630388549255789, -0.5137698753068788, -0.3354851284964709, -0.5103492799762326, -1.6771671167348554, -1.3955875080771403, 0.32611759055063516, 0.11066639780246362, -0.905063621232653, -1.8232816903626148, 0.6393603408374037, -1.9359811874450352, -0.6767103034546401, -0.5642545372097999, 0.4996461866858567, 0.7807027333206871, -0.5890751725285481, 0.011436936412276472, -0.7736417544384335, 1.3089208901432745, -1.9262163189457537, 0.5615205698270144, 0.7353738062869376, -1.0117449744044287, -0.9697194680245745, -1.5814205432380857, -0.00806972178241346, -0.14242269237188954, -0.4523975979525098, -0.16959275587742223, 2.1255716890890297, 1.2316426363007222, 1.2588572344117992, -1.5882107908284395, 1.6740602649840681, 1.0959965079592366, 0.0033600666808293093, 0.8474731636234555, -0.9769954149029851, 0.43069622575068384, -0.6892063995300441, 0.5907385660733756, -0.3358511406507206, 0.21846261506560863, -0.11140816682915924, -0.7941762764393099, -1.0371422287873486, -0.8999075867283256, -1.2852318477013114, 0.6941452840234994, -1.0740377068211067, -1.5555490244157182, 0.46179217863790295, -1.546106111235191, 0.7334534696008276, 0.8583216696230729, 0.1635622368144638, 0.48836369751153713, 0.8805432456233828, -0.9876400414091795, -0.2657504623611887, 0.000591986720364845, -0.3383083023214204, 0.12073747791842399, -0.7111310353029606, 1.7214748345302924, 0.5026186962839431, -0.4474542495085681, 0.3634213766553434, -0.18452097679735222, -1.6468205634971023, 1.1817147632260396, 1.8682370951039358, 1.0421260642875232, -0.6470411451858316, 0.09101644824228719, 1.0898521908992258, -2.2992541043224186, 0.575873247611565, 0.6709237411502366, -0.21167985820790536, 0.6130231691405325, 0.653524419250197, 0.8837062432276502, 0.8968928590996762, -0.8513452006017992, 0.271104763869974, -0.7896841444678855, 2.730273310180717, -0.6519094201697961, 0.013964441756882454, -0.6639734353362607, 0.769139732176922, 0.3314134427592096, -0.2743370853585524, -0.16165679992228826, 0.38613952871296503, -0.42060147030430967, 0.9765409274672073, -0.12192652374602972, -0.37833357737318707, 0.5306739270904358, 1.3614611031766477, -0.0022940149870883425, -1.033936505800052, -1.0482842498091325, -0.8098604696324984, 1.6783524931800629, 2.0944145654901223, 0.9450086337588767, -0.19547923081988752, -0.5137633451183867, -1.2397957054026336, -0.47610419118931385, -0.6784524843698394, 0.22171472146276852, -1.2146309795791546, 2.181018023738508, -0.4420382930276428, 0.9329699643525539, 0.20125704522953008, 0.31445956920466706, -0.703535445746992, 0.8346633550617004, -2.3313223206952096, -0.17329624385017547, -1.6391933026223582, 1.8368299938449457, -0.2612506731490339, 1.9158546977956668, 1.4107135005882383, -0.6746861640276081, 0.126081841121388, -1.00977090915331, 0.05262166541993269, 1.5540258271162724, -2.3368582016661117, 0.9699204497639847, -0.04051956182413278, -0.3164914531082903, -1.641076318802311, 0.22638919322307852, 0.43140523760567573, -0.08980676415462002, -0.5544867843204767, 0.15177769327598034, 1.0216345546174264, -0.6778586346054061, 2.0298689446065055, 1.8058981452778453, -1.5293244725972468, 0.0740801508029926, 1.2876851287667777, -0.04304113175561042, 0.43007395803325993, -0.9129258795780438, -0.6222999849693552, 0.6588798591817404, 0.5146916415891716, 0.17627658233657342, -1.0589991171887065, -0.762904829193442, -0.9550122175524851, 0.22235765493868712, 2.4769899946626217, -0.9198436564894145, 1.1424160045041107, -0.26453814009762455, 1.0877397280311567, -1.7184623612614438, 1.2162416624942538, 0.7574629918124041, 0.28511119147508807, 1.634502995096653, -0.10064854292128247, -0.5123343646300834, -0.3228277502324245, -0.16946096732117022, 0.2912816383241219, -0.36134611974423175, 0.5544245493952846, -0.9386527300618389, 0.2614482464635678, 0.7858183747142609, 1.4197058705867027, 1.2649394344553557, -0.3667999570390136, -0.4129733001342185, 0.9078210963895329, -1.2241601252634875, 0.1670025550277082, -0.6410253053001526, 1.005617788280573, 1.1649526352684436, 0.885417089558742, 0.3978156857000099, 0.6925650479344713, 1.466193957092744, -0.483085719189654, -0.5853702649958974, -0.7079583029760791, -0.860479552379113, 0.14230393379496328, -2.0349101402162573, 0.7227575946384933, -0.716028191095782, 0.12302508065521617, 0.9058905037536661, 0.6705485497045005, -0.01546886440837062, -0.21917194372294513, -0.4861367965748985, 0.7246151712702201, -0.5503757552047988, -0.4131332419780491, -0.6903034014939802, 1.0702804853643246, 1.0888374817264257, -0.6158936086533943, 0.19526497568493856, 0.7149982794118652, 0.23377574973632517, 0.34736846921782344, -1.7549410119458175, 0.3168331763253751, 0.7117420963511714, -0.8209632122132626, 1.2051216382103114, -0.701306652658669, 1.9052971117903763, 0.540012285782619, -0.12686295036324122, -0.1663517395943457, -0.23740587701990765, -0.16591277066641114, -0.08805829724452921, -0.5689676098829829, -1.7261904048228713, -0.1327464304731938, 2.7243999142570647, 0.4530913225198315, -0.5769323011909396, -0.5303901843903033, -0.929595441613, -0.887110238955652, 1.0454002894646781, -0.8434595351860675, -0.25384352786711706, 0.08419223219390483, -0.22440958545157433, 0.6814558353741933, 0.9614775141295847, -1.4363063804901848, 1.4833671493452756, -0.4060864026796078, 0.4127988534368627, -2.240469522690466, -0.3357243608445981, 0.4039941616940501, -0.961518158138468, -0.3338127535243991, -1.4487045594725159, 0.8885966139005071, -0.6382942890500255, -1.4077883607706378, -1.2179228704994933, 0.6723058855286478, -1.6934209576235553, -0.11073808846647308, -2.918333373114518, -0.3835741260028168, 0.007692069834267701, 2.3545361947524395, 0.47015607576992663, -1.0910225856990987, 2.0002002006942154, 1.5253733987586986, -0.34298980086484226, -0.5161673607734641, 0.9465764084702097, -2.4268239392110957, 0.8685274479735436, 0.5574098339554241, -0.759796219675339, 0.5624895823534609, -0.29048794334622874, 0.7209342790210028, 0.3786607996314085, 0.22588740833645826, -1.2281095152949282, -1.0322126401721734, -0.6134567869502882, -1.0002246344952619, -1.4382971303569974, 0.17497390474892355, 1.6881183176911536, 0.3873693304073382, 0.09029709676125068, -0.44511999343921727, 0.05539817373434138, -0.8439683006806787, -1.8689849473835118, 0.4018479067426976, 1.1446366782537225, -1.0334987023314024, -1.147383570538509, -0.4985131286026496, -0.7953706138040635, 0.3230805345454351, 0.23252694037989627, -0.5750811931281421, 0.1836158304225335, 1.3145810637270212, 0.7012491606496182, -0.485202266909328, 1.388607930004938, -0.6073777192601882, 0.17274121209198148, 2.0931762192985994, 0.4508431579735672, 1.1686457949576774, -0.9866166584254106, -0.8186944233490259, -1.9516826024442724, -0.5360020401857891, 0.9761427557868133, -1.8902201878233102, 0.04145351928572575, 0.080097940629301, 1.2159121679506995, -0.28598167690036025, 0.26762316787860074, -0.9178820671249789, -0.666913666412752, 2.024290924585148, -0.20688496061008363, -0.7516385326066131, -0.9952505224934733, 0.8334126564005776, 0.11976512010577096, 0.2528265231723437, -0.1267711604178041, 1.3616769856442583, 0.8693946036078855, 1.3632378766227862, -0.1906546907416885, -0.0551842788434105, -0.9559159456374342, -0.42180003903968566, -0.8900122494251105, -0.18183975606109964, 1.7521621802538498, 2.0501604609437782, 0.8522344857706498, -1.170545584879018, 0.8190820604674097, 0.20909637684919935, 1.4691651194403157, 1.8281517487065733, 0.7206130935554635, -1.1334866494036675, -1.5301019925041324, 0.6421732796885617, -0.18260588759703722, -1.0461674128331784, -0.13024543922109214, -1.21221340915506, 0.8873663286300032, -1.3072024949375054, 0.44928059943177223, -0.5815196655975909, -0.1628991208553228, 1.1646891450837213, 0.5736559306889469, 0.4049691428607047, -1.7615569894879202, 0.1938760348866721, -0.8577016461846377, -0.7307080967029284, 0.7734769151501792, -0.3023618908178573, 0.44797678027445204, 0.6867913824490516, -0.12496923718883385, 0.31628926267929436, 0.48314423994357397, 0.4657197826520012, 1.6819097669155714, -0.9266510579897761, -0.17868463932040352, -1.160894808077669, -2.1101711213374847, 0.5090758515768908, -0.45968951711710065, 3.1431477553754337, -0.2393277242149821, 0.28106147069453624, 0.5579906257567753, 1.0034798149642647, -0.5555926079621477, -0.13216197744661345, -0.13405790855324903, 0.5428467877550235, -0.5086258685741837, 0.6845124673289013, -1.0504958497869572, 0.08203411410285878, -0.5945716812669315, -0.5657896778806751, -0.0510338506918438, -0.9390399853984917, 1.6877185084730066, 0.8513922263643628, -1.2553658064548128, -0.6035236401213019, -0.016994257604458107, -1.1707416417366787, 0.4619581927229748, -0.4819933632673241, -0.5236317175526204, 0.5509067778508814, -0.39989594770457426, -0.5225392416455681, 0.12398468836038946, 1.2138647424498314, -0.9091060120551547, 2.225954779664182, 0.21489451785541305, -0.30927545480541474, -0.38189370922659827, -1.909799948844756, 0.9692904273407789, 0.5883638481352262, 0.20789423834623844, 0.7483934847710759, -0.25805476730031474, -1.084956347546129, -1.0741487729056367, 0.8604412117147738, 0.9738349467481686, 0.5451964831238706, 0.48679081307572225, -0.4344734717140288, -0.7266750947030732, -0.6894537223975767, 0.4404685194696539, 0.675347549771733, 0.5168003009176002, -0.6448578811692337, -0.16085782599705054, 0.2347969211692186, -0.33324055140539627, -1.5453923273820043, 1.4550416105014325, 0.12045670830173387, -0.7877421744714979, -0.10293607422557796, -0.2872323133594968, 1.4944519878334317, 1.5023988055180908, -1.4199213720330175, -0.20191333802354522, 0.561884465742434, 2.19102888979688, -0.45139528323647415, 0.42141507397397504, 1.15560477145279, -0.9103496291557955, 0.4009523020410027, 0.9044033661276615, -0.2312494164191147, 0.1698487118449543, -1.1527691284060757, 0.1871961066112443, -1.271762085010352, 0.7820774078422548, -0.8805802635447059, -0.18128019234849202, -2.951553537813987, 0.1365601158379962, -0.15986927281056296, -0.2842575463786563, 1.5990674423015783, 0.19235568773596748, 0.665180405017645, -0.20120124875722156, 0.32898532577168305, 0.31734289788752124, -0.03722071125052677, 1.0341760865900662, -0.4561591079003198, 0.32059754250072997, 0.05179152820640402, 0.3748636980329476, -0.03383651215060943, 0.6830493882994113, 0.07082233715034794, -1.47769487727809, 0.4101891849382233, 0.5589033353865657, -1.0992640796324455, 0.9329599062864007, 0.36856690729081887, -0.3341752566039292, 1.2502600579849898, 0.23942916357437433, -0.45472144213198823, -0.13764493967129798, -0.4194085589988928, 0.6931578574031074, 0.7736852429465265, 0.31200629259026963, -0.27758460385084177, -0.4030818978590313, -1.3381630190397942, 0.29111959602187004, 0.5774290392254572, -0.18878466463232343, 0.47075264073035195, 0.08260478866597094, 1.1027919716847152, 1.0180167812386547, -0.05834636715601251, -1.7071437069265512, -0.6441444486954812, 1.0589960263765081, -1.4807616651063935, -0.8726764178236215, 2.2311510105586487, 0.2641185990356764, -2.416821344280554, 0.5980147759842116, -0.5846580657368825, 0.25373400015178726, -2.2663449608169794, -1.8249120755203505, 1.6499330077175784, -0.25518848364319424, -1.0418181411627743, 0.8727198411568441, -1.3609535428611743, -0.38276658159018306, -0.026888829363230386, 0.6388108366539815, 0.8145067346337098, 0.9342477204121039, 2.0376199695517583, -0.924970933319132, 0.6837806012852107, -2.467283430088357, 0.5929301599251159, -1.7822016985851519, 0.25491407968381197, 0.035693420419264134, 0.5337223081026214, 1.0904392152028428, -1.417622171575891, -0.6267550062774292, 0.20776977023953283, 1.4276082104450778, -1.3804706555275428, 0.6703116142240599, -1.1970755285172259, 0.6588515603849364, -1.1216106681955333, -0.23168122997503096, 1.3870864195366897, 1.7822675409549558, 0.15676861674355574, 0.8886393286588724, -0.516701515741344, -0.46069484106975883, 1.2518845151713043, -1.2349918382966851, 0.030937798168861094, 1.7054541535236112, -0.04981072581068799, -1.1806517736562112, -1.0459081037814875, 1.355874441796621, 0.9352791812487666, 0.4721109165436461, -0.9950094232045359, 0.17705828179445918, 0.10554418912828807, -0.2584768014116048, -0.11625307687319264, -0.8959840853533294, 1.3258265290225528, 1.4872245620193834, -1.4739003797847365, -2.047481737020234, -0.4041172361054592, 1.9076455900122715, -0.6241807388774668, 0.07785816421894282, -0.14936914102538315, 1.269721187403575, -0.07077871272465114, 0.12467182296339185, -0.4946255867357598, -1.2501291583718523, -0.33410409778519007, 0.48524197012034637, 0.7943046374027555, -0.0005458938243265493, 0.17206576699546305, -0.6314936311349453, -0.07975190982358887, -0.6904747392460677, 0.4741363126680959, 1.7465802934303487, 0.6891637341306981, 0.27898757836456217, -1.7546546262508853, 0.6896250540346641, 0.10078779271762436, 2.0436658874115823, -0.3820999774288968, 0.5086890181533912, 0.7550856200988503, -1.1164866949464856, -0.3179120274043675, 0.5700159820314329, -0.7322905300401316, 0.3546422674382946, 1.9054032082829342, 1.6536515782069676, 0.9344497271655534, -1.3385520074595436, -1.1877266510351325, -1.0974990075504951, -0.8662651568697112, 1.3229922068877062, -1.1218564862456706, 1.9212404377383243, -0.9889088634411097, 0.22648167445195005, 0.9394960634903518, 0.32250063923004674, 1.7425693444975525, -0.810378520210504, 0.5568323586702104, 0.21507135185981138, -0.4841301606876193, -1.3649845856601317, -0.29989228956563996, 0.33778710918667015, 1.4530815940323158, -1.2892412410777785, -1.5278663042078982, 1.2178218999455246, 0.104988893952101, 1.1175544962772261, -0.4188363876086683, 0.7601722110376776, -1.039240979820454, -1.6819127303271066, 1.6292928484036482, -1.0555696974797892, -0.11794219053918781, -0.023341382776118323, -1.1313425673868878, -0.7904886121744038, -0.9639781618004549, 0.5788104105113515, -0.32601471765547424, 1.203401615369782, -0.4891330162919888, 0.6915657795751367, -1.339465259697503, 0.6123530528983908, 1.5280821610088713, -0.1905407099595711, 0.4655384989199642, -0.37925518449974815, -1.3482858857297109, 0.6694246689587765, -0.7806112976954952, -1.4454241313451375, -2.3786484568314012, -1.0853999058471544, 2.0690305839312435, 0.3487546784530145, -0.923009639286981, -0.6574249443849189, -1.4919366727736527, -0.8521938389853829, -2.1795194837502536, -0.0811129771721148, -0.3493884656907923, 1.0526981210302917, -2.1059333141737033, -1.7030592109637703, 0.13011123150806067, 1.9638883176301791, -0.4739153460296954, 0.9383084256481783, 1.9588839961692224, -0.8417210679253139, -0.08634916842394151, 0.7690602673371211, 0.0033240446710178857, -0.4964840562081697, -0.28916445479290304, 0.5147656131090781, 0.11717656360513082, -0.45552015810740476, 1.385030205530294, -1.5744190708757666, -0.3847185594850228, -0.7056305094386264, -0.5286458703077428, 1.9737765269722896, -0.5680872251271539, -1.916087169664082, -0.6133222166227829, -0.2444646119014791, 0.3235327469546329, 0.7998223823932968, -0.18257134587077706, 0.5726158429452711, 0.8581943376691741, 1.0866803573244948, -0.9053867234486638, -0.3825097706237562, 0.3535590045917604, 0.7776696908507973, 0.15447919922652242], [0.614482745713675, -1.6552214404435774, 0.30582193861352025, 0.40151804496847954, -1.047880816479565, 0.5404641315002167, 1.350374547745797, 0.0963643683744441, -0.4733650468242178, -1.356611793558993, -0.3562796144704688, 0.48843098422411435, 0.04051050858689906, -0.9317755185461479, 0.8797402255547188, -1.6412550646130322, -0.3170143456907611, 2.368026223138324, -0.3690892934460149, 1.4024994482053017, 1.24215313444184, -0.705564807220295, 1.2427877166565013, -1.42247024148479, 1.02018515028855, 0.4865878459673455, 0.8816993303974747, -1.917034219788595, -0.44539792509221093, -0.05738503091818068, 0.39534418438423585, -3.10604518509461, 1.5757512789027914, 0.20245126963428375, -0.8163669243836615, -0.7245086496059698, -0.08799763192050611, -0.9610462237110595, -0.24640892511703208, 0.7664185674814453, -0.6311642916921252, -0.14118291016316914, 0.3051124650009624, 0.04390634422286529, -1.8861840443421063, 0.36939077103399987, 0.08557136666020401, -0.5437230872399449, 0.09922694582476387, -0.09402823039687301, 0.20006601648187056, 0.24529938909285778, 2.15686511367937, -0.029627620597800407, 1.5393426938012662, -0.4166977380987918, 0.2609009366997221, -1.8256315845354358, 0.6142074941841591, 0.38908456725236035, -0.25510013831005074, -0.056400745158765656, -1.3124393035625075, -1.9775031039522026, -0.06744886968547022, 1.7917419932454455, -1.921810372997749, -0.28326657166358193, 0.48684963034234124, 1.1587768066268613, 0.9996814363542114, 1.874264691918472, -1.9888286749156203, 2.46395141258663, -0.9016581129350065, 0.6916900024727697, -0.9058478858779491, 3.157161152543815, -0.36202305473192875, 1.152607818528371, -0.2992534662125698, -0.15077843250072673, -0.9279696182133261, 0.17671631223653975, 0.7735450228951026, 0.27610767976628664, -1.3299680994829859, 0.2136470222577233, -2.0769177025327337, -0.7836433704023898, -0.12326910922230637, -0.8972780823723518, 0.48420647526789323, -0.1288527070277221, -0.25494644088464025, 1.3637226349974318, -0.5385931528758877, -0.16180011660769372, 1.1367868835467791, -0.824940690326073, -0.2373428814099448, -1.0086020829426365, 0.0580832552010522, -1.0213017792317562, 0.7184520670043791, -0.12567889077344727, -1.0909983397724798, 1.2479662475315905, -0.2921640233600659, 0.20330231942609084, -1.1338116949001962, -1.0146397213790725, -0.293761753081897, -0.5570312339361905, -1.5591947643454345, 0.8094576639939592, -0.024157341673699404, 0.17651635591422823, 0.2162211155117089, 0.2620537776397167, 1.6300522315906874, -0.19125492814729714, 0.021262323425270478, 0.8902602165069426, -1.122764496715082, 0.8422056280448469, 0.5760020047667171, -0.9461711937484317, -0.72450340511057, -1.0121978204822624, 0.9116338850148283, 0.6276051764906392, 0.6410092157444122, 0.001053791224010919, -0.0909258643757559, 0.8461875780375528, 1.808859100212314, -1.0948221765428567, -1.1910902579148361, -0.010915637802330782, -1.752162713536626, -0.952742536531496, 0.8315996842394057, -1.5928474748739785, -3.1785610837597793, 0.16679221580693213, 0.7657304373821516, -0.6012286203683576, -1.1736568638033438, -0.8319762057281194, -0.7286227411415942, -0.7772061837647142, 0.1506276669802996, -0.7160367311146048, -0.9401067131787014, 0.042830826211077304, -0.8863929921199337, -0.044554693224647994, 0.5126841236091287, -0.054228592101426686, -0.03840759444414719, -0.9721784620492685, -1.4346542420162214, 1.1513837766218529, 0.4485447973490911, -0.4782568189401386, -0.179828950927951, -1.1691306098652152, -0.38489238018476296, -1.2114804669848518, 0.524778514987704, -0.350022473566723, 0.1230062214170934, 0.6733601319858991, 0.5484931258382129, 0.1631515600381441, -0.40114619094495346, -0.5480991130424002, 0.5388073510520809, -0.5266293739353296, 0.7083957454692611, 0.6568836025542739, 0.08350989515379499, 0.3126138427741021, 0.7599143665319523, -1.1164251842883117, 0.6260154013386566, 1.7733620651612767, 0.60532853096556, -1.3767995725936493, -1.7223276102642162, -0.9005197043999282, -2.0416507510202377, 0.21169132566388993, 0.5163174016484223, 1.879384338425561, 0.4068202169063275, 2.03323925139972, 0.47402549129062227, 0.20588770216268845, -0.7043858908997332, 0.024801080661432984, 0.8729469866851416, -1.0101886848703092, -0.9284883401013727, -0.1975226043486222, -0.19430962981825156, 2.0668537459163203, -0.2532614633008231, 0.6225474863926347, 0.33356330642902937, 0.799170599259623, -0.1441117580870314, 0.12368920681506654, -0.5062429945756582, -0.4252530406429159, -0.5660624566668678, -0.32589467074826506, -0.4418458769893411, 0.7858126275364267, 0.8599995314352539, 1.839179866296994, -0.8114130691365822, 0.46613970781557457, 1.3073168245876765, 0.5414710422156629, -0.7961262325251064, -0.2471588435444354, 0.12131203195205269, 0.4624485399666026, -2.406922526715195, 0.23857095275037332, -1.0788720474371054, -0.04647980556910479, 1.1936091190452898, -0.5271703390717568, -0.18749096343194882, -1.4026139653840954, 0.003207086912967527, -0.6451154519919107, -0.18307467509868441, -0.19731165188184333, -1.1168055034347057, -1.0604842340904088, -0.14372936854615365, 0.834823386692492, -0.1442886387540589, -0.05161187938343078, 1.5102955597921897, 1.7226431107988731, 1.005208245377982, 0.17639582320598216, -0.16954525372227924, -0.5291844717883456, 0.7430777551280933, 1.927100199609587, -0.888267345922855, -1.007028952854782, -2.118814814908012, 1.9361547268574728, 0.22020009664314574, -1.1313710173982254, -0.03616777183372858, 3.592423079185711, 0.7994209195049672, 0.882502363098682, 1.0545318261752614, -1.612250259305126, -0.9880308126504088, -1.6930266923876118, -0.9826097296607572, 0.3685778166534185, 0.044369405418060684, 0.04305047442188649, -0.6777262143734379, -0.21883917323387017, 1.5817173719049016, 0.9115495133040576, 0.2794778223159806, -0.26119802396669856, -1.5394935098052955, -1.3395201835462782, 1.8891364018611156, -0.44359169520714387, -1.3604872538633954, -0.048936590815747236, 0.776447416972443, 0.4764366611078981, 0.5591609549846108, -1.1664878893855413, 0.4967359833545306, -0.378952368740008, 0.7301028078920937, 0.25359862788347265, 1.4065464720396048, 0.6776320962647149, -0.45686366448324717, -0.22764849958397032, -0.6957370612478652, -0.11733514318749996, 2.2044446747571844, 0.36668308257617904, -0.5756079357977102, 0.22055686268536087, 0.16098310114039244, -0.5109041635320561, 0.8669590132680413, 0.25548198976953845, -1.2673834113515725, 0.8355418392751306, -0.7977363394898268, 0.262036451811251, 0.3037361942163329, 1.6209690981769964, -1.4550643342792795, -0.16816134102086508, 1.083612797743431, -0.9902063003294718, -0.28600285233626643, -0.40475221655333177, -1.0186253870791868, 0.29878415064418573, -0.3255330027785467, 1.4822085548552704, 0.8463570047372363, 0.5423542957530418, 0.5999227993390482, 0.07554060050948296, -0.29882117527076146, 0.5738776800759501, -1.3003128500776837, -2.8333038828471504, 0.18625299619975458, 1.7519431340428628, 0.9219107280463779, 1.5531892476788178, 0.8089488117900038, -0.38987349957731726, -1.102620061519733, 1.8220078245127995, 0.2129384366556585, 0.05716094546575568, -0.9803453417891186, 0.22254975037023794, 2.372419278803735, -0.1315847405010847, 0.048958126372907945, 1.216342934353698, 0.8627564245954159, 0.828332850931246, 0.5562409951042101, -1.3648050495257418, 0.14947326279151366, 0.6557511514450156, -1.34628218457547, 0.7975225491813607, -1.019569948750216, -1.006119417291104, 0.40205646326393135, 1.0307123183918931, -1.3142481181299965, 1.0491543039591722, -0.5368252374225265, 0.3593267127936572, 0.6275500444685029, -0.9708112680112129, -0.3179832445130729, -0.36992086228070103, -0.20747489193323634, 1.242951502333132, 0.8123779897848925, -1.5068732962112794, 0.4183916968970958, -0.08939845098175007, -1.3772297876671846, 1.0523656989195214, 0.8388419732271444, -0.5582883126053301, 0.8577449686771267, 1.0989397372270029, 1.0802230491929825, 0.23064535439314388, -1.007769226076585, -0.2396727490898631, 0.6338027926185128, 0.8639554518465252, -1.026387394222574, -0.0021862181877864437, -2.246008311821221, -0.7568094073915624, -1.306949290227086, 1.2157082984147018, -1.6430951719657299, 1.1634195256471398, 1.6703795573052571, -1.813241528201281, -0.3136593778255914, 2.2799805739524954, 0.7408935714720565, 1.4592002164114006, -1.4290791457918663, 0.0813204060817891, 1.3049322850587655, -0.808000825686828, -1.9028255048009959, -1.5803323002853316, 1.2220828056715567, -0.9615549687545693, 1.5152492501736345, 0.8000371117380194, 0.32695092913233037, -0.6114745097298728, 0.7026202238762043, 0.09736953291198157, -0.49004117315968215, -0.3262345768050255, 0.07075686960119464, 1.1180992895207238, -0.3136783625273786, -1.5216991010445209, 0.14019958170850144, 0.9568268208364755, -1.681598337464352, -0.19746802105931813, 0.37020177010672795, -0.6717326612544858, -0.9483201635034969, -1.8061975167631308, -1.877259794586977, -0.24401987655261526, -1.6299503746073267, 0.45886443353092354, -1.5488028424120293, -0.524775882775391, 0.5138740807695219, -1.1698984459435813, -1.659116400001076, -0.8779446800575961, -0.2929684320279382, 1.051273043489426, 1.0110386095085278, -3.121989120871856, -0.6770145822983398, 0.17319867986721338, 1.1883405825755364, 0.8235419869645851, -1.2532961119713093, -0.1199488424084156, 0.3859021677775134, 0.1315317958763459, 0.3100671153754393, 0.6699676691455958, -0.2755282185840525, -0.29465903549708605, -1.540813645045929, -0.5664092025540859, 0.7953975374575887, -0.8426953936858792, 0.9103692153942334, 0.3900226981645779, -1.9573695451930062, -0.7818381551803383, -0.004903208723118303, -0.8552747575487941, 1.192739953212044, -0.15610321429760665, 0.49376634081927306, -0.8677112709148763, -1.7708981761995504, 1.2913920224965334, -0.23082261255876643, 0.1634857125951116, -1.5752478086354986, 0.6539624875947347, 0.3103573239859678, 0.24697996530620184, 1.4330141382244688, -0.14998508147823425, 0.3952804146886946, 1.2392615684011223, 0.8969525831968842, 1.2670698924916934, -0.5646548474744714, 0.3890702265078235, -0.07483252994608307, -0.6646319916173458, -0.004343731424934848, 0.7716998188534885, -0.24469284628129304, 0.21603580364642994, 0.5373667859773696, 0.19980359219460145, 0.4011009853313392, -0.47372979537690507, -1.3774042855936626, -1.8613039705094776, 0.6607896315163324, -0.5807770074650838, -0.827423866794034, 0.5903155282120575, 0.6770411070536997, 2.196314936745933, -0.2117360682090539, 0.4314257623471963, 0.0697563741733842, 0.14269175072048546, 1.0833849469690733, -1.239518168426872, 0.4424409354301263, -0.7125774881282012, -0.3497862365348677, 0.24876377294190452, 0.9329402377504735, 0.6577371087876961, -0.05980316147307268, -0.15700858777430501, -1.058945160580833, 2.047592907233142, 0.16950456149585422, 0.8093747680807971, 0.4803539640586635, 1.1822305294252098, -0.0484920658998522, 0.9893017217703999, -0.515979284409883, 0.5272520790571144, 1.742546264313489, 0.10337148474203782, -0.27436816237861916, 0.3271723661123468, 1.9084275388946035, 0.11784205831517032, 0.08056558259856832, -1.6213182015578416, -1.9684132835346926, -2.979953119233553, 0.7365286924739263, 1.2561154539779813, 0.8441352281472407, -0.8141447957435956, -0.8447833170031446, 1.1877431477677094, 0.5611192582602925, -1.4987864157761566, 0.4470488556187909, -1.6376061557630834, 0.4361247004074624, 1.0648637828104244, 0.4028752442826305, 1.291166816807541, 1.36155385823465, -0.24254547427509962, 0.7362769650053819, -1.043196764025997, 0.7513103508825472, -0.4577283095664816, -0.1836134172921048, 0.8405459159190969, -0.3655760940815508, 1.4279403504399084, 0.08014676544713378, 0.9862974849043307, -0.3559588611696311, -0.5602683541357042, 0.41290175210250585, -0.6376992947758503, 1.7755974450904923, 0.740241882389068, -0.018778875158743834, -0.5582330258669739, 0.10191191579317387, -2.591315020903858, -0.48973622077238127, -0.21932152728764304, 0.6361107910267478, -0.10498717892282018, -0.19422765193640795, -0.9870936476533794, -0.6078745048990084, 0.13151602248652527, 0.25134063638622567, 0.784695181044031, 0.7171297240331069, 0.27300839734087373, 0.193461363646435, 1.4320614365254434, 0.3875094471476527, -0.6387020346334183, -2.2690317991010076, 1.5293622610496014, 0.19236353154563543, -1.3929955134497554, 0.0004902287924868045, -1.170952896931193, 0.20022491856894784, 2.014648606930862, -0.5855759190298424, -1.393221933434063, -0.6257982937740957, 0.7744043195627246, -0.007695620634801825, -0.28511805221877556, -1.0190845993721076, 0.15364721967539294, 1.4396773807447347, 0.47469251279086194, 1.2013993041782052, -0.47485042581716636, -1.227457635443953, -0.3966651432732333, -3.0728953803402725, -1.0896496032385883, 0.3236853741988043, 1.3582411257745666, -0.1264310933423195, 0.09987329223170559, 0.5627622306898314, 1.4343813661084253, 0.7762893903266641, -0.1741395645099487, -1.1719215558726523, -0.10822925393259379, 1.259584557644573, 0.9441724725755166, 0.2596695767552469, -1.7821527058748923, 0.059392795799562303, 2.143405472336815, 1.1196416684791881, 0.4596176819467534, 1.2750970373788033, -0.5637077186961112, -0.241571914453533, -0.9942424112187886, 1.0906560779337282, 1.853605881894459, -0.2050082681827686, 1.0135913102536924, 1.9898224306408343, -0.42822741348178867, 0.059448758845783954, 0.1509829363939412, 0.3206880714889661, 2.034716577004274, 1.560854670212936, 0.9163869104393881, -0.8495252597370982, -0.9556401264038875, 0.44783275290954155, -0.1531300299721494, 0.6866535581631399, 0.4968419030827608, 1.7461943515180427, -1.6122007074204545, 0.10347248748429877, -1.0182516755395379, -0.6923525197621847, -1.4091842659696665, -1.882386755627962, 1.9469031102573227, 0.9146713251381975, -0.2945799566762745, -0.7995327467793689, 0.2983720166012229, 1.1436417858135162, -0.03959861786549521, 0.9228321680128002, 1.2649570271607984, 1.9643909578493963, 0.08929740865958825, -0.09540325575017707, 1.2058581599665112, -0.2978603168133737, -0.05933173484671846, 0.5904680718244788, -1.1148978083946546, -0.9371772401216647, 1.2617297946487407, -0.7716073595349139, 0.4727281806074955, -1.2971377619059892, 0.6804867191749258, -0.49542762059851425, 1.4032402650681224, 0.6510150455500766, 0.37829238852788727, -1.1044333577146361, 0.5306807798004141, -2.1460372458905113, 0.5473990621027846, -0.48781383483839946, 0.7572440323997065, 2.705039883455909, -0.3825611832910136, 0.9896064594732721, 0.651546215948399, 0.25184601717718813, 0.7857566823108943, 0.22994646090965426, -0.1529895779582123, 0.03292612047579191, -1.5666269111228135, -0.8472359768934455, 1.0399427342372474, -0.6562636429811339, 0.26298078497778926, 0.21817010889246113, -0.901633743711264, -1.5850671741123212, 0.16675811832787624, -0.6219423811538627, 0.3993787000822253, -0.45436249644709237, 0.17229198635809298, -0.608520549425767, 0.7151450852082656, -0.8324486066032677, 0.18272893876249066, 0.2606578814535751, 0.6133903889235515, -0.4041802579167323, 1.132249400484249, 0.9895288588315657, -0.29610656629712057, -1.6152759501196443, -0.08268337562994521, 3.128282752101356, -0.14522409780358886, -1.1925642127048686, -0.14700750093524204, -0.8080796823584288, 0.17638999873800956, 1.5122896570484625, -0.1349491957176436, -0.8414800937299693, 0.5918250253336711, 0.386853792643529, 1.5313932185474028, -0.3515692754795628, -1.1723968171627495, -0.5767363990270683, -0.8937974844130742, 0.7669718661055936, 1.435502865312976, 1.005949424620784, 0.7075133739714817, 0.3110107505023223, 0.22058096437559557, -1.7326481108651361, 0.23422852536165306, 0.23806815344936827, 0.5370081729928627, -1.9376271068656623, -0.5768197919161507, -0.3402724242256228, 0.02151306923032286, -0.5200987948305583, 0.21180998283478952, -0.19743642117103175, 1.2270716263393737, -1.5883388307639128, -0.8867544643797849, -0.1435958191891618, -0.46591160984627883, 0.6164356268556712, 0.7085821899157351, -0.3989840629356058, -0.8971586752927617, 0.7447008795668197, -2.1096030133380514, 0.24592615919598332, 1.3777923938236438, 0.2509482186081473, -0.9307481744327233, 0.21946408778659976, -0.31475246277965074, 1.136140492931576, -1.2869153109410658, -0.15988785089006427, -0.2333065760766818, -0.49216343507052235, 0.05533121293000603, -0.4811974697168569, 0.21120618301327784], [-1.0032256932894816, 0.5086770926588841, 0.6976272162646294, 0.5586614937854036, 0.553845998977137, 0.6219842330074592, 0.7765313101963104, -1.3325680905646853, -0.6108719312275078, -0.7223588409134363, -1.1027417026234718, -0.5850867231521862, -1.7463827176010347, -1.2856245479705806, 1.5672506559508534, 1.8581085088997906, -0.6347970924743596, 1.7378736605038632, 0.7081750490021648, 0.35462248838340577, -0.008521509143696367, 0.6307242780567117, -1.4350554819511567, -0.5896121764041826, 0.07459883120176986, 1.725730856793307, 1.3612451163334065, 1.7779235060245064, -1.1582237239302087, 0.40759563930953246, 0.9917736480165559, -0.3155502444851591, 0.4012512052576595, -1.2581692828207172, -0.4396806160378764, -1.1162904998387464, 0.2713620330340706, 0.5282692635355316, 0.18653583677963065, 0.42863175445174545, -0.3470420856250482, -1.7510795806699793, -0.43425128554745895, -0.9176446961801661, 0.40624885468239125, 0.5863679646487404, 0.2668318226029467, -1.426618150986223, 0.5741256573711219, -0.8926654548070397, -0.5551828993545528, -0.27179694857438086, -2.233554546917948, 1.0505735606580642, -0.945559368724109, 0.2453791106544331, 0.14276024923953512, -1.0030475672430226, -1.1377250631079914, -0.42180782824169716, -0.144009201989407, 0.20644903312757673, 0.2201516234908635, -0.37389267370977897, 0.9869392467221719, -0.5165514315669953, 0.1312037579518299, 0.7982870745459706, -0.22179186217885621, 1.4171008891360497, -0.7345264531608283, -0.2330781018470329, 1.362343846511954, -0.40220168447395915, -2.126553521670342, -0.41385443459273175, 0.28770785302880686, 0.31299702202489216, -1.4310440365268338, -0.21329383293646464, 0.6175267410055221, -0.6665338204406147, -1.1725876432003348, 0.21117183763603, -0.44851438690569484, -0.6441576774819069, -0.341316468153902, 0.1373840698467857, -1.3845118062005284, 0.16013582041798397, -0.259920018444319, 1.6069498286564257, 0.2711932459993852, -0.04192683882276761, 0.8085828103038656, 0.45287104227807073, 0.6062750700243448, -2.161399439799816, -0.3473777552340566, 0.21595653323180566, 1.6577893997230098, 1.678553851412452, -0.2525297309468842, 1.232293935004652, 1.026970691762773, -1.5865619506423327, -1.0223239730941511, 1.0691818256845451, -1.1714872552809383, 1.1102169508697628, 0.005956702213099308, 1.5128986140219538, -0.9468920431197957, 1.320468886540182, -0.5667967394420581, -1.6340835225529056, -1.231530742963667, -2.048934559377759, -0.7715319626490609, 0.06676200336194563, 0.5744316843556158, -0.25833485143476975, -0.41904998943282984, 0.7675173593041045, 1.7691433680720106, -0.07903875794541257, -2.3129671740904536, -0.6850030440328597, 1.3392203228650699, 0.3414326515968787, -0.7335383983176189, 0.058684530259737515, 0.7013201556334968, 0.12136814153707366, 0.5671361131047215, 0.060326517879664344, -0.17096593257899295, 0.9427084312760509, -1.2592014286930675, -1.7283860641493132, -0.8239662736688309, 0.18445724100764496, 0.5548849981508382, 0.5588336186719143, -0.08086804934984733, 0.7372830313346934, 1.007503104054179, 0.3475370222593787, 0.49615037435162923, -0.2198099423487074, -0.959782912721348, -0.6868928596182683, 1.481704682741276, 0.8910686225130164, -1.9030305093664202, 0.8736980499854199, -0.7777826387781975, 0.06613923979299968, 0.43565916881858974, 1.7054942882956718, 0.4776541248733227, 1.2029911463170055, -2.5038708627090585, 0.9126713598025601, -0.34766950299178084, -0.2180876284975268, 0.8464741624016662, -0.5105404601833144, -0.5408689415580603, -0.3362117266535698, 0.4691254724079039, 0.7099592965468761, -1.7295160726662127, 0.3431274770553168, -0.8178063306543916, -1.3987642959347355, 0.39786764461827806, -2.4836622641438257, 1.1427239648234346, -0.30568142112343627, 1.1030137910067934, 1.5233675860644966, -0.39772334882603416, -0.9430212039450535, 1.141954885845556, -0.18737596966572717, 0.6921342379141501, -2.4172437700872256, -1.1990141134544186, -0.37858993015663545, -0.06287294911260267, 0.42596992118574994, 1.7271841360918072, -0.30286451446026863, -2.2783806340468833, -1.2735954034052062, 0.423388486852115, 0.8009847646459736, 0.8933835247858881, -0.430996527036034, 1.2371184772043762, 0.8385081405655658, -0.2257421599364798, -1.3128748300714512, 0.3318598936544659, -1.4773535170713845, 0.49577909815444704, -0.4762926819335538, 1.333416369211549, -1.3724527618781295, 1.6876448477652999, -2.2412999749356017, 1.024023734769425, 1.8781426698077464, -0.4578417894111024, 0.5802165437050233, 0.34640766208733165, -1.514414922900732, 0.9851339024030549, -0.7527962726081595, -1.2558636710502444, 0.8858590625316703, -1.9305229532274781, -0.526301931863767, -0.21610416443778163, -0.606186888464369, 0.29716644567033895, 0.6191898552258602, -0.2262931362301655, -0.33897281191552736, 1.0463475990283604, 0.5381908226004122, 0.8863141650529669, 0.3333762827264875, -1.7488941753078724, 1.0516946088464472, 0.665257146143707, -0.20323715571524975, -0.26548758794861715, 0.46425654305218406, 0.8088933050540111, 1.8220757131782606, -1.1047535977067622, -0.5231713759148184, 2.1123082859277607, 0.6485952401983399, -0.5157747964402465, 1.1226312682339576, -0.6623854910584965, -0.36775562400144235, -2.432209019937555, -1.2388756952393094, -0.5732051441774254, -0.9954261227186849, -1.3249384961711554, -0.3667572708199151, -0.3359910609466234, -1.4420905103008896, -1.0971927042081775, -1.1274510930799262, 0.42206492507018767, 1.0008454340323232, 0.16162913013045396, -0.44882239086038406, 0.2345069572836256, 0.34936882780021955, 1.2839673539710372, 0.5592258085318405, -0.3144816348781198, 1.5706941242806682, -1.8744851681886512, -1.0908908750337265, 1.534372384529748, -0.30941446764879177, -0.14360012479029777, -0.9139833551834531, 1.614897318289773, 0.671377521594807, -0.37292339252426937, -0.28411640168899627, 0.712681188359363, 1.202606018268606, -0.6902873698317818, -0.8182278412782351, -0.7581583663890132, 2.3787960208633545, 0.47168303286509283, 0.775134783880278, 0.13767271041170007, -1.283272655855847, -0.7045149477125183, 1.371373465142169, 0.9137056157061799, 0.8428786647212865, -1.6738711220265952, -1.3172795398826225, 0.5122957758646228, 2.0831419627400143, 0.3308509214591221, 0.6428510669184704, -1.4191778845305396, -0.7553641813931571, -0.5823784235412715, -1.0044887444233015, -0.36213654899144, -0.4579188015447897, -0.0941858650101236, 1.5061999571544225, 0.18000720205815768, -2.0360071776598283, 0.8397909308748657, -0.17192187582168805, 1.3339839694866173, -0.17571113712144792, -1.0761232090249409, -0.6983847225620684, -1.9498783728858666, 1.3354261905737181, -0.6203962099472041, -0.6971277416928225, -1.332947017336547, 0.25107725239331147, -0.25300873709692634, 0.7852354209640334, -0.618771536721856, 1.130544687066386, -0.7112573529489737, 1.4104876215710922, -0.577010316098262, 0.15337857106579142, -0.17159385126459215, 0.3661220403527236, -0.45185429698138757, -0.9848698185585982, -0.48497041690453413, -1.082514129312023, 0.4975052759470856, -1.764521038868473, 0.20609732732896419, 0.7124138174570532, -0.6187853180491667, 0.8430966477951222, -0.9995676420702267, -1.4421090893590625, -1.4264290572463103, -1.393522901265181, -1.026416614713248, 0.8779092734957405, 1.6606616129595813, -1.5888690870641438, 1.1160792038607519, -1.5005189448279541, 0.4758276543783095, -1.9683132284562, -1.509999829582207, -0.9350996547245449, 1.567018135631609, -1.1187626612818382, -1.0595314883119313, -0.7396498679557099, 1.7808223143710824, -0.0326744918540487, 0.09999299807950382, -0.2929106831895476, -0.4015829169882399, -0.2633823314124532, 1.5328903435789698, 0.7047728024621557, 0.6668379374118932, 0.4844767731364124, 1.2303248139997804, 0.21202663099036537, -0.1810917819006269, -0.6028821941532442, -1.2595907800996569, 0.024434744541490278, -0.6061141934188762, 0.33166412886804036, 1.7326833300927138, 2.4749471917272983, -1.2857880344681278, 1.3216495012300022, 0.9077542000559954, -0.14313982507014397, -0.5489792967377676, -1.6570758197818345, 0.14012688173691204, -0.5750137962254878, -0.020246451038530858, -1.8742599140895206, 0.5250117182129337, 0.06497681324528821, -0.3521515856804584, -1.450387222234758, -0.5392721955912367, -0.5878664516486979, 1.628526203859313, 0.17932984628621448, -0.14804635966355695, -1.672506078655573, -1.135293785558268, -0.9859355032821459, 0.564052189737119, -1.5104497244962591, -1.0494858154145252, 0.27440449554521495, -1.5556907649074212, -1.1133172304926118, 1.114433597083341, 1.1072125187396038, 2.122102687508642, 0.21997453855554358, 1.8241663583285086, -0.9089039610440902, 0.29139219591455157, 0.08386371371202311, -1.8232134371860242, -0.48277775847196613, -0.042598227917559905, 0.8018964022863337, 0.22233314329124163, -0.6886451007990768, -0.8481315688017272, -0.3375708265071585, 0.31144490743412384, -0.028960612696732196, -0.9218774497886788, -1.18057007003603, 0.14824780934691664, 1.133296006790202, 0.5996916778492811, -0.7841063711644747, -0.5583143144492744, -0.6354170677413792, 0.7943059495049704, 1.1205409043679637, -0.5201974906803425, -0.443859448122108, 0.636585305509772, 1.302849179705306, 1.5664749702858531, 0.5396463279009781, -0.028761928913782295, 1.1631655145104693, -0.6221429600343075, -2.030115593252295, 1.4749324506355548, -0.16241644360876079, -1.873898340525847, -1.1222514531582255, 3.6167130237969607, -0.22778792650617638, 2.0258409812962404, 0.6284507789810388, -0.67270752215305, 0.540635074773293, -0.46903081628924503, -0.2627406613558866, 0.2982596291392576, -0.19050152698299208, 1.4963708978917503, 1.46613989012281, -0.13078895793450201, 2.7116377747661917, -0.6653144269134765, -0.2551268111108927, 1.8190677206767176, 1.3405651311780382, 0.6185963062223657, 0.09081938732664932, 1.6179039325508529, -0.532989657621005, -0.25270151688984094, 2.0092174794896005, 1.3456096716324544, -0.40727355836284046, -0.9102096164761404, -1.02708002366614, 0.7511437900553641, -0.6277404445888454, -0.8015720009519923, -1.4438931125774597, 1.0546079744228207, 0.46101080645066905, -0.00956582307769656, 0.38171384130045977, 1.0616772514974295, 0.29376511500556984, 0.5743776037945635, 0.5939483949022082, -0.7466323413753394, 1.5779669177564881, 1.3630387342611288, -1.0459200551255543, -1.3550406527745533, -2.657457588269547, 0.5871868600021509, 1.5098040424696177, 0.7880151366087067, -0.5602748592530982, -0.701158078853985, -1.6064568161436272, -1.0591667374324172, 0.033365594097594965, 2.018195553773267, -0.49299952780405315, -0.38836390814212063, -1.1819322897129696, 1.0551253073584508, -0.5847655807129473, -0.2909248023030769, 0.8312709433048667, -0.4854312004051451, -0.7943923743524114, 0.6277885999313049, -0.6286080521036144, 0.6788549456535952, 0.5802794831239273, -0.9595952738260993, 1.5611370261658142, 0.48506397253285444, -0.7743731883108909, -0.39400105234474575, -0.4029619276103098, 0.5524525059650002, 0.33797291812785046, 1.9925973845879414, 1.032891287968743, 0.037750585872486794, 0.41295154242503906, -1.3944824681325856, 0.045090878968281844, -2.019568176092771, 1.0134535661575712, -0.3642864182306003, -0.6279257715681582, 0.6598767664656441, -0.8103188226247321, -0.39155528108612975, 0.77176549560323, 0.2151268243642963, 1.3329905883168667, 0.36073017337511376, 0.9895418435117729, -0.672770619457038, 0.6742354305743956, 0.45848008941391566, -0.518250161701006, -0.3868221950333854, 0.020542499073371103, -1.250855938454649, 0.4126671722209105, -0.028116048383193423, -0.4071953681750221, -1.564650549808886, -0.952935738753552, 0.418036769767761, 0.65288873265966, -0.38277226802732606, -1.470777377752206, 0.3972805237944963, 0.8158963756818629, 0.56342302205933, -0.6701024691520571, -0.1460688552255295, -1.206345636362851, -1.0250428793531303, 0.7740786542461856, 1.3450956565406011, -1.54614842600907, 0.31535751824441516, -0.24639549466408991, 0.576130758697939, 0.35153390982337623, -1.3559713248080927, -0.35041752493014305, 0.132697117936822, -1.7495695194473277, -0.02601374896255591, 1.0650784080015894, -0.9472204316088267, 1.1909708730489073, -0.22877964071000237, 0.28234521350970476, 0.9907474991513564, 0.08366762300824182, 0.5314359556810767, -2.596032576079789, 0.09824106626045355, -1.1661452259267808, 0.3645075124748429, -2.609504387373722, 0.7017032748273474, -0.5872091823778963, -2.1137733125989038, 0.8854013385626114, -1.337556186573806, 0.8667306477603517, 1.2152858262225192, -1.2484202092495922, 0.5289429191643858, -1.0316917461614752, -1.4342077153963375, -0.21856259543348577, -0.3258048542864856, -0.22178015860466435, 0.07650491592424916, -0.2751859212374907, -0.9251424656226858, -0.22263447871008024, 0.7463378184376434, 0.5163986518575121, 0.012658663861901136, 1.2061815032921188, 1.1669952259699499, -0.7540932140989383, -1.4033376969470432, -0.5277217661027774, 0.9257276371482097, -0.21513230243638168, -0.37162742538032656, 1.6369586576604114, -0.34613252365451586, 0.0044998874060134305, -1.5895141443082401, 0.39694058838659607, -0.7694766028681599, -0.2704667527586122, -0.6702511035055186, -0.40964922917505925, 0.1879651916707203, -0.09049375586288223, -0.481960743841566, -2.51332232119508, 0.5881861879499842, 0.3635588110208492, 1.1856619285995105, -1.1008888054664205, 0.39090672555857314, -0.34192516672341816, 0.16619121889485786, -1.7205015359120133, -0.2595163563464197, -0.8726585601428124, 1.7173489692448745, 1.023127905842129, 0.879184702322024, 0.8751013484719953, 1.3295154302266206, -1.2934598867310818, 0.4977671440712449, -0.3441301243018879, -0.6639563680479802, 0.08412942064632489, -2.0132657566754895, -2.486977823873315, 1.6847823706979672, 0.6051731844423442, -0.5908746043369958, -0.504042290073984, 1.5798065789218407, -1.5050909056268276, 0.489766175845909, -0.9579032429323501, -0.3772712525505735, -0.20865230559471418, -0.2729884437318594, 1.2092391182738589, -0.09139609574486664, -0.9242614564447167, -1.078552718562507, -0.8858262451383182, -0.7013669841280137, -0.16004860662177717, 0.30725243149661746, 0.959128916944849, 0.8688875438179293, 0.7181364222927729, 0.4945527173794887, -0.06598939677269117, -1.1513767761297973, 0.6284261858472046, 0.11089401641439635, -0.3944024157194089, -1.9676171979818156, -0.988950008127666, 0.9635978390606666, 1.6883000047154404, -0.6111019181172999, -0.10127419414922235, 1.1375276152565936, -0.8944841820207811, 0.4506259910756982, 1.280852345954636, -0.6974466802026613, 0.7671874859096434, -0.6285435955391249, -0.3042919903255053, 0.2981782449101014, -0.6845079164865029, -0.04960799774853123, -2.217213776771724, 0.4881665922990914, -1.7028663216152173, 0.07038304479820551, 0.5360785451727593, -0.651271165952905, -0.6034676213903555, 0.45899844626807634, 0.10813585960454807, 1.7532473893779101, -0.4735019598225606, 0.7103593968998024, 0.8096523409835938, -0.3334444472133643, 0.6815499816396157, -1.0788720999928159, 2.0047535522600803, 0.26406763046971204, -0.0529191808711631, 0.9630037171066699, -0.8631691566125113, 0.7987596098041011, -0.396657891058374, 0.19462819742692208, -0.12047891527306505, 0.9589491160648811, -0.26352367810199756, 1.0365343726560834, -0.5955256286654489, -0.40138027282854144, -0.5047675395269107, 0.5292223879441319, 0.3508588031598436, 1.995767211529821, -1.4163327005435011, 0.9708514016194639, 0.3345095350752188, 0.8282327751982503, 0.12077357291717798, 0.6284360838686546, 0.05453181321862273, 0.50112383767587, 0.3599875989368193, 1.5094052425992732, 1.5128766166020122, 0.11969853807284433, -1.084607236948226, 0.7344230446182659, 1.7442124602268207, -0.3853622648286382, 1.0142886646363605, -1.9350341079248836, 1.1705058800116512, 1.6391470930364433, -0.5376354781295206, 0.08491819856040557, -0.32295734227304834, 0.5097472579780085, 1.437618276501045, -0.30693961199671765, -0.396069101594444, -1.3925913619900248, 0.29070215731857707, 0.5296290483950008, 2.6932512742995494, 1.2343074313620128, 1.0708933237053622, -0.41928412266647874, -1.5278177942040265, -2.4210478350923377, 0.696911750763915, -0.9219005469582566, 1.6473265030066857, -0.5422911538404803, 0.551474342130088, 0.1441255256013844, 0.7245093611575038, 0.7641336070722939, 0.3390483599843993, -1.1329261572133298, 0.13016512135135955, 1.0230868151495667, 0.4252306865743074], [0.7911161941547528, 0.2761386863424051, -1.9267154129999622, -0.623405478613587, -0.12025275407282907, 0.025644023481994953, -0.4641380015956307, -0.27286320418168547, -0.276396101259458, -1.2107647226324616, 0.9282974050755396, 0.4713623527490782, -0.11277269235513153, -0.9913808315744603, 0.8323349427232869, 0.594897159494707, 1.3161547222363903, -1.1318324031932507, 0.9452483286820903, -0.020823040457367156, 0.3079595454967981, 0.9603391278985445, 0.0014049964347921046, -1.4894386720744137, 2.595712448535939, 1.986518808130072, 0.7543336144540203, 0.4570389372943078, -0.073656496223584, 0.3264098254269081, 0.8720644268003973, -0.8490096350469178, -1.0975436109707257, -0.6288998954963534, -2.123727535363756, -1.1389395200050643, -0.31268212681387736, -1.0997706322237384, -0.6143045597577106, -1.6669329423015775, -2.1294372140450895, 0.7549854274004308, -0.35290121698716653, -0.8255560996154236, 1.1338155996674604, 0.2640537224148136, -0.163218708042139, -1.2829664254349447, 0.928185741949462, -0.10747718736069331, 0.30296689152440753, 1.4847388476784193, -1.992151575407711, 0.16280583788090427, -1.0399246846626622, -1.9775957698893931, -2.152032010722413, 1.488398046128995, -1.0645708151882853, 1.3618179289671741, 1.1474923701240858, 0.8485774423119675, -0.9815863215168155, 0.3196728054718922, 0.03437871994685158, 1.6049651001794498, 0.9844597931667088, 1.254615697264279, -0.31024492955482424, -0.07090003019623563, -0.6338005946058929, 0.5665019368006717, -0.8317037268270693, -0.4107909089871612, -0.35395193215716386, 0.1467010686660375, 0.7103693259007063, 0.5054717943565858, -1.4066320768151512, 0.8584747655593085, 0.446360279156846, 0.7927232295120805, 2.631540537387836, -0.9671378010848912, 0.6424073623903845, 1.0092767353291545, -0.44455691445358897, -1.1759233168243612, -1.3564178862053573, -0.7245709351165845, -0.24471201381935498, 0.05978135570781841, -0.2113474264337673, -1.4428440129247793, -0.449193746006415, -1.5531241615706888, -1.3948060291384798, -0.07908536336536076, -0.9692520090263732, 0.29957884917772865, 1.4621429196532816, -1.7285433432291184, -0.742915252931788, 0.17744727151585568, 0.5536051849452518, -0.5103294960752989, -0.8576130333352208, 1.584397583961394, 1.4951510983608878, 1.087464224736146, 0.5455244188096026, -1.72842838913244, -0.5433572239948097, 0.5939119136424589, 0.17078828982365374, -1.66546420432234, -0.8751414243988185, 0.521162257104979, 0.14119436693970394, 0.16170885270150592, -0.8605638694293075, -1.0122622797386862, -1.1002266157787024, -1.504893169344512, -0.9864365926938548, 0.10510660658384197, 0.850229200070834, -1.6355629350917134, -0.1459224399662282, -0.9745494545475932, 1.2898511684338745, -0.3699274924951616, 1.0279148591695781, -1.5904562269089049, 1.064642039907509, -1.930945526703854, -0.10452236832346665, 0.00868783842498119, 0.2839395932124123, -2.0369285126027092, -0.5846130584040653, 0.42949151819993553, -0.1591123025630522, -0.7527040092209815, 1.1206827361446068, -0.840932252612013, -1.292073997430232, 0.5381415362263198, 0.29524159491836244, -0.8158181537230734, 0.20369836729413243, -1.1077054164309148, 0.07879014480660275, 0.13564646591966975, 0.22556228524014055, -0.26444029422888304, -1.4313271420790468, -0.7240828305099976, 0.9434854985741815, 0.3543311437879094, 0.714299260361704, 1.168998661193391, -0.8144546398711523, 0.81392283980179, -0.03603619069142177, 0.15496130722312634, -0.19340567059262317, 0.14117379521662055, -0.18651641617920806, -0.26954580673160333, 0.48149452107717483, 2.282516328582421, -2.2098613530606865, 0.07084129255349288, 0.524269298230341, 0.6813253360605361, 0.14878452146237478, 1.6446858616705802, 0.8288276018609433, 0.5466056452026932, -1.4163216519455257, -0.31289810490277065, 0.5292547165916766, 0.13376052880642, -1.218133060602271, 0.42127581419182664, -0.8903549220760224, 2.219649898103286, -0.24632064396832168, -0.12959079797136205, -0.6363965430748966, 0.23798493640601778, 0.977573142333282, 0.9875991942001906, -0.6340982048289766, 0.4769519185625943, 1.7051541589844121, 1.6519321926863861, -0.882133384061223, -1.2953490748016956, 0.4202177941658187, 0.05253068846541265, 0.8154348918013224, 1.6139103040739768, 0.8807181351611637, 0.5449688003844098, 0.2823924358145249, 0.35543865162539584, -1.2856476160683137, -0.07818811772026756, 1.2959887141883855, -0.36780197849639684, 0.19980724456145327, 0.6381448073728562, -0.4235082039272319, 0.8813747267926, -2.582410860020126, -0.946900889898475, -0.2920237078889756, 0.21527714236494072, -0.9098039255794484, 0.626052430716647, -0.4198854806009924, -0.853528723669902, 1.1527681968670893, -1.6170666561102183, 2.362085662020339, 0.06713607769477571, -0.13655717131495032, -0.75055491311514, -0.3290413053983913, -0.6606738884051019, -0.34517555992082277, 1.620408330086122, -0.21104031975344187, 0.926840905738105, -1.254253189817846, 0.420066004566061, -0.9409751864398563, -1.3965687811611476, 0.28660973960334923, 0.40000609292409894, 1.1456327439788556, 3.10082397375671, -0.29381019379318696, -1.9716842208287129, -0.8325307957254147, -0.09326338214536496, 0.007194394348421978, 1.0301776267815899, -0.49222838428721916, -1.778566047937859, -0.5332931387818801, -0.6226416146879632, 0.7249554789489641, -0.40964056469786014, 0.993933507382866, 1.344249068041793, -0.5780108603915977, 0.31746545023991435, 0.4419431703479637, 0.7529947181065011, -1.1131487611972934, 0.371812002114481, -0.6585111862351589, 1.1914544748034792, -0.43511718166913793, -0.30754636051873985, 0.753102584630557, 0.6681796353187665, -1.4543616615908803, 0.017314069009026094, 0.7851055068723948, -0.6540977503558886, -0.30376494357604417, -1.09231187562211, -0.3182786550118295, 0.003781335430762937, 0.5495884196677921, -0.06708580776390072, 0.22854353840910765, 1.2713127779289768, 2.57656827817427, 0.43950943348455657, -0.20527489332516327, 0.9699079159411478, 0.5578477173896854, 0.42665914182221343, 0.7132916289774468, -0.6173471179699741, 0.05285563731987832, -0.024144685970102244, -0.6869012069274597, 1.5518010129282154, -0.3397007908972218, -0.035017344779998565, -1.124664459022297, 0.8832026031758236, 0.9215930733863086, -2.073278992334192, -0.9702518096130686, 2.4353543737141754, -0.3721523000291244, -0.024824622510020985, -1.145251101657612, -0.8597739547078794, 0.2171025098435327, -0.7382622699208352, 0.39006542934375155, 0.21739679687368715, 0.0466242521865069, 0.26812393930166534, 0.25043785035946703, -0.609171558047097, 0.02134853038486662, -0.21851555544306456, -1.7502795967650138, 0.5487252749364128, 0.2968366936083605, 0.2943504862682385, -0.7488211911408894, 0.3667569208357835, 0.7432677203593548, -1.2688774427529417, 0.8882312229025757, -0.3283103891426824, -0.33685869524754547, 0.24813505158953184, -1.0373450012231489, 0.4803940794159973, -0.36869689905145137, 1.9958084789007242, -0.43584986403385007, 0.623507678492789, -0.24378259280995992, 1.092704201083339, -0.9888773033041114, 1.0087438176467798, 0.1520766995685237, 0.6671387417371489, 1.9681470800238494, 0.6181025142155351, -1.0332730532449554, -0.3673718751472149, 1.2891820268809335, 0.9379448075664905, -0.45420712543686076, -0.9482123353164419, 1.361039447040287, -1.0670177489232635, 1.413280886031404, 1.0877313308181318, 1.7455124650219984, -0.9718986963872842, 1.4698657464265508, -0.12734810947293715, 0.18235316285912428, -0.057081507078881474, 0.586949541732066, 0.7105949048543022, -1.3586501216601783, -0.4286718164144279, -1.658952890078051, -0.17326548356647906, 1.6188626114306235, -0.6518023091160305, -0.409153369369162, 1.542718741330722, -0.40843179501285765, 0.15640303622098511, 0.7392375014691295, -0.3203879066557754, 0.06542415656431992, 0.11560073199332571, -1.111091167461051, 0.9562158764568423, -0.33372774616924494, -0.02036506298722351, 0.09555842442264835, 1.6317644131827593, 1.440200662671634, 0.39055524659785584, -1.1502709192855045, 0.20857921395562307, -0.5645119676301815, 0.04156918744732662, -0.6594191495872492, -0.33739015778370335, -1.2039892282596407, -0.45122678275916206, -0.23283213563312885, -2.0081624108475853, -1.304575870304694, 1.0629287410637278, -0.34614399037246596, -0.04525012190537133, -1.0024582425222561, -1.5128267816717609, 0.21180222816912764, 0.6212875615231621, -1.2243306165536292, 1.9687791690690846, 0.6677595790952684, 0.13715618043962247, -1.9637453615432108, 0.6998074099585248, -1.4574570019201802, 1.3034441423597805, -0.41545626477470604, 0.3935806720910222, 2.2914839909324036, 0.07767819266037483, 0.05862260943948234, -1.3874534827820635, -1.214562688939731, 1.3383919206497121, 0.46661039644082847, -0.36822366315792276, 0.602774916006312, 0.32902723190769906, -1.1976949743735796, -1.0823610156454528, -0.9207051861820517, 1.264428637634005, 0.6494881591329023, -0.06471651058760074, -1.3363875214041412, -1.1154568828199543, -0.061100234945545076, 0.7808052021437976, 0.009747022629493984, -0.5454573497180948, -0.8514152538386411, 1.3224821995761595, 0.08510345398268016, -0.0726375960541483, 1.5217851736740962, -1.175215141740172, 0.6586812075873731, 0.07195268694186847, -0.12500184663580677, 0.8260143022778985, -1.8912111450521192, 0.9539631178443467, 0.486080054378876, 0.6648522618805683, -0.6468217332064042, -2.0853011985112375, 0.2409102684754203, 0.09104352124336856, 0.6357866960647421, -0.893674755628442, -1.189115634328084, 0.0401728332074031, -0.1417390947964576, 1.3924649954889818, -2.2119460499232217, -1.162259792132993, 0.45884757221840355, 1.219523113126353, 0.47055792400539237, 0.7437375378836018, -1.99874985375302, -0.5452138064767058, -0.7510793224114919, 0.09922408021756765, 0.8651214487230715, 0.0843539535711226, -0.22772420006012958, -2.173362215008767, 1.122863539229377, -0.5365672163643753, -1.3820735410494969, -0.20357002681857636, -0.5281487406850944, 0.029056718369277697, -0.8202550762751804, -1.021181132574144, -0.108099709470334, 0.48195602062965215, -0.3058888971206086, -1.1861861633102162, -0.961629035839586, -1.569389523168331, -0.035042691721862196, -0.027837534570548488, -1.554490235614567, -0.10270139375388206, 0.30607210885882824, -0.7186563969429899, 1.0412600080996297, -0.24014024401774442, 0.10565327929276369, -0.8759736734289698, -0.5980911473010089, -0.5696193785096793, 1.0802555821784277, -1.3619134618253517, 0.5224354127901311, 0.30461009325742716, 0.3197872365096236, 1.066684434715272, -0.4476417654913853, -1.7573173198940855, -0.42052713887665616, -2.3694939951818665, -0.0675122209779509, -0.8207714020380488, 1.0479014359417314, -0.2727484770687786, 0.738881390737462, -1.3366176850346734, -0.32424042743894327, -0.12932200976521163, 0.28747040677389946, 1.736082669201939, 1.298833533647133, -0.792812049937459, 0.7969165308429398, -0.5804023053555166, -1.3394905487560194, 1.1077269835354342, 0.20968221213142396, -1.3877901798053014, -1.2089073925025653, 2.2589903465910397, -1.4446616641746954, 1.014583506410978, -0.5555835772767612, -0.5526261808639945, 0.5114879488255494, 1.28266099606161, -1.663733807038224, -1.2162914536142109, -0.666959869421917, 0.4006095170450749, -0.9812110881119418, -1.0902814139354715, -0.7175895391718002, 1.6946457328012, -0.9630514482382515, 0.6688917668959997, -0.751189247213944, 0.168136753613031, 0.9555789630938782, 0.594614405926783, 1.0902329025352058, -1.2209674607438994, -1.863891941491249, 0.4508285938252454, -0.55652769950283, -0.7552625246280974, 2.4616798089118728, -1.5945172892286745, -1.2058823361265907, 0.48873551934620374, -1.6951098544517071, 0.19538341210183743, -0.12835745631988463, 2.2456073818068316, -0.775950805180313, 1.1982003921004631, 0.021117529335902867, -1.0584741806779434, -0.5306814835288394, 0.5365048784493232, 0.0739117905310165, -1.3531187596009158, 1.3373688122447667, -0.04482118319354657, -0.3865095366000603, 0.20117014399019972, -0.21604232182880426, -1.9167683769144672, -1.9104293631509806, -1.6465126398518117, -1.5630443064858843, -0.09455317525077116, -0.23131352825009974, 0.23444194096941137, -0.4329234145376403, -0.9211390389253077, 0.4820924657214854, 1.3637810753324886, 0.15497546384565603, -1.6650012302380914, -1.209647731346594, 1.4654137137534606, -1.769211515782367, -0.5944510043627209, -1.039783889738886, -0.02435266373480528, -0.8361734797882902, -1.2087842369501742, -0.07053033426609313, -0.3520419232343973, 0.927579186666511, 0.45423126311408346, 1.0991876505546005, 0.05571084642275752, 0.980085075342532, -1.271623323639204, -0.0017938166358035647, 0.4063582953216025, 0.4997449676314465, -1.2572626504402877, -1.0352596255140898, 0.11486141572189137, 1.2246967128757338, 0.5204062500375152, -0.8101007459260654, -0.5155176561870737, -0.44928306687044184, -1.1062967091901177, -1.1333426140665894, -0.6525874233261789, 0.2589744094408666, -2.0724940805050274, -1.8635767872421822, -0.17846561431728233, 0.4736573512599218, 0.8309123072083128, 0.6555077603500892, -0.9276760557438793, 0.7854742903614164, 0.0004350306407317215, -0.31641554561413815, 0.286115905505097, -0.14017263890530532, -1.1633714429070343, -0.8233086074219437, -0.3991924431637153, -0.5844133741848337, 1.2838623747357027, 0.5923452089492239, 0.11164139615210353, 0.5026182180323959, 0.5130586681995849, 0.2049051207144173, -0.35468335538143425, 0.8608757059337947, 0.5913636676114591, 0.4430167595380024, -1.6149505898307739, 1.0648537377593308, -0.2630755606421624, -3.0079192265025685, -0.6605418579802432, 0.7392459764114474, -0.24194164995921164, 0.2514854228739226, -0.5703374650784799, -0.9216847011261249, -0.4548224310642847, 0.10699092754018215, -0.3143946996130004, 0.05171824018216675, -0.1629381720543857, -0.342260779424314, -2.720839833154642, -0.14479446492712106, 0.49603570112748147, -0.33421020071303037, 0.23520101923109507, -0.4535442687417543, 0.7930949148417182, 1.1755711820907944, 1.809469198593669, -0.3361514093042007, -0.7477577643903948, 0.7854153998853435, 0.7506325557999033, -1.4210557093129248, 0.3985678565655959, 2.9565080969407935, 0.17836556089907, -1.1162536371399203, -1.2420708698775542, 0.5887782789530955, -0.590499359056408, -0.1395946563474325, 0.6036115437819359, 0.865218543772767, -1.0841560539919115, 0.8515787681623794, 0.7948510107873802, 0.47654165489209166, -0.7641479326433431, 0.7588824522232197, 0.2044497674208182, -0.46973710741328234, -0.22143233838838716, -1.912317446200187, 1.0719131393125676, -0.4647097339602637, 0.08957100276079122, 1.4967904502086504, -0.21431598941343713, -0.08954878912421381, -1.047745328791653, 0.5600437801423616, 0.08061634314040315, -1.0685227675976476, -1.0290144901675824, -0.3042343004415433, 0.46666057582353476, -0.28193643132809887, 0.5928441002288929, -0.8023650763483604, 0.38054697349037686, 0.514733915813978, -1.764958123083918, -1.0214712816498566, -0.6197684925767204, 0.9676305757036183, -0.027861330870976406, -0.6362694074956678, 1.4893693140401179, 0.09471476001884235, -1.0424230523577822, 0.6222649913478494, -0.7535870892072386, -2.193642542161154, -0.5038061010276882, -0.14510223589288646, -0.4009487278581506, 0.30475816600589756, 0.4689162133245557, -1.0092199334661955, 1.4430428606729573, -1.1343728548694216, 0.29352311088197575, -2.0175462974723497, 1.3053380592795234, 1.394118955999832, -0.892130568264083, -0.5549545934257472, -0.4199159044001425, -0.7840476900709864, 0.027616975496485004, -0.7315440683480978, 0.4362360667403985, 0.47808290035861184, -1.2685112987048937, -0.507190344335451, -0.950725621507748, 0.20533463751901102, 1.982205404756638, -1.068273180871692, 0.5091225828254293, -0.2655320168160502, -0.3098232638217202, -0.4554415222621689, 1.1880385578209438, 1.3804464878999452, -0.17729486106475792, -0.9770626063064302, 2.6755742130635887, 0.8031327181359725, -1.0707063151563652, 0.8812728487816309, -0.9816445938262927, 0.924163350997315, 0.7538127167464016, 0.6742376868345175, -0.1964352310702373, 0.04993617555833855, -1.2870988085464732, 0.49289114922817406, 0.4371016956952261, 1.42853647845946, 1.2514928061988, 1.0876835928334885, -1.4461610326304934, -0.14321176497755972, 0.366245896168087, 0.8392688822673512, -0.8206798059004834, 0.10818919548147998, 1.398594978389257, 0.2070269591320012, 0.5814832775168536, -1.4774826636889227, -0.5128370432339421], [-0.13122452001159085, 0.22663196597302046, 0.7085973176271425, 1.585808695187959, -0.9514085571458962, -1.619379154069356, -0.7036109803751142, -1.1177460312547893, 1.270829465969977, 0.45661073058925344, -0.7725463234730452, 0.789692120718692, -0.6434797200349819, -1.070189517469612, -0.533986321214733, -0.3955548969046051, -1.0193602649970714, -0.9061533127563957, 1.4749789424808468, 0.07421804516772092, -0.6999121865952296, 0.8516596212796173, -0.3982660321723379, -1.4357981261702308, 0.5688284994867917, -1.1097168263420767, 0.9002976773052336, 0.8299756973485818, 0.06125072761558642, 0.6693173199891828, -0.25894105491991865, -0.8854654902005741, -0.2628325010158319, 0.9431086532616655, 0.24509109650700517, 0.4925059370130417, 1.7655990195824325, 0.46324195357270154, -0.42720462942142406, 1.1804361259172695, -0.5300322859508931, 0.269630153128702, 1.3039063969057199, 0.07697712937949874, -0.13884178103217087, 1.0744171516137613, -0.9077130934069491, 1.363096007354218, 0.2018656265776048, -0.5648801623931536, 0.8108488826027798, 0.7489273906712965, 0.8795125046679523, 1.8441167277218924, -2.0842152388185635, 0.7937272816485281, -1.2042778176403135, 0.8540204219793962, -1.0582276711650844, 0.8426523472149549, 0.3693930902177688, 0.05089678787776621, -2.1995463224852663, -1.636636043912386, 1.325531020238128, -0.373132580629894, -1.0029531595756709, -0.6320384938441383, 0.8576048769578137, -0.581137401869326, 0.11247385972658737, 1.6787608173250272, -0.5200120133365418, -1.0550229937259485, -0.30129869220449695, 0.8748504980526982, -0.08541042221444, 0.7899751213136664, -0.39506462732827835, 0.6157610892090088, 2.287674537491103, 0.18652881199547053, -0.05075229819606825, -0.33548199159224296, 1.1168606779832337, -0.30133820161443403, -0.013447643116726063, -0.6772019876854127, -0.2539119469644659, -0.5382594713398684, 0.5087809206075307, 1.5221457502039528, -1.1598685350603515, 0.4946881652382371, -0.1798848880565353, 0.08663186945555956, 0.6842151607276031, -0.6422718500000231, -0.13773239617208738, 0.16159841109656023, -0.5944882421067577, 1.0742834316657601, 0.926528772776218, -0.6111825717380431, -0.10064719027743126, 0.5201130425050963, -0.11117699659647338, 0.2783532569760161, 0.5545334838987559, 1.7470537154488628, 1.3147589230827763, -0.48255331405801766, -1.0262351881781102, 0.30291507035618315, -2.004394340282746, -1.4267587691330863, -0.7050339307529874, -0.4766558342541735, 0.09279349022236759, 1.8877750073889514, 0.05289141889556036, -1.2715650079954282, -0.11387187443248736, 1.1965996541473023, -1.1827643915249912, -0.5918611111176606, -0.038427080653605554, 0.3120955097786202, -1.1407569815290857, 1.2272288533588507, -1.138336681757781, 0.23317129106699822, 2.515799008227648, -1.3193277477266374, 1.4155834436140717, 1.3086281098485513, 1.1366371926724899, 1.3364238516615028, -1.8268483305066732, -0.35245613722308344, -0.07706921572770797, 1.3060506028569372, 0.47585921895318356, -0.1117563766534428, -0.2980170191169571, -0.6491810342349131, 0.8539058222324006, -0.3066841971241683, -0.1621721886774896, 0.6034762071495543, -0.38817219429710437, -1.4225447898122683, -0.5475019435911065, -0.3193382760931336, 0.41623388545587653, -1.1704096059106073, -0.3034289453226592, 0.5229558050277511, -0.2221245414685238, 0.4347463628099524, 0.8135596025874087, 0.8260435148056466, -1.0871601874756553, 0.5467741258426068, 0.1631635402176244, -1.0000710043331207, 0.5152441683567666, 0.2073961908332561, -1.32111221219669, 0.4204867633197777, 0.8730467760055728, -0.4411989107099249, -0.670632307625419, -0.32989220068972097, -1.3016678491876845, -1.619877690073862, 0.03982828887032997, -0.6059808150581266, 0.26804945691309806, -0.08000242136737061, -0.6652308584471497, -1.1379390480550116, -0.2251771183099677, 0.9545914688852416, -0.27921637149199907, -0.014320551354249738, -0.4200845873587464, 1.7802116638461951, 0.5694223993107704, 1.1313123089889536, 0.026863667064848447, -0.44045278378484864, 1.342328172223269, 0.7378596817030515, -1.0016139372296347, -1.4915049123787263, 0.2996122693135424, 0.10055793578840255, -0.41627542714076166, 0.6422965539070525, -1.1671826600003448, -0.4402331126573744, 0.631297067823901, -0.10458387184907261, -0.5266844946711734, 0.04222287619220388, -0.6942645569966283, 0.661738816324106, 0.24799679017353674, -1.4053354478714715, 1.2610748854205336, 0.6714834456806247, -0.27989078483763746, -0.873808753527084, -0.13374729472801036, -0.2770603908190602, 0.6397864045282837, -0.3560334181016858, -0.723423212899756, -1.4806040371090479, -1.3031749439234772, 0.42302052141634505, 0.17769664398484816, -1.0031977739563016, 0.8130315683648789, -1.0092920559942982, -1.341166610605332, 0.21608100558756568, -0.3765979552381398, 0.15981283874866614, 0.03707083648556431, -0.5438258680101422, 0.6312411610288463, 0.7995248976574224, 1.1905866770170415, 1.309085546443645, 0.43251043830208574, -1.4671893609970994, -0.4192387413502031, -1.845994573179373, 1.6946454031476388, 1.305134308831535, -0.001250308335110056, -0.6579362959602802, 1.463379072215633, -0.21152662467428543, 1.3874680829077342, 0.357907352621167, 0.4279305534728929, -0.03362653640021429, -1.140992034655149, 0.33874732744867636, 0.6131973841977416, 2.925881745586046, 0.12383628935740436, 0.713906343129654, -1.6949232175683324, -1.3806115887756083, 0.582804514173367, -0.5118745723523468, 1.2026201842534745, 0.2517856296809055, 0.008207909005351056, -1.5954013899939417, -0.07218053845979268, -0.7002908791405285, -0.950041210224849, -2.3696934377402403, -0.23273717928666585, 0.5911931515418536, -0.19518727291125376, 0.0351683614648532, 0.11296836692330368, -1.6540222742420478, 1.0670382947118822, 0.7729553093084565, 0.19344634676155978, -0.08761549665371056, -0.2676169755624243, -1.1692009942588126, -0.7233025964448279, 1.4062526079579134, -0.028662717287431087, -0.5003219354811579, 0.13911378119018258, -1.5759845910077133, 0.2870772206804827, -0.2218392010233073, -1.715667237789988, 1.2897910090312124, 0.3361919186410212, -0.3363854481325916, -0.40962690814387376, 1.0733036441997212, 1.2208284053312368, -1.1727429566546892, -1.0148557038776533, -0.17632476206432968, -0.0352178840969094, -1.28720405818948, -0.7264829399693792, 1.9150383975876648, -0.31896228795600023, 1.6044988322958404, -0.38314021057623016, 0.6831642911569908, -1.1957848499938175, 0.39319855067452, -2.729371248537297, -0.707399433193634, -0.7030224738581328, 0.49236734278602295, 0.19990147217144283, 0.5256790686806531, 0.17424883220083423, -2.0322348545834172, -0.3141755105639513, -0.7313927377797682, 1.0714918573183512, 0.7915145716538707, 0.993437468890446, 0.24741404950980653, 0.8551282720081221, -0.5100516776092368, 0.041518185170802774, 0.8335901792166929, 1.3775901705297657, -0.8725500007992528, 0.3450209571827668, 0.6928829441476533, -1.0595549039523053, 1.0332228266384462, 1.9115301530560245, -1.2502790922642082, 0.42142527840385485, -0.6360093039686443, -1.5083856650002543, -0.16599960074249656, -1.920283488674368, -0.42908942951182355, -0.5820361454142375, -0.5723754766868011, -2.684142993891985, 1.0593740896864918, -0.9637534857395808, 0.19907957145897126, -0.15862196272411688, -1.59936344346308, -0.27211452399734243, 1.317837076673036, 0.3867625750266304, 0.7435155297134642, -0.024172069875489584, 0.10464646746215367, 2.3671781559871197, 0.7171106817633689, 1.6589062121116507, -0.05791071395631447, 0.7069806179625371, -0.5769613162127474, -0.8276180651900615, 1.0453248071149919, 0.6277876116068491, 0.5978100849314156, 1.9893127032653357, -0.2445202659023236, 1.2094932116768515, 0.1477260359395977, 0.44876051863592953, 0.15943895176415268, 0.5649481774045962, -1.3512556233280857, 2.2056614446360467, 0.7029094247518108, -0.8605332125378374, -1.4809943473116325, 0.5722601235212389, 0.03781282663211937, -0.7121536062503641, -0.9262175123346742, 1.728404023926047, -0.36366491725994304, -0.1160615620026511, -0.9042014120431724, -0.2918201973812044, -1.428046797496668, -0.39277986068866305, -0.1725003932495681, -2.076404346059119, 0.9438140943658511, -0.38486084563253414, 1.5500216218504934, 1.0256083023708935, 1.430444383955251, -0.34833203737973717, -0.4818136002557169, 0.20322863729735627, -0.8008339663414623, 0.4101082590118342, -0.647808166398171, 0.009214239448467948, 0.9140388710936199, -1.1923864180695214, -0.36825313323312786, 0.5483846861170486, -0.5476758526647558, -0.9979814674528579, -0.7994078871504161, -0.03169190645178441, -0.09174234735661653, 0.16293314244258858, -1.892167066703992, 0.3813224798634134, 0.15150793594206055, 0.0027111441759322154, -0.47831657193114446, 0.270561220419985, -0.02982443379651593, -0.6281343702436089, 1.0858466351679645, 0.49331326062365255, -1.07606772677053, -0.47139884226010836, -0.2709750745865812, -1.7130772242625965, 0.1483565846252384, -0.5272119527520631, 2.094808813845246, 0.2677182549238089, 0.2171378322355852, 1.0461570327957128, 2.728464467689949, -1.504162258210126, -1.3372235580287857, -1.0224944813596388, -0.5532962665632681, 1.0081039074389084, 0.6656768669390123, -0.17038912666892436, 0.10338555860771034, -1.2073627209631543, -2.0812320298916314, 1.0465620857127549, -0.9189983336930669, 0.6309892266578665, 0.952673467397017, 0.9832072812417088, 0.8443292232692109, 0.5480098368376254, 1.0377889680706907, 0.3597906196441796, -2.5969957437173194, -0.8774207750500688, -0.11517732966962946, 0.5612950970705386, 1.07135701866325, -0.5065735465520993, 0.7037204978868208, -1.6567761104082974, -1.0547450112432282, -1.3780896768017175, 0.05750732426226031, -0.7174068608607969, -0.9487494756511302, -1.5576234665676592, -0.5968276603364517, 0.29243931088041664, 0.007104345114256168, 1.7675394721987097, 0.6145112971342406, 1.6816325301755033, -1.5867817724862572, 0.7500414694941909, 0.4761087217824736, 0.9467731758780134, 0.15636082037634422, 1.5885494590493496, -0.15547140882385943, -1.1917362442815391, -0.6882310296346948, 0.9459594109182861, 1.4666983610308904, 0.12278507845935903, -0.2707180418531323, 0.7919218552540086, 0.6655916336090646, -0.6119428064795969, -1.158985156569712, 0.7392866608118662, 0.23225968741908545, 0.9588619088103305, 0.8252461581013588, -0.003540647977459891, 1.9730432062249585, -0.8413993338473361, 1.2306388682073628, -0.08016222769463503, 2.3097106508359024, 0.6182059053118498, -0.378063031697592, 0.5090593078202436, -0.721774109485699, -0.439735477946645, 2.478490149193318, -1.762817287784893, -1.7730445484557709, -0.17888257011772207, 1.7857491433579633, 1.3752905014657009, 0.03766170329462113, -0.29419495274783086, -0.91851132603013, -0.38413680108594517, 1.4766431216323441, 0.9687198316012682, -0.06140920920014947, -0.18348806052734326, 1.5603837509498482, -0.9678863246658007, -0.683208310265759, 1.1818040242323162, -0.8495927355024072, -1.3876359538712266, -1.4584460968766184, 1.555262642988579, -0.9041795864299557, 0.39331321419204784, -0.3820191646412717, 0.6149060390564524, 1.2147453580543957, 0.10837719572297098, -0.9179064179391336, -0.7372292317501025, 0.08169240292948121, 2.319264008097533, -1.1179854829923288, 1.541744424311998, 0.20483321524240336, -0.021792431040802144, -0.07011983344798449, -0.3555940469215556, 0.5654127320126632, 0.20461484848701633, 0.10002905267140476, -0.871118539602552, 0.05128755512662895, -0.9471624058100399, 1.0848946295023574, -0.04081857082420396, -1.3415391093341447, -0.2404627747544261, 1.1657921916472964, -0.25434240067277125, 1.5948827378575254, 0.6286915853690609, -0.20010377941510588, 0.741508734929359, 0.1762863543434871, -0.464845317132272, 0.8221960446318124, 1.983028743641475, 1.9196807296807328, 1.2457195212815968, 0.6366885670997793, 0.2316325896064484, -0.9162458277435515, 1.3846074621130902, 1.487603008006573, 0.8388916181815191, -0.08200352515341207, 0.12141640617651371, 1.1597764684243514, 0.026091098779566394, 0.021178782649808218, 0.1726679522257697, 0.36624175900221184, 0.42455859105318094, -1.0703887720014693, 0.24873324871277674, 1.0789029259723768, 0.5631475548177902, -0.7155180321509678, -0.4671244164836187, -0.19852270020943552, -1.9565173005682355, 0.08017156840009962, 0.8007075514976264, -0.06997843263991282, 2.5020616416826993, -0.16041695536539757, -1.2514395834050496, 1.4106844187513896, 0.0007920892997191304, -0.26247681336184164, -0.7384701641737923, -1.098667735622254, 1.0386894378484386, 0.10491623672689848, 1.479731839083649, 0.4718249969155978, -0.37614883305858515, 1.575751688268731, 1.7750600716545948, 0.06733375200544744, 0.7550604595050856, 0.2918895303069622, -0.6014379923656238, -0.16841058322103467, 0.7098825633907225, -0.8425830272411484, 2.2266432960410967, 0.8821496702025373, -0.2565911051770337, -0.09919390554937028, 0.8713844372182936, -1.8170513799110053, 0.5409990149351523, 1.0798140845967232, -0.41560505080239246, 1.034353312767179, -1.5808235870072396, -0.15337989957809897, 0.08600090879012139, 0.3152940193587389, -0.2739615743077806, 0.8434405195958588, 1.8677345681891016, -0.08102731019041559, -1.0546668986090255, 0.5421792370527581, 0.006800190733071431, 0.07804545412969374, 1.7331688938041012, 0.4134062100255953, 1.156705621183542, 1.55330084099248, -0.0590542623433639, 1.715739445393906, 0.8360151260027674, 1.2318561660738268, 1.286889646432824, 0.5686167598385734, -2.2492680753761016, 1.7722133683330914, 0.16481584196606414, 0.39124801414466437, 1.3374546356578423, 1.2694038864897208, -1.1919255625414944, 2.0652342762564637, -0.24821538637116128, 2.4416753042972186, 1.4638587684277469, -2.363501120736253, 2.4103245781333573, 2.106051133824906, -0.00661069753409153, -0.28812304334162253, -0.9584739240160712, -0.7282562145932528, -0.18744612106449637, 0.8927857938161229, -1.2295988455219184, -0.27963686839752133, -0.3958362822435436, -1.4224439173988024, 1.8540793056272202, 1.327996197367045, 0.6383443147974596, 0.031695466578581646, 1.6812061152081303, -0.6702657679229362, 0.3127745010170549, 0.9823467580753745, 0.2424782242695332, 0.034391896138030814, 0.2758202156018449, -0.22837336469350447, 0.06484322563657048, -1.5900657366677242, -1.426378193857545, 1.2784770720608079, -1.4161270613353665, -1.218326373366406, -0.0037136409566353953, 0.9780211600307853, 0.09593362785725558, -0.6045973339367403, 0.7607207052461681, 0.6766982520751382, 1.532668791629782, -0.2613052257112518, 1.3259427156600434, -0.20378221258481724, -0.6305405359074916, -0.13459086591358768, 0.7174178542649018, -0.6419930936551546, -0.9156510798116069, 1.358022656002676, 1.1278684379201231, -1.4456813491607545, 1.2173893847351474, 0.7009822952542275, 0.44090114055901386, -1.2665997018088129, -0.5964736599634873, 1.1181649119606776, -1.7315734393634483, 0.23171767165674959, 0.1522931422636457, -0.33597947639177517, -0.9299627333617784, 0.2201825566808479, 1.6322306122353856, -0.8969690545276924, 0.9337935890969095, 1.0291182717961773, -0.4170286765713625, 0.7152976881827269, -0.40919305350246676, 1.0401559086912995, -1.2711018812533441, -0.6231722674173944, 0.7679586719876327, 0.387310662295584, -0.16870793002441611, 0.8301751006107374, 0.7861768216617862, -0.8217420743890131, 0.5192797613080489, -0.2543164339006691, -0.6060784285323867, -1.661118371114822, 